tree
version=v4
num_class=10
num_tree_per_iteration=10
label_index=0
max_feature_idx=7
objective=multiclass num_class:10
feature_names=sex age height weight hypertension diabetes fitness_goal fitness_type
feature_infos=[0:1] [18:63] [1.3:2.0299999999999998] [32:130] [0:1] [0:1] [0:1] [0:1]
tree_sizes=3243 3246 3277 3240 3250 3233 3234 3259 3241 3257 3317 3301 3308 3316 3310 3317 3305 3319 3315 3319 3352 3330 3350 3322 3311 3337 3310 3323 3313 3331 3351 3318 3356 3327 3309 3319 3319 3328 3313 3330 3349 3313 3350 3319 3317 3319 3311 3324 3335 3333 3333 3321 3367 3332 3355 3319 3322 3307 3352 3351 3370 3383 3372 3320 3345 3333 3316 3316 3337 3358 3370 3356 3377 3331 3348 3318 3341 3351 3304 3370 3356 3392 3403 3322 3368 3331 3357 3327 3324 3366 3348 3387 3388 3308 3348 3325 3370 3349 3359 3343 3331 3391 3385 3346 3341 3347 3350 3329 3371 3358 3336 3383 3377 3324 3358 3349 3324 3350 3340 3336 3342 3367 3362 3346 3360 3340 3346 3322 3326 3355 3352 3374 3367 3325 3376 3355 3338 3340 3352 3364 3357 3354 3345 3352 3384 3359 3347 3345 3352 3347 3341 3361 3381 3335 3373 3358 3353 3352 3327 3361 3358 3379 3370 3304 3374 3351 3333 3316 3338 3357 3337 3389 3358 3348 3368 3361 3358 3343 3345 3355 3335 3386 3360 3336 3339 3354 3348 3323 3347 3361 3353 3361 3368 3367 3370 3347 3317 3354 3351 3362 3331 3358 3376 3336 3364 3347 3367 3343 3355 3344 3359 3360 3377 3343 3386 3349 3347 3328 3359 3362 3341 3352 3370 3368 3342 3343 3366 3359 3359 3349 3343 3347 3377 3378 3375 3332 3354 3369 3353 3372 3338 3357 3367 3319 3371 3327 3353 3359 3355 3355 3352 3370 3386 3342 3378 3369 3356 3374 3359 3345 3344 3359 3372 3338 3371 3348 3358 3357 3366 3337 3363 3367 3358 3359 3356 3348 3381 3344 3349 3358 3358 3350 3354 3369 3385 3329 3383 3347 3348 3353 3355 3372 3376 3352 3362 3349 3371 3359 3363 3370 3350 3382 3374 3347 3395 3356 3370 3348 3369 3369 3351 3382 3366 3329 3377 3364 3380 3373 3367 3358 3347 3384 3377 3362 3387 3341 3372 3363 3385 3360 3353 3370 3390 3359 3384 3356 3377 3354 3373 3364 3365 3395 3383 3349 3355 3355 3337 3377 3373 3376 3364 3382 3385 3390 3329 3340 3371 3365 3386 3365 3361 3360 3408 3361 3381 3371 3403 3366 3384 3376 3367 3372 3405 3377 3403 3351 3393 3382 3373 3401 3365 3386 3389 3370 3364 3365 3359 3382 3390 3385 3387 3387 3407 3382 3388 3353 3373 3384 3407 3386 3377 3356 3396 3344 3389 3349 3404 3386 3380 3394 3381 3396 3420 3375 3391 3345 3374 3406 3388 3359 3385 3395 3392 3388 3378 3366 3368 3395 3359 3401 3391 3385 3385 3374 3391 3339 3388 3382 3367 3397 3396 3351 3404 3366 3395 3375 3368 3389 3354 3402 3396 3411 3393 3396 3387 3381 3401 3393 3389 3400 3389 3419 3382 3380 3388 3377 3371 3376 3372 3403 3358 3392 3403 3403 3393 3394 3381 3393 3379 3423 3371 3392 3396 3398 3402 3360 3379 3391 3381 3410 3362 3399 3418 3395 3371 3406 3384 3386 3394 3387 3374 3438 3388 3400 3368 3405 3396 3384 3374 3406 3371 3398 3429 3391 3393 3412 3382 3393 3408 3390 3366 3402 3430 3366 3393 3416 3388 3396 3392 3408 3391 3405 3416 3398 3401 3409 3381 3414 3404 3405 3380 3396 3428 3416 3387 3399 3387 3422 3404 3429 3389 3413 3407 3366 3400 3376 3382 3425 3415 3447 3347 3406 3397 3392 3422 3397 3403 3417 3408 3432 3379 3413 3434 3415 3413 3404 3397 3430 3399 3439 3370 3425 3412 3390 3431 3412 3390 3431 3411 3438 3395 3416 3415 3413 3412 3391 3403 3420 3419 3433 3394 3385 3425 3394 3428 3413 3405 3430 3410 3425 3368 3433 3415 3403 3449 3402 3426 3424 3416 3418 3392 3442 3431 3435 3419 3390 3418 3400 3418 3427 3377 3407 3428 3427 3457 3409 3414 3402 3434 3438 3415 3427 3432 3408 3465 3413 3400 3422 3425 3454 3419 3437 3391 3427 3450 3391 3418 3425 3382 3444 3382 3433 3401 3422 3463 3416 3432 3432 3418 3450 3408 3430 3410 3443 3427 3404 3431 3430 3411 3453 3382 3443 3454 3441 3452 3384 3437 3425 3439 3431 3426 3446 3417 3391 3464 3397 3424 3434 3437 3445 3429 3431 3412 3412 3431 3393 3425 3418 3401 3433 3365 3444 3441 3431 3462 3422 3446 3416 3397 3444 3392 3444 3426 3430 3415 3429 3442 3414 3421 3458 3375 3462 3397 3408 3458 3437 3444 3430 3421 3475 3415 3456 3423 3409 3447 3441 3418 3436 3407 3470 3418 3464 3426 3406 3460 3441 3440 3441 3432 3464 3425 3432 3430 3408 3450 3451 3435 3419 3437 3459 3424 3420 3423 3386 3454 3438 3451 3443 3440 3476 3432 3422 3394 3433 3458 3453 3443 3456 3440 3462 3377 3456 3428 3418 3477 3446 3444 3438 3396 3447 3383 3457 3407 3406 3447 3478 3445 3453 3444 3450 3431 3447 3443 3439 3448 3449 3443 3454 3449 3447 3405 3479 3418 3427 3452 3464 3466 3453 3398 3476 3389 3460 3408 3442 3443 3488 3453 3443 3391 3465 3423 3466 3449 3465 3467 3449 3408 3445 3423 3465 3390 3462 3447 3439 3461 3488 3443 3448 3441 3463 3429 3471 3441 3439 3443 3482 3408 3445 3407 3472 3412 3467 3439 3434 3451 3479 3441 3471 3466 3470 3415 3414 3418 3466 3454 3471 3431 3450 3419 3462 3426 3459 3421 3423 3441 3451 3426 3465 3451 3502 3417 3441 3412 3432 3464 3473 3455 3484 3435 3500 3412 3412 3462 3439 3466 3465 3455 3413 3479 3499 3406 3440 3446 3466 3471 3472 3446 3451 3467 3481 3426 3469 3434 3463 3469 3489 3456 3463 3487 3454 3414 3465 3436 3468 3478 3461 3432 3423 3476 3444 3425 3490 3455 3453 3476 3463 3462 3464 3424 3467 3437 3465 3459 3443 3461 3479 3430 3459 3461 3450 3436 3481 3464 3447 3463 3471 3440 3446 3470 3434 3438 3476 3432 3460 3461 3488 3435 3457 3461 3454 3477 3496 3449 3447 3476 3468 3424 3482 3499 3451

Tree=0
num_leaves=31
num_cat=0
split_feature=6 4 5 1 2 2 0 3 1 1 2 1 1 1 3 2 1 1 1 2 3 2 1 1 3 3 3 3 1 2
split_gain=1843.09 2982.67 4371.82 102.737 85.2477 69.3536 25.6784 12.6442 10.0476 9.89651 9.5866 5.15748 5.09214 17.4474 4.45945 4.31069 5.49446 4.49697 19.4002 4.2188 8.0359 4.19478 5.24591 4.69139 4.99927 2.98255 2.84416 3.54315 2.75927 2.71725
threshold=1.0000000180025095e-35 1.0000000180025095e-35 1.0000000180025095e-35 49.500000000000007 1.675 1.6850000000000003 1.0000000180025095e-35 72.850000000000009 56.500000000000007 49.500000000000007 1.675 54.500000000000007 50.500000000000007 51.500000000000007 64.15000000000002 1.7950000000000002 59.500000000000007 56.500000000000007 53.500000000000007 1.675 54.750000000000007 1.7950000000000002 56.500000000000007 53.500000000000007 78.750000000000014 84.750000000000014 84.750000000000014 85.500000000000014 60.500000000000007 1.6850000000000003
decision_type=2 2 2 2 2 2 2 2 2 2 2 2 2 2 2 2 2 2 2 2 2 2 2 2 2 2 2 2 2 2
left_child=11 2 3 14 28 7 -7 -6 -9 -3 -11 -1 -4 -14 -2 17 -17 18 -8 -13 -21 22 23 24 -12 -25 -24 -28 -5 -26
right_child=1 9 12 4 5 6 15 8 -10 10 21 19 13 -15 -16 16 -18 -19 -20 20 -22 -23 26 25 29 -27 27 -29 -30 -31
leaf_value=-1.812990748197066 -1.5550750649880489 -1.8133375446613849 -1.8133375446613849 -1.4976834028384187 -1.7712503257516561 -1.6698583892873093 -1.5327560852631927 -1.7381817966082977 -1.6276586377066988 -1.811617358602404 -1.7415979669743471 -1.8114206166746056 -1.700603922581754 -1.8038584413033378 -1.4981023200803867 -1.4976834028384185 -1.5705266663360262 -1.5282305778535443 -1.6870758879321983 -1.777654902542267 -1.8090282731006617 -1.8048825230054126 -1.8133375446613849 -1.7589144167608735 -1.7669178179227134 -1.6997020536051171 -1.7404942811637774 -1.7989896291239773 -1.5327560852631927 -1.8133375446613849
leaf_weight=720.88395693898201 3.4848268628120413 306.50636270642281 153.01557952165604 26.294602692127228 4.7520366311073294 5.227240294218066 5.7024439573287982 3.3264256417751294 5.3856415152549744 58.133248120546341 6.9696537256240907 78.250203192234039 4.4352341890335074 52.747606605291367 238.71064010262489 6.9696537256240827 4.1184317469596863 4.9104378521442404 3.1680244207382202 36.432280838489532 46.411557763814926 17.740936756134033 10.771283030509951 4.5936354100704175 5.3856415152549726 3.9600305259227753 4.1184317469596845 6.9696537256240845 7.1280549466609946 7.6032586097717285
leaf_count=4551 22 1935 966 166 30 33 36 21 34 367 44 494 28 333 1507 44 26 31 20 230 293 112 68 29 34 25 26 44 45 48
internal_value=-1.75898 -1.71112 -1.63152 -1.51492 -1.56523 -1.61132 -1.56912 -1.70564 -1.66986 -1.80848 -1.7967 -1.81118 -1.80858 -1.79585 -1.49892 -1.54795 -1.52474 -1.56662 -1.58787 -1.8031 -1.79523 -1.78397 -1.77661 -1.76248 -1.77576 -1.7315 -1.79504 -1.77726 -1.50516 -1.79409
internal_weight=1844.11 962.129 529.377 319.178 76.983 43.5603 30.0962 13.4641 8.71207 432.752 126.246 881.978 210.198 57.1828 242.195 24.869 11.0881 13.7809 8.87047 161.094 82.8438 68.1125 50.3716 28.5122 19.9586 8.55367 21.8594 11.0881 33.4227 12.9889
internal_count=11642 6074 3342 2015 486 275 190 85 55 2732 797 5568 1327 361 1529 157 70 87 56 1017 523 430 318 180 126 54 138 70 211 82
is_linear=0
shrinkage=1


Tree=1
num_leaves=31
num_cat=0
split_feature=3 5 4 0 3 1 2 3 2 5 4 3 1 1 2 2 2 3 1 3 2 3 3 1 2 1 2 2 1 2
split_gain=658.976 928.191 1802.65 2088.08 238.747 188.514 154.389 30.7422 46.1683 68.0546 118.693 88.331 24.8891 18.7435 38.3782 32.7252 23.145 33.8748 32.9927 31.0487 21.6363 23.1733 16.1373 12.8463 11.2737 10.2757 21.1993 8.68974 8.13477 6.08471
threshold=52.750000000000007 1.0000000180025095e-35 1.0000000180025095e-35 1.0000000180025095e-35 47.45000000000001 49.500000000000007 1.675 65.250000000000014 1.7550000000000001 1.0000000180025095e-35 1.0000000180025095e-35 59.750000000000007 59.500000000000007 44.500000000000007 1.7450000000000003 1.5950000000000004 1.6250000000000002 45.250000000000007 28.500000000000004 48.350000000000009 1.6950000000000001 40.750000000000007 62.350000000000009 23.500000000000004 1.7850000000000004 52.500000000000007 1.675 1.675 56.500000000000007 1.7250000000000003
decision_type=2 2 2 2 2 2 2 2 2 2 2 2 2 2 2 2 2 2 2 2 2 2 2 2 2 2 2 2 2 2
left_child=1 2 3 4 28 6 -6 8 25 10 11 24 13 14 15 -5 18 -18 -17 23 21 -15 -13 -19 -10 29 -27 -23 -1 -2
right_child=7 -3 -4 12 5 -7 -8 -9 9 -11 -12 22 -14 20 -16 16 17 19 -20 -21 -22 27 -24 -25 -26 26 -28 -29 -30 -31
leaf_value=-2.0188872487601501 -3.5768498953900529 -3.5731577673672317 -3.5693960859122695 -3.5768498953900534 -2.9437730104102839 -3.0898676761748454 -1.9941576829406285 -3.5756764877592335 -3.0703883874062368 -3.5696229903103753 -3.5497953276558749 -3.2603114529001682 -3.5768498953900529 -3.022907621032755 -3.5768498953900529 -3.3507510078972782 -3.5328862228220137 -2.8985532329117287 -2.891016603328636 -3.4502345183940992 -3.0492858245735781 -3.2954823909546 -3.5768498953900529 -3.1970037644021914 -2.8271535842297992 -3.566864455563874 -3.4464082295288367 -3.5080371905009478 -2.2005957976079453 -3.5192974513009831
leaf_weight=4.0437426567077646 38.605105675756931 40.626977004110813 20.12393806502223 0.82138522714376261 0.63183479011058841 1.2320778407156465 1.3268530592322347 213.0546912252903 0.78979348763823365 6.9185909517109394 3.6962335221469402 0.78979348763823487 0.82138522714376527 0.63183479011058841 1.3900365382432935 0.66342652961611726 1.1373026221990588 0.6634265296161177 0.94775218516588211 0.78979348763823498 1.4216282777488229 1.4216282777488234 0.8213852271437645 0.78979348763823509 1.2004861012101171 10.014581423252819 5.7496965900063506 0.72661000862717617 0.72661000862717617 5.2126370184123507
leaf_count=128 1222 1286 637 26 20 39 42 6744 25 219 117 25 26 20 44 21 36 21 30 25 45 45 26 25 38 317 182 23 23 165
internal_value=-3.53049 -3.4045 -3.23451 -2.90068 -2.2705 -2.6053 -2.30049 -3.56604 -3.53823 -3.45727 -3.35075 -3.14647 -3.31102 -3.29188 -3.34083 -3.2844 -3.23627 -3.3106 -3.08032 -3.1979 -3.20795 -3.28909 -3.42168 -3.06075 -2.92368 -3.55755 -3.52293 -3.36738 -2.04656 -3.57
internal_weight=367.791 80.938 40.3111 20.1871 7.96112 3.19077 1.95869 286.853 73.7983 14.2163 7.29769 3.60146 12.226 11.4046 7.20292 5.81288 4.99149 3.38032 1.61118 2.24301 4.2017 2.78007 1.61118 1.45322 1.99028 59.582 15.7643 2.14824 4.77035 43.8177
internal_count=11642 2562 1276 639 252 101 62 9080 2336 450 231 114 387 361 228 184 158 107 51 71 133 88 51 46 63 1886 499 68 151 1387
is_linear=0
shrinkage=1


Tree=2
num_leaves=31
num_cat=0
split_feature=3 4 5 0 3 2 1 2 1 1 3 2 3 2 4 5 0 3 2 1 1 1 1 2 0 5 1 2 3 1
split_gain=718.114 942.89 1812.87 2371.71 190.59 147.526 162.407 66.7365 45.6754 34.8921 29.7349 26.2892 25.9482 56.3049 82.4638 171.669 115.599 92.8677 47.9617 18.7512 14.5722 13.1196 7.39785 10.0931 13.2427 9.12666 7.16581 5.16385 14.1233 3.17754
threshold=52.750000000000007 1.0000000180025095e-35 1.0000000180025095e-35 1.0000000180025095e-35 47.45000000000001 1.635 50.500000000000007 1.6250000000000002 27.500000000000004 23.500000000000004 44.95000000000001 1.6150000000000004 60.250000000000007 1.7550000000000001 1.0000000180025095e-35 1.0000000180025095e-35 1.0000000180025095e-35 57.95000000000001 1.8150000000000002 44.500000000000007 27.500000000000004 51.500000000000007 56.500000000000007 1.655 1.0000000180025095e-35 1.0000000180025095e-35 45.500000000000007 1.7250000000000003 55.750000000000007 50.500000000000007
decision_type=2 2 2 2 2 2 2 2 2 2 2 2 2 2 2 2 2 2 2 2 2 2 2 2 2 2 2 2 2 2
left_child=1 2 3 -1 7 -6 9 8 -5 -7 -9 21 13 22 15 16 -15 -18 -19 20 -11 -10 27 -24 -25 -26 -12 -2 -29 -4
right_child=12 -3 29 4 5 6 -8 10 11 19 26 -13 -14 14 -16 -17 17 18 -20 -21 -22 -23 23 24 25 -27 -28 28 -30 -31
leaf_value=-3.5585201114082738 -3.569585927216095 -3.562470442309762 -3.5710101282291551 -2.0722081097234302 -3.356408930124926 -2.7126053358122402 -3.0740389326193616 -2.0197500390757277 -2.2595583620366453 -2.3719685134245752 -2.2025387200282749 -2.7349596272814298 -3.5690685683833867 -3.5710101282291551 -3.5710101282291551 -3.5710101282291551 -2.312016432684346 -3.3461898254532962 -2.7466690180510058 -2.4651372875479027 -2.0577965518531816 -2.5399377051536645 -3.5710101282291551 -3.5447810929053047 -3.4660939869337541 -3.2454083104158422 -2.4264704050066008 -3.3692483180456918 -3.5710101282291551 -3.5268038889192952
leaf_weight=8.0063944458961487 35.107404217123985 40.985114425420761 14.455989971756937 0.66719953715801272 0.6989709436893462 0.69897094368934665 1.2073134481906889 2.2239984571933751 0.76251375675201416 0.66719953715801261 0.73074235022068001 1.0166850090026855 231.77241064608097 0.66719953715801072 5.0198822319507599 2.6687981486320496 0.63542813062667858 0.66719953715801217 0.66719953715801239 1.1755420416593549 0.82605656981468201 0.92137078940868378 3.367769092321395 1.9062843918800354 0.9531421959400177 0.92137078940868378 0.69897094368934631 1.2390848547220219 2.891197994351387 5.6553103625774375
leaf_count=252 1105 1290 455 21 22 22 38 70 24 21 23 32 7295 21 158 84 20 21 21 37 26 29 106 60 30 29 22 39 91 178
internal_value=-3.52464 -3.39349 -3.22211 -2.88881 -2.45272 -2.67985 -2.57649 -2.28211 -2.44267 -2.39813 -2.13412 -2.53419 -3.56165 -3.53134 -3.42574 -3.2883 -3.00219 -2.80952 -3.04643 -2.31576 -2.19817 -2.41297 -3.55484 -3.50806 -3.45199 -3.35762 -2.31202 -3.56336 -3.51048 -3.55858
internal_weight=369.883 81.3983 40.4132 20.3019 12.2955 5.27405 4.57508 7.02148 3.36777 3.36777 3.65371 2.70057 288.484 56.712 10.3257 5.30582 2.63703 1.96983 1.3344 2.6688 1.49326 1.68388 46.3863 7.14857 3.7808 1.87451 1.42971 39.2377 4.13028 20.1113
internal_count=11642 2562 1272 639 387 166 144 221 106 106 115 85 9080 1785 325 167 83 62 42 84 47 53 1460 225 119 59 45 1235 130 633
is_linear=0
shrinkage=1


Tree=3
num_leaves=31
num_cat=0
split_feature=6 4 5 1 2 3 1 2 3 1 3 2 3 1 2 2 1 3 2 3 2 2 2 0 3 3 1 3 3 0
split_gain=4264.47 1837.57 2733.07 75.7563 73.0838 63.0731 51.1291 45.6322 76.3618 32.2815 30.4677 30.128 26.6542 15.132 11.578 10.8698 10.4184 9.71967 10.138 9.39674 9.56208 20.7288 9.38422 14.5251 9.18158 13.8464 16.5869 8.31547 7.98628 6.86233
threshold=1.0000000180025095e-35 1.0000000180025095e-35 1.0000000180025095e-35 51.500000000000007 1.675 72.850000000000009 53.500000000000007 1.675 50.900000000000006 50.500000000000007 44.95000000000001 1.675 72.850000000000009 60.500000000000007 1.8750000000000002 1.885 49.500000000000007 116.50000000000001 1.8750000000000002 52.250000000000007 1.7950000000000002 1.7350000000000001 1.675 1.0000000180025095e-35 85.500000000000014 77.950000000000017 53.500000000000007 97.500000000000014 84.750000000000014 1.0000000180025095e-35
decision_type=2 2 2 2 2 2 2 2 2 2 2 2 2 2 2 2 2 2 2 2 2 2 2 2 2 2 2 2 2 2
left_child=6 2 16 -3 -5 29 -1 -8 10 -4 -9 -11 -13 -12 19 -16 -2 18 24 20 21 -10 -18 -24 25 -7 -27 -20 -28 -6
right_child=1 3 9 4 5 17 7 8 14 11 13 12 -14 -15 15 -17 22 -19 27 -21 -22 -23 23 -25 -26 26 28 -29 -30 -31
leaf_value=-1.1249342618999771 -1.1260978165829676 -0.92917662426325964 -0.92844408396879974 -0.9341199512904903 -1.051669474961884 -0.927622238926745 -1.1211971850359002 -1.1260978165829676 -1.1260978165829674 -0.93335852729831204 -0.97432237484585615 -1.0693905086811897 -0.97302514884810298 -1.0576579622187527 -1.0453619883838261 -1.1260978165829676 -1.1251571740348338 -0.927622238926745 -0.98432954682852281 -1.1186642743486521 -1.1260978165829676 -1.0003966174006933 -1.0580490471008341 -1.1106070397902867 -0.95295954671264571 -0.94888747938991169 -1.0819921326593624 -1.0719681135858159 -1.0103203962835043 -1.1150713956020661
leaf_weight=1117.2659257054329 385.18593019247055 514.6728942990303 243.35487806797028 84.645174980163574 8.0614452362060547 6.0460839271545437 142.83873277902603 5.2903234362602225 5.7941637635231036 43.582188308238983 21.413213908672336 8.8172057271003705 38.543785035610199 7.3056847453117362 14.863289654254915 5.7941637635231009 53.155154526233673 8.3133653998374921 5.2903234362602216 67.262683689594269 7.3056847453117362 7.5576049089431763 17.634411454200745 51.643633544445038 23.680495381355286 7.0537645816803005 6.801844418048856 5.5422435998916626 9.0691258907318115 9.0691258907318115
leaf_count=4435 1529 2043 966 336 32 24 567 21 23 173 85 35 153 29 59 23 211 33 21 267 29 30 70 205 94 28 27 22 36 36
internal_value=-1.05714 -0.999412 -1.04895 -0.93881 -0.967375 -0.999028 -1.12011 -1.10122 -1.08121 -0.937942 -1.01583 -0.963359 -0.990966 -0.995522 -1.10169 -1.06801 -1.12206 -0.97846 -0.985117 -1.10961 -1.08011 -1.05495 -1.10935 -1.09723 -0.976054 -0.994931 -1.01268 -1.02917 -1.04104 -1.08524
internal_weight=2932.85 1530.16 841.917 688.246 173.573 88.9278 1402.69 285.426 142.587 334.298 34.0092 90.9432 47.361 28.7189 108.578 20.6575 507.619 71.7972 63.4839 87.9201 20.6575 13.3518 122.433 69.278 52.6513 28.9708 22.9247 10.8326 15.871 17.1306
internal_count=11642 6074 3342 2732 689 353 5568 1133 566 1327 135 361 188 114 431 82 2015 285 252 349 82 53 486 275 209 115 91 43 63 68
is_linear=0
shrinkage=1


Tree=4
num_leaves=31
num_cat=0
split_feature=3 5 4 1 3 3 2 3 2 5 4 2 3 3 2 3 5 4 1 2 3 2 3 1 5 1 1 2 5 0
split_gain=1338.45 1892.82 3815.65 140.54 186 84.994 75.2133 66.3029 137.899 226.209 373.715 23.2099 18.5068 18.2262 57.7836 16.4426 43.8207 94.9449 28.508 16.0672 6.31353 12.5867 10.7038 14.998 7.79671 4.96527 4.1822 3.75115 4.52951 3.21561
threshold=51.250000000000007 1.0000000180025095e-35 1.0000000180025095e-35 49.500000000000007 47.45000000000001 49.900000000000006 1.5250000000000001 59.250000000000007 1.7550000000000001 1.0000000180025095e-35 1.0000000180025095e-35 1.675 57.95000000000001 48.95000000000001 1.675 54.750000000000007 1.0000000180025095e-35 1.0000000180025095e-35 50.500000000000007 1.6650000000000003 65.250000000000014 1.8750000000000002 64.65000000000002 54.500000000000007 1.0000000180025095e-35 58.500000000000007 58.500000000000007 1.7750000000000001 1.0000000180025095e-35 1.0000000180025095e-35
decision_type=2 2 2 2 2 2 2 2 2 2 2 2 2 2 2 2 2 2 2 2 2 2 2 2 2 2 2 2 2 2
left_child=1 -1 3 6 19 25 -3 8 11 -10 12 -2 -11 -8 -15 16 -13 -18 -17 -5 21 22 27 -24 -25 -6 -22 -9 -29 -20
right_child=7 2 -4 4 5 -7 13 20 9 10 -12 15 -14 14 -16 18 17 -19 29 -21 26 -23 23 24 -26 -27 -28 28 -30 -31
leaf_value=-2.9179477840491135 -2.918351459621535 -2.4796933367628409 -2.9125000416182822 -2.0997607919496044 -2.7661370159194982 -2.2522315198356297 -2.0766737416703327 -2.9193510768637574 -2.9193510768637569 -2.1383330588796077 -2.9193510768637574 -2.9193510768637574 -2.3485051401198245 -2.477948663191011 -2.0766737416703327 -2.91253697442284 -2.3887764584086382 -2.9193510768637569 -2.8374241137199521 -2.2965026117207916 -2.9192136987523791 -2.7572977431727139 -2.9193510768637574 -2.6735701874323419 -2.8427440463916276 -2.6384586317992826 -2.9013923795563565 -2.9193510768637574 -2.82970455184318 -2.7770808774155169
leaf_weight=71.260964628309011 50.019145030528307 1.3646979071199918 36.490835342556238 4.3314324878156167 1.9580448232591154 1.4240325987339018 19.105770699679855 30.913374330848455 8.3068568259477633 2.432722356170415 3.6194161884486675 3.5600814968347541 1.8393754400312898 1.2460285238921631 3.2040733471512794 22.013170588761572 1.6020366735756397 1.7800407484173775 4.2720977962017042 1.3646979071199892 363.95899835973978 1.542701981961726 2.7887305058538905 1.424032598733902 1.3053632155060768 1.246028523892164 36.194161884486675 2.8480651974678031 2.7887305058538914 4.5687712542712688
leaf_count=1201 843 23 615 73 33 24 322 521 140 41 61 60 31 21 54 371 27 30 72 23 6134 26 47 24 22 21 610 48 47 77
internal_value=-2.87165 -2.73543 -2.55412 -2.18307 -2.33819 -2.57364 -2.11881 -2.90721 -2.87128 -2.73723 -2.54553 -2.89601 -2.22882 -2.0979 -2.18903 -2.86644 -2.79691 -2.66803 -2.88208 -2.1469 -2.91563 -2.89757 -2.90271 -2.8378 -2.75448 -2.71648 -2.9176 -2.91251 -2.875 -2.80624
internal_weight=690.774 142.997 71.7356 35.2448 10.3242 4.62811 24.9206 547.778 104.014 16.1984 7.89151 87.8153 4.2721 23.5559 4.4501 37.7962 6.94216 3.38208 30.854 5.69613 443.764 43.611 42.0683 5.51813 2.7294 3.20407 400.153 36.5502 5.6368 8.84087
internal_count=11642 2410 1209 594 174 78 420 9232 1753 273 133 1480 72 397 75 637 117 57 520 96 7479 735 709 93 46 54 6744 616 95 149
is_linear=0
shrinkage=1


Tree=5
num_leaves=31
num_cat=0
split_feature=5 6 4 1 2 3 2 1 1 3 3 1 1 2 2 1 2 1 4 2 1 3 1 1 1 1 1 3 1 3
split_gain=1379.44 2438.08 4848.59 148.456 136.477 47.9271 22.0843 25.8805 15.1707 12.9241 23.0319 11.8293 11.0273 12.5947 15.3221 12.6084 11.451 11.3807 9.63947 9.47904 7.17763 7.13387 9.55001 16.3578 8.8714 6.983 12.7687 5.88782 4.80535 4.72038
threshold=1.0000000180025095e-35 1.0000000180025095e-35 1.0000000180025095e-35 49.500000000000007 1.675 48.95000000000001 1.7950000000000002 59.500000000000007 59.500000000000007 54.750000000000007 56.45000000000001 57.500000000000007 49.500000000000007 1.675 1.7450000000000003 59.500000000000007 1.7150000000000001 57.500000000000007 1.0000000180025095e-35 1.655 60.500000000000007 72.850000000000009 55.500000000000007 53.500000000000007 51.500000000000007 51.500000000000007 52.500000000000007 64.65000000000002 62.500000000000007 99.500000000000014
decision_type=2 2 2 2 2 2 2 2 2 2 2 2 2 2 2 2 2 2 2 2 2 2 2 2 2 2 2 2 2 2
left_child=12 2 25 -4 20 11 9 -8 -3 -7 -11 -6 -1 -14 15 16 17 21 -19 -10 -5 22 23 24 -15 -2 -27 -28 29 -21
right_child=1 8 3 4 5 6 7 -9 19 10 -12 -13 13 14 -16 -17 -18 18 -20 28 -22 -23 -24 -25 -26 26 27 -29 -30 -31
leaf_value=-2.2024785085423271 -2.2024785085423271 -2.1991213613097003 -1.766473577328737 -1.764635832623938 -2.1805863747464076 -1.8840474715107716 -1.764635832623938 -1.9653137257531996 -2.2024785085423271 -2.0757345760396353 -1.9105833912634012 -2.0233610502120771 -2.2024785085423271 -2.1003152174947028 -2.1981964285822451 -2.2024785085423271 -2.0851992203499012 -2.1563898058140758 -2.0479457993946601 -2.1093204923894784 -1.8327446933223541 -2.2024785085423271 -2.2024785085423271 -2.038287505072931 -2.2024785085423271 -2.0857204616307565 -2.1944002303888515 -2.1314769935285343 -2.2024785085423271 -2.1751133412974277
leaf_weight=522.79052728414536 113.73948562145233 282.9783588051796 108.82904598116875 15.644889086484911 2.2839254140853908 3.7684769332408932 3.882673203945159 2.7407104969024658 8.2221314907073992 4.3394582867622358 4.1110657453536987 2.512317955493927 87.816932171583176 3.4258881211280876 46.706274718046188 13.360963672399519 6.394991159439086 4.3394582867622358 3.8826732039451599 10.734449446201326 5.1388321816921225 11.533823341131209 6.394991159439086 3.6542806625366202 5.595617264509201 3.4258881211280814 30.94718936085701 4.2252620160579673 2.3981216847896567 3.6542806625366202
leaf_count=4578 996 2478 953 137 20 33 34 24 72 38 36 22 769 30 409 117 56 38 34 94 45 101 56 32 49 30 271 37 21 32
internal_value=-2.15156 -2.09654 -1.99648 -1.79791 -1.87494 -1.95712 -1.9212 -1.84767 -2.19582 -1.96105 -1.99539 -2.09823 -2.19871 -2.1885 -2.17683 -2.1598 -2.1472 -2.15741 -2.10518 -2.15849 -1.78148 -2.17144 -2.15266 -2.12753 -2.16368 -2.19624 -2.17787 -2.18684 -2.13695 -2.12603
internal_weight=1329.47 613.577 305.589 153.251 44.4223 23.6386 18.8424 6.62338 307.987 12.219 8.45052 4.79624 715.896 193.106 105.289 58.5827 45.2217 38.8267 8.22213 25.009 20.7837 30.6046 19.0708 12.6758 9.02151 152.338 38.5983 35.1725 16.7869 14.3887
internal_count=11642 5373 2676 1342 389 207 165 58 2697 107 74 42 6269 1691 922 513 396 340 72 219 182 268 167 111 79 1334 338 308 147 126
is_linear=0
shrinkage=1


Tree=6
num_leaves=31
num_cat=0
split_feature=4 5 6 3 2 3 2 1 1 2 2 3 1 2 3 2 3 1 2 1 1 2 2 1 3 3 6 1 2 3
split_gain=586.491 1117.91 2162.14 3021.46 252.117 347.105 212.239 215.504 147.421 88.8372 66.9208 35.6419 27.5636 14.5042 13.6508 38.6001 9.56265 8.94524 8.88296 7.06055 6.72903 11.0649 6.70089 5.93217 4.58985 4.76956 8.01304 11.3605 10.3901 14.8931
threshold=1.0000000180025095e-35 1.0000000180025095e-35 1.0000000180025095e-35 51.250000000000007 1.675 59.750000000000007 1.7650000000000003 49.500000000000007 50.500000000000007 1.5150000000000003 1.7250000000000003 66.750000000000014 56.500000000000007 1.7850000000000004 49.600000000000009 1.6850000000000003 61.750000000000007 49.500000000000007 1.6850000000000003 20.500000000000004 61.500000000000007 1.675 1.675 59.500000000000007 54.750000000000007 82.750000000000014 1.0000000180025095e-35 50.500000000000007 1.7650000000000003 72.850000000000009
decision_type=2 2 2 2 2 2 2 2 2 2 2 2 2 2 2 2 2 2 2 2 2 2 2 2 2 2 2 2 2 2
left_child=17 2 3 9 19 6 7 10 16 -2 18 -10 -9 -8 -11 -16 -7 -1 -6 -5 -4 -22 -19 -21 -24 26 27 -26 29 -28
right_child=1 -3 20 4 5 8 13 12 11 14 -12 -13 -14 -15 15 -17 -18 22 -20 23 21 -23 24 -25 25 -27 28 -29 -30 -31
leaf_value=-2.9208653350418787 -2.5787513573221501 -2.9168201820604827 -2.9150676783202161 -2.1975386392915945 -2.0769841899998815 -2.2304171254620622 -2.7098950487813793 -2.8917659852128446 -2.6139994641175162 -2.9208653350418787 -2.4868693175917085 -2.2957681905663252 -2.5906509739384886 -2.9208653350418787 -2.6170681228267596 -2.9208653350418787 -2.0866839732762257 -2.9175559972181846 -2.2176310475068806 -2.0769841899998807 -2.9208653350418787 -2.729074165714152 -2.9208653350418787 -2.1870556437010111 -2.7701722734272365 -2.9028556764586653 -2.7882554408209934 -2.9091987754330031 -2.7098950487813793 -2.9208653350418787
leaf_weight=269.35072408616543 2.1922518238425246 160.68613368272781 77.61756457388401 1.6590013802051533 2.3700019717216509 1.3035010844469059 1.1850009858608239 1.7182514294981959 1.9552516266703599 28.262273512780666 2.073751725256443 1.599751330912113 1.3627511337399481 2.6070021688938141 1.4812512323260296 3.5550029575824738 10.309508576989172 45.32628770917654 2.1330017745494843 12.027760006487368 1.7775014787912362 1.3035010844469068 10.724258922040461 1.3627511337399472 1.6590013802051551 19.434016168117523 4.1475034505128843 12.857260696589945 1.4220011830329902 4.3252535983920097
leaf_count=4546 37 2712 1310 28 40 22 20 29 33 477 35 27 23 44 25 60 174 765 36 203 30 22 181 23 28 328 70 217 24 73
internal_value=-2.87317 -2.82369 -2.73007 -2.5444 -2.26591 -2.35304 -2.53796 -2.4135 -2.18906 -2.88705 -2.25184 -2.4708 -2.75858 -2.85494 -2.90735 -2.83151 -2.10282 -2.91613 -2.14361 -2.10024 -2.91219 -2.83972 -2.90335 -2.08819 -2.89154 -2.88437 -2.86966 -2.89331 -2.83496 -2.85595
internal_weight=689.789 320.543 159.857 79.1581 43.6673 28.6178 13.4498 9.65776 15.168 35.4908 6.57676 3.555 3.081 3.792 33.2985 5.03625 11.613 369.246 4.503 15.0495 80.6986 3.081 99.8956 13.3905 54.5693 43.845 24.411 14.5163 9.89476 8.47276
internal_count=11642 5410 2698 1336 737 483 227 163 256 599 111 60 52 64 562 85 196 6232 76 254 1362 52 1686 226 921 740 412 245 167 143
is_linear=0
shrinkage=1


Tree=7
num_leaves=31
num_cat=0
split_feature=5 4 6 3 2 3 1 1 2 1 2 3 3 3 1 3 2 1 3 3 3 1 1 0 1 0 1 2 3 1
split_gain=607.807 1163.33 2193.1 3054.74 254.872 366.513 224.346 163.458 104.999 185.261 85.2779 33.1636 27.5336 14.2615 12.5153 12.4817 67.9842 9.24107 7.07591 6.83507 18.016 5.02522 4.00881 6.50138 3.55955 9.39251 3.49293 5.09026 8.93797 17.3803
threshold=1.0000000180025095e-35 1.0000000180025095e-35 1.0000000180025095e-35 51.250000000000007 1.675 59.750000000000007 28.500000000000004 52.500000000000007 1.7250000000000003 49.500000000000007 1.5150000000000003 66.750000000000014 56.95000000000001 55.750000000000007 56.500000000000007 48.95000000000001 1.6650000000000003 50.500000000000007 61.750000000000007 71.750000000000014 72.850000000000009 20.500000000000004 56.500000000000007 1.0000000180025095e-35 52.500000000000007 1.0000000180025095e-35 52.500000000000007 1.675 78.750000000000014 57.500000000000007
decision_type=2 2 2 2 2 2 2 2 2 2 2 2 2 2 2 2 2 2 2 2 2 2 2 2 2 2 2 2 2 2
left_child=17 2 3 10 21 6 13 18 9 -8 -2 -9 -10 -6 -11 -12 -17 -1 -7 24 22 -5 23 -21 25 -19 -4 -28 29 -29
right_child=1 -3 26 4 5 7 8 11 12 14 15 -13 -14 -15 -16 16 -18 19 -20 20 -22 -23 -24 -25 -26 -27 27 28 -30 -31
leaf_value=-2.9088153587359535 -2.5347954537041857 -2.9048158833502895 -2.9063661842863251 -2.1745855143966675 -2.2767304376449715 -2.1936564194444412 -2.1005367658908582 -2.6498785014062682 -2.9088153587359535 -2.8392860174159456 -2.9088153587359535 -2.312849575993027 -2.679368532379927 -2.0744632628958559 -2.6306979934559211 -2.4916393108159047 -2.9088153587359535 -2.7950400729395768 -2.0834832855535863 -2.82935325437023 -2.8875579804979896 -2.0781227019126982 -2.8372994648068026 -2.6751967719007266 -2.9088153587359535 -2.9088153587359535 -2.9088153587359535 -2.6548821121759238 -2.8866644181384289 -2.9088153587359535
leaf_weight=281.83544458076358 1.7378753758966912 162.52131101489067 61.245125316083431 1.4981684274971474 1.9775823242962389 1.6779486387968052 1.9176555871963481 1.7378753758966916 2.8764833807945251 1.4382416903972628 27.206738643348217 1.2584614790976045 2.3970694839954376 1.5580951645970342 1.4382416903972624 1.1985347419977177 5.2735528647899628 2.6367764323949796 11.086446363478897 1.2584614790976039 37.633990898728371 13.663296058773993 2.0974357984960079 1.4981684274971485 42.907543763518333 5.8128934986889362 8.809230353683235 1.3783149532973751 6.7717212922871113 1.3183882161974905
leaf_count=4703 29 2712 1022 25 33 28 32 29 48 24 454 21 40 26 24 20 88 44 185 21 628 228 35 25 716 97 147 23 113 22
internal_value=-2.86108 -2.81067 -2.71473 -2.52979 -2.25414 -2.34009 -2.53023 -2.17598 -2.65056 -2.48121 -2.87634 -2.50833 -2.80452 -2.1876 -2.73499 -2.89397 -2.83156 -2.90429 -2.09797 -2.8907 -2.87586 -2.08765 -2.78521 -2.74557 -2.90297 -2.87331 -2.90064 -2.88146 -2.85601 -2.77903
internal_weight=697.667 321.986 159.465 79.9423 44.5256 29.3641 13.6034 15.7607 10.0677 4.79414 35.4167 2.99634 5.27355 3.53568 2.87648 33.6788 6.47209 375.681 12.7644 93.8453 42.4881 15.1615 4.85407 2.75663 51.3572 8.44967 79.5228 18.2777 9.46842 2.6967
internal_count=11642 5373 2661 1334 743 490 227 263 168 80 591 50 88 59 48 562 108 6269 213 1566 709 253 81 46 857 141 1327 305 158 45
is_linear=0
shrinkage=1


Tree=8
num_leaves=31
num_cat=0
split_feature=6 5 4 3 3 2 1 3 2 1 2 3 2 2 2 1 1 2 3 0 1 3 3 3 1 1 2 2 3 3
split_gain=783.196 1434.81 2543.09 2982.34 155.968 272.348 119.979 126.99 65.1065 48.7879 58.129 25.7798 258.305 34.0688 15.2187 13.6338 11.5374 9.695 19.768 9.64745 3.96765 3.51962 3.11283 5.11239 3.35498 3.03249 6.23068 2.86095 2.75346 4.10589
threshold=1.0000000180025095e-35 1.0000000180025095e-35 1.0000000180025095e-35 51.250000000000007 55.050000000000004 1.7250000000000003 49.500000000000007 54.750000000000007 1.5350000000000004 57.500000000000007 1.8450000000000004 62.350000000000009 1.8050000000000004 1.7550000000000001 1.6850000000000003 54.500000000000007 52.500000000000007 1.675 72.850000000000009 1.0000000180025095e-35 56.500000000000007 50.900000000000006 82.750000000000014 77.950000000000017 55.500000000000007 49.500000000000007 1.655 1.8750000000000002 109.50000000000001 91.500000000000014
decision_type=2 2 2 2 2 2 2 2 2 2 2 2 2 2 2 2 2 2 2 2 2 2 2 2 2 2 2 2 2 2
left_child=1 2 3 8 5 6 14 -8 -1 11 -11 12 13 25 -5 -13 -2 -18 19 20 -19 -10 23 -20 -25 -6 -27 -24 29 -29
right_child=16 -3 -4 4 9 -7 7 -9 21 10 -12 15 -14 -15 -16 -17 17 18 22 -21 -22 -23 27 24 -26 26 -28 28 -30 -31
leaf_value=-2.362284452153939 -2.6115446429712277 -2.6090011384087344 -2.6082860534382983 -1.9792718252657244 -1.9792718252657246 -2.6120752957766875 -2.0244720731593642 -2.5265613132752058 -2.6060941665658088 -2.0546055717551246 -2.3930279405998158 -1.9864832608271028 -2.6120752957766875 -2.1781529159977411 -2.1374726928934651 -2.1374726928934651 -2.6089733179800652 -2.6120752957766875 -2.6120752957766875 -2.459329630480938 -2.5147209156980779 -2.5390595107177303 -2.6064752650642009 -2.5886381302022072 -2.5108267404949336 -1.9792718252657242 -2.105832519367917 -2.6120752957766875 -2.6120752957766875 -2.5252199174712611
leaf_weight=3.0025120228528968 376.89427234232426 211.44005718827248 105.56200164556503 7.664307005703451 14.459465794265279 3.3975793942809096 2.2123772799968711 2.9234985485672951 41.798127897083759 3.318565919995307 2.0543503314256668 27.733729474246505 1.9753368571400631 2.765471599996089 1.8963233828544614 1.5802694857120503 48.356246262788773 2.1333638057112676 3.7926467657089216 4.582781508564949 2.0543503314256668 2.0543503314256659 26.785567782819271 2.1333638057112694 3.9506737142801285 2.5284311771392813 1.5802694857120512 2.054350331425665 3.1605389714241028 4.029687188565731
leaf_count=38 4770 2676 1336 97 183 43 28 37 529 42 26 351 25 35 24 20 612 27 48 58 26 26 339 27 50 32 20 26 40 51
internal_value=-2.56332 -2.51513 -2.42827 -2.27371 -2.08047 -2.20863 -2.11536 -2.31028 -2.58753 -2.04048 -2.184 -2.02583 -2.06508 -2.01443 -2.01065 -1.99462 -2.60749 -2.59266 -2.57824 -2.50946 -2.56432 -2.60295 -2.59138 -2.56651 -2.53811 -1.99004 -2.02795 -2.5982 -2.57422 -2.55455
internal_weight=919.875 439.947 228.507 122.945 76.09 18.0941 14.6965 5.13588 46.855 57.9959 5.37292 52.623 23.309 21.3336 9.56063 29.314 479.928 103.034 54.6773 8.7705 4.18771 43.8525 45.9068 9.87668 6.08404 18.5682 4.1087 36.0301 9.24458 6.08404
internal_count=11642 5568 2892 1556 963 229 186 65 593 734 68 666 295 270 121 371 6074 1304 692 111 53 555 581 125 77 235 52 456 117 77
is_linear=0
shrinkage=1


Tree=9
num_leaves=31
num_cat=0
split_feature=3 5 4 3 1 2 3 2 4 5 3 1 2 2 3 4 2 5 1 1 2 1 5 1 3 2 5 1 3 1
split_gain=1405.6 1871.43 3769.48 149.707 194.879 185.338 77.0039 119.054 208.2 335.671 70.6836 42.0309 73.6012 28.2067 25.3565 26.9425 51.9829 90.646 21.287 16.9703 16.8372 15.846 10.7947 10.6864 9.19139 7.05586 11.4238 4.8521 7.58344 4.23827
threshold=51.250000000000007 1.0000000180025095e-35 1.0000000180025095e-35 47.45000000000001 50.500000000000007 1.635 60.250000000000007 1.7650000000000003 1.0000000180025095e-35 1.0000000180025095e-35 49.900000000000006 36.500000000000007 1.8050000000000004 1.675 56.45000000000001 1.0000000180025095e-35 1.7250000000000003 1.0000000180025095e-35 52.500000000000007 51.500000000000007 1.5150000000000003 59.500000000000007 1.0000000180025095e-35 48.500000000000007 54.750000000000007 1.6850000000000003 1.0000000180025095e-35 56.500000000000007 44.45000000000001 49.500000000000007
decision_type=2 2 2 2 2 2 2 2 2 2 2 2 2 2 2 2 2 2 2 2 2 2 2 2 2 2 2 2 2 2
left_child=1 2 -1 20 5 -5 7 13 -9 11 -6 -10 -13 -2 15 19 18 -18 25 -15 -4 22 -20 -7 -21 -17 -27 -22 -29 -3
right_child=6 29 3 4 10 23 -8 8 9 -11 -12 12 -14 14 -16 16 17 -19 21 24 27 -23 -24 -25 -26 26 -28 28 -30 -31
leaf_value=-2.8927706851364432 -2.8950619161575588 -2.8969097329486941 -2.2425595765153137 -2.7175509944178051 -2.7354868682708942 -2.0718595357066043 -2.8947608702005656 -2.8969097329486941 -2.0718595357066047 -2.8969097329486941 -2.2781220850171273 -2.690647183638172 -2.1968671413493457 -2.8969097329486941 -2.8969097329486941 -2.8969097329486941 -2.2870900219436718 -2.8357949035233543 -2.5433167912735128 -2.8969097329486941 -2.0718595357066043 -2.8594074512558718 -2.7469006061774053 -2.2290119542289073 -2.7430868148188132 -2.7065135335851354 -2.8969097329486941 -2.0718595357066043 -2.2368695751550227 -2.8701381926252045
leaf_weight=36.240219876170158 54.117920316755772 52.724065706133842 1.7574688568711305 1.3938546106219281 2.7877092212438574 7.21168255060911 442.09432106465101 9.2721632793545723 1.6362641081213949 3.999756708741188 1.2120474874973299 1.2120474874973299 1.9998783543705938 10.847825013101099 14.180955603718756 5.090599447488783 1.3938546106219301 1.6362641081213951 1.2726498618721958 1.3332522362470633 18.059507563710216 1.3332522362470625 1.3332522362470627 1.272649861872196 3.5755400881171227 1.5756617337465286 1.5756617337465286 1.6362641081213944 1.2120474874973295 20.544204913079739
leaf_count=598 893 870 29 23 46 119 7295 153 27 66 20 20 33 179 234 84 23 27 21 22 298 22 22 21 59 26 26 27 20 339
internal_value=-2.84914 -2.71102 -2.53144 -2.17311 -2.30244 -2.18322 -2.8852 -2.8492 -2.73135 -2.55785 -2.59689 -2.27812 -2.3832 -2.87072 -2.84154 -2.81618 -2.76871 -2.58339 -2.81482 -2.862 -2.09392 -2.71921 -2.64748 -2.09543 -2.78487 -2.86051 -2.80171 -2.08143 -2.14208 -2.8894
internal_weight=705.533 146.052 72.7835 36.5432 13.8779 9.87819 559.481 117.387 18.1201 8.84795 3.99976 4.84819 3.21193 99.2667 45.1488 30.9678 15.2112 3.03012 12.1811 15.7566 22.6653 3.93915 2.6059 8.48433 4.90879 8.24192 3.15132 20.9078 2.84831 73.2683
internal_count=11642 2410 1201 603 229 163 9232 1937 299 146 66 80 53 1638 745 511 251 50 201 260 374 65 43 140 81 136 52 345 47 1209
is_linear=0
shrinkage=1


Tree=10
num_leaves=31
num_cat=0
split_feature=6 4 5 1 2 3 2 0 1 2 1 1 1 1 2 3 2 1 1 2 1 3 3 3 3 1 3 3 1 1
split_gain=1648.51 2393.65 3019.58 53.7652 48.3561 48.4639 20.0548 12.9507 9.94197 9.34685 7.68 5.21285 5.12712 16.2876 4.20649 8.16452 4.0404 5.02246 4.06453 4.68288 7.67078 2.86224 3.26404 2.74481 2.48194 2.7082 7.16366 2.26848 2.05124 1.95468
threshold=1.0000000180025095e-35 1.0000000180025095e-35 1.0000000180025095e-35 49.500000000000007 1.675 72.850000000000009 1.6850000000000003 1.0000000180025095e-35 49.500000000000007 1.675 56.500000000000007 54.500000000000007 50.500000000000007 51.500000000000007 1.675 54.750000000000007 1.7950000000000002 56.500000000000007 53.500000000000007 1.7550000000000001 52.500000000000007 84.750000000000014 85.500000000000014 84.750000000000014 114.50000000000001 53.500000000000007 94.750000000000014 64.15000000000002 50.500000000000007 60.500000000000007
decision_type=2 2 2 2 2 2 2 2 2 2 2 2 2 2 2 2 2 2 2 2 2 2 2 2 2 2 2 2 2 2
left_child=11 2 3 27 -5 -6 10 -8 -3 -10 -7 -1 -4 -14 -13 29 17 18 19 20 -11 -19 -23 -20 25 28 -27 -2 -9 -16
right_child=1 8 12 4 5 6 7 24 9 16 -12 14 13 -15 15 -17 -18 21 23 -21 -22 22 -24 -25 -26 26 -28 -29 -30 -31
leaf_value=-0.05328547886567489 0.16447432212526814 -0.05360151655964264 -0.053598167822015458 0.19777467508509178 -0.017412281240613871 0.017481354935264124 0.087123981588287103 0.16224498813645113 -0.051802385781071172 0.025721350360580347 0.11113192760824342 -0.051672747511879585 0.054803998406779311 -0.043844974425351117 -0.0087286657918792619 -0.049369078665859163 -0.044963796515376402 -0.053859972013851287 -0.00081579762152686702 -0.053659317945772639 -0.054277492020634088 0.01765995865999263 -0.038782035208603342 0.05535294471209206 0.20826384768975592 0.17458108265866357 0.097849480893988872 0.20209443786220993 0.20912573460083392 -0.033490434243279334
leaf_weight=683.71198035776615 4.0633897185325614 289.64849682152271 144.56126067042351 40.310702219605446 5.4044924974441519 3.452989459037779 5.2611987292766562 4.3253195285797172 55.015923351049423 9.3844139426946693 5.9812563061714172 74.430589094758034 4.5626216828823081 50.447124466300011 23.250972464680672 44.679517060518265 17.00282134115696 10.37811963260174 4.6525878906249982 5.7130276262760153 4.4020930528640738 4.1574664860963804 6.6725044250488281 4.084424301981926 4.1402781158685675 11.014042019844053 4.202337145805358 289.47151893377304 5.066262274980545 12.126608878374098
leaf_count=4551 22 1935 966 211 34 21 31 23 367 60 34 494 28 333 152 293 112 68 29 38 28 26 44 25 22 60 23 1507 27 78
internal_value=0.000228874 0.0438021 0.10902 0.191245 0.15724 0.12379 0.141356 0.159248 -0.0485664 -0.0365592 0.0768553 -0.0514112 -0.0486545 -0.0356628 -0.043116 -0.0351607 -0.0239385 -0.0167084 -0.00289776 -0.0155959 0.000177364 -0.0350959 -0.0171148 0.0254423 0.172447 0.166421 0.15339 0.201574 0.187535 -0.0172164
internal_weight=1831.58 993.377 582.265 382.694 89.1589 48.8482 43.4437 34.0094 411.112 121.463 9.43425 838.2 199.571 55.0097 154.488 80.0571 66.4475 49.4446 28.2365 19.4995 13.7865 21.2081 10.83 8.73701 28.7482 24.608 15.2164 293.535 9.39158 35.3776
internal_count=11642 6074 3342 2015 486 275 241 186 2732 797 55 5568 1327 361 1017 523 430 318 180 126 88 138 70 54 155 133 83 1529 50 230
is_linear=0
shrinkage=0.05


Tree=11
num_leaves=31
num_cat=0
split_feature=3 5 4 0 3 2 5 4 0 3 2 1 2 1 1 2 2 3 3 2 3 1 3 3 1 1 3 2 1 3
split_gain=477.682 462.892 529.078 120.48 30.3475 39.6218 48.3599 69.7467 84.458 84.93 37.0959 11.611 17.0866 10.0497 7.53113 22.6264 15.1412 8.65878 10.8775 8.62449 6.21731 13.7796 6.35569 6.07697 6.06137 5.61366 5.36299 6.67348 10.0077 9.41156
threshold=52.750000000000007 1.0000000180025095e-35 1.0000000180025095e-35 1.0000000180025095e-35 65.250000000000014 1.7250000000000003 1.0000000180025095e-35 1.0000000180025095e-35 1.0000000180025095e-35 56.95000000000001 1.8250000000000004 52.500000000000007 1.675 58.500000000000007 44.500000000000007 1.7450000000000003 1.6150000000000004 41.500000000000007 48.350000000000009 1.7850000000000004 40.750000000000007 50.500000000000007 49.250000000000007 56.45000000000001 60.500000000000007 35.500000000000007 49.250000000000007 1.675 46.500000000000007 45.850000000000009
decision_type=2 2 2 2 2 2 2 2 2 2 2 2 2 2 2 2 2 2 2 2 2 2 2 2 2 2 2 2 2 2
left_child=1 2 3 26 5 11 7 8 9 -7 25 -2 -13 14 15 16 -5 -18 -19 20 -16 22 -22 24 -14 -10 27 29 -29 -1
right_child=4 -3 -4 13 -6 6 -8 -9 10 -11 -12 12 23 -15 19 -17 17 18 -20 -21 21 -23 -24 -25 -26 -27 -28 28 -30 -31
leaf_value=0.35616148464920611 -0.046282856254744285 -0.04240133402712698 -0.038448236808359772 0.002770303647227035 -0.045041587523145861 0.89073367306781615 -0.03552657717484152 -0.026232298130652688 0.079022571656009663 0.23160676183327522 0.33352962967777788 -0.035837324592655574 0.14658568952973758 0.0076182930108765982 0.30454514710670688 -0.046237423555474222 0.06566998434939339 0.26837357895853631 0.091736805979042366 0.3567981169795123 0.17029892515448264 0.065107542315429756 0.35918140491781186 0.0026033028489405876 0.0035048612591200784 -0.046816073095918287 0.2924461772169768 0.35462956470190893 0.24195289396880926 0.4643556140204293
leaf_weight=9.8162015154957825 36.586714319884777 38.607469547539949 19.13449495844543 1.0181976314634029 201.67819068953395 0.79960424453020129 9.2667995523661375 4.9741765521466732 1.9848771989345553 1.2570251449942587 1.3122959006577728 9.5639579519629461 2.8484378270804878 0.92667902447283346 0.99498562142253 1.2732797898352144 0.89073475636541832 4.4359885547310114 1.0846951529383657 0.99008552730083454 0.92194223031401656 1.7875338699668644 0.86157391965389252 2.0368197746574879 1.0000798441469667 1.6011920645833013 4.2315360195934764 7.0167611315846425 2.7402230650186539 2.5275375954806796
leaf_count=82 1222 1286 637 33 6744 17 302 160 49 33 25 317 82 30 20 44 26 94 31 20 25 45 19 59 29 41 50 57 33 30
internal_value=-0.00108446 0.092934 0.17908 0.279333 -0.0350311 -0.00746245 0.0501627 0.116728 0.218972 0.487871 0.106072 -0.030935 0.00541132 0.167173 0.177542 0.148508 0.181883 0.210328 0.233668 0.22302 0.194012 0.163215 0.261544 0.0724424 0.109405 0.0228352 0.344015 0.353888 0.322985 0.378316
internal_weight=374.17 99.2599 60.6525 41.518 274.91 73.232 21.196 11.9292 6.95499 2.05663 4.89837 52.036 15.4493 15.1857 14.259 8.7029 7.42962 6.41142 5.52068 5.55612 4.56604 3.57105 1.78352 5.88534 3.84852 3.58607 26.3323 22.1007 9.75698 12.3437
internal_count=11642 2562 1276 639 9080 2336 627 325 165 50 115 1709 487 387 357 228 184 151 125 129 109 89 44 170 111 90 252 202 90 112
is_linear=0
shrinkage=0.05


Tree=12
num_leaves=31
num_cat=0
split_feature=3 4 5 0 3 2 4 5 1 2 1 2 0 2 3 2 3 1 1 2 1 2 3 3 2 1 3 1 1 3
split_gain=520.425 458.615 517.324 355.067 25.2007 43.8445 48.9693 66.392 10.8376 7.83042 7.02586 8.60462 9.64264 6.6978 6.58964 5.01054 11.2987 3.16852 5.98301 12.5434 3.16566 8.80356 5.06878 3.08727 4.43413 10.9222 9.33363 8.36449 3.66143 3.17131
threshold=52.750000000000007 1.0000000180025095e-35 1.0000000180025095e-35 1.0000000180025095e-35 60.250000000000007 1.7550000000000001 1.0000000180025095e-35 1.0000000180025095e-35 49.500000000000007 1.7950000000000002 56.500000000000007 1.655 1.0000000180025095e-35 1.5550000000000004 55.750000000000007 1.7250000000000003 55.750000000000007 50.500000000000007 55.500000000000007 1.675 49.500000000000007 1.6850000000000003 48.95000000000001 50.900000000000006 1.675 48.500000000000007 44.750000000000007 51.500000000000007 30.500000000000004 41.500000000000007
decision_type=2 2 2 2 2 2 2 2 2 2 2 2 2 2 2 2 2 2 2 2 2 2 2 2 2 2 2 2 2 2
left_child=1 2 3 -1 5 10 7 8 9 -7 15 -12 -13 -5 -14 -2 -17 -4 19 -19 -3 -22 -23 24 26 -26 29 28 -28 -15
right_child=4 20 17 13 -6 6 -8 -9 -10 -11 11 12 14 23 -16 16 -18 18 -20 -21 21 22 -24 -25 25 -27 27 -29 -30 -31
leaf_value=-0.0328738727820466 -0.04479512831705465 -0.046298963181292792 -0.046283131370281665 0.27101603416542674 -0.044241132439855585 0.26485177982950897 -0.046294515063135373 -0.046291351923330504 0.16718925124195311 0.42988872906112197 -0.046288894203496474 -0.019844027076638463 0.19774399356513225 0.37732398932464234 0.017283865138853036 0.12637330043382056 -0.046295941304070741 -0.046332088431525954 -0.046344696026501639 0.18373671208435399 -0.040311422016802205 0.18511243706805014 0.025149044221062389 0.29963117562755842 0.35839472096173425 0.2448905624353177 0.4414550703396512 0.52172425121624588 0.34645719150657667 0.31690718915562199
leaf_weight=7.4651305228471747 33.356166522949934 28.054751513525844 13.626074794679882 2.6547226533293715 219.60887517593801 1.9138392992317661 4.7701846770942211 2.5305383820086718 1.6277845092117784 1.1509566754102705 3.1878565065562716 1.8862825967371462 1.4320600070059302 4.0893225222826057 0.78216939792036999 1.4452075771987427 2.750546807423234 1.3029230535030358 3.1919221635907888 1.0864260792732237 8.3408893235027772 0.64812042005360071 2.0992452967911959 2.4412901885807505 12.471566163003443 2.5534122847020617 1.8320619948208321 1.6651977337896822 2.2723320983350277 4.6325903087854385
leaf_count=252 1105 926 455 35 7295 32 158 84 30 21 106 60 38 39 21 39 91 42 102 34 274 21 69 39 120 35 21 22 26 50
internal_value=-0.00114705 0.0963358 0.181728 0.279876 -0.0365613 -0.00688591 0.0780302 0.160135 0.271453 0.32683 -0.0295982 0.0153267 0.0632284 0.347329 0.133997 -0.0383175 0.0131792 -0.0332861 -0.0015551 0.0582791 -0.0373597 -0.0147421 0.0628854 0.353668 0.358138 0.339105 0.377871 0.427207 0.388861 0.345234
internal_weight=376.87 100.428 61.285 42.0776 276.442 56.8336 11.9933 7.22312 4.69258 3.0648 44.8403 7.28837 4.10051 34.6125 2.21423 37.5519 4.19575 19.2073 5.58127 2.38935 39.143 11.0883 2.74737 31.9578 29.5165 15.025 14.4915 5.76959 4.10439 8.72191
internal_count=11642 2562 1272 639 9080 1785 325 167 83 53 1460 225 119 387 59 1235 130 633 178 76 1290 364 90 352 313 155 158 69 47 89
is_linear=0
shrinkage=0.05


Tree=13
num_leaves=31
num_cat=0
split_feature=6 4 5 1 2 3 1 2 3 3 1 2 3 1 2 2 1 3 2 2 2 0 1 3 3 3 2 3 0 3
split_gain=3728.19 1489.45 2337.31 59.6762 59.0323 54.3604 48.2428 42.0681 69.3868 26.6747 25.0427 24.3082 22.493 13.1708 11.0127 10.1603 9.87242 9.19578 9.02079 19.0989 8.72395 13.1639 8.11064 8.19538 10.0525 17.4913 12.4338 6.43388 6.27771 6.01867
threshold=1.0000000180025095e-35 1.0000000180025095e-35 1.0000000180025095e-35 51.500000000000007 1.675 72.850000000000009 53.500000000000007 1.675 50.900000000000006 44.95000000000001 50.500000000000007 1.675 72.850000000000009 60.500000000000007 1.8750000000000002 1.885 49.500000000000007 52.250000000000007 1.7950000000000002 1.7350000000000001 1.675 1.0000000180025095e-35 53.500000000000007 116.50000000000001 77.950000000000017 84.750000000000014 1.8750000000000002 84.750000000000014 1.0000000180025095e-35 85.500000000000014
decision_type=2 2 2 2 2 2 2 2 2 2 2 2 2 2 2 2 2 2 2 2 2 2 2 2 2 2 2 2 2 2
left_child=6 2 16 -3 -5 28 -1 -8 9 -9 -4 -12 -13 -11 17 -16 -2 18 19 -10 -18 27 -7 24 -24 -26 29 -22 -6 -27
right_child=1 3 10 4 5 22 7 8 14 13 11 12 -14 -15 15 -17 20 -19 -20 -21 21 -23 23 -25 25 26 -28 -29 -30 -31
leaf_value=-0.065047519715871818 -0.066418407187343112 0.11437964507168159 0.11500127284862492 0.11017488324621778 0.0041488643865229087 0.10662433143614905 -0.061326743535738804 -0.066307203345213089 -0.066599772385173048 0.077134154541783198 0.11107298281007197 -0.012074386575549175 0.076234943902228791 -0.00040770215964825449 0.012286864302318536 -0.066724305915991058 -0.065454269997005279 -0.059388271808949955 -0.066517106362860776 0.055029591197741735 -0.035850781598987982 -0.051164232729181164 0.11643099730445516 0.116248457653917 -0.024894082236561543 0.043183596563437378 0.012255630605221056 0.025173773200357477 -0.056587129587185606 0.09128656982379052
leaf_weight=1073.4804061204195 371.17943635582924 539.22131815552711 255.02489548921585 88.535664409399033 8.1298371851444244 13.37551826238632 137.60229045152664 5.0853546112775794 5.598949536681177 21.928716570138935 45.559947580099106 8.8051627576351148 39.818472743034363 7.2989791780710211 14.813139677047731 5.6096639633178702 51.232192486524582 65.437636494636536 7.051116317510604 7.6202783286571503 7.55491375923157 50.280527472496033 6.3230067491531363 6.5903519988059989 6.8038067817687979 9.2354348599910754 9.7052978277206403 10.084698408842085 8.9252821058034897 21.976762801408768
leaf_count=4435 1529 2043 966 336 32 51 567 21 23 85 173 35 153 29 59 23 211 267 29 30 30 205 24 25 27 36 38 40 36 84
internal_value=0.000532037 0.0532379 0.00800659 0.106065 0.0811027 0.0528381 -0.0602398 -0.0416784 -0.0224275 0.039381 0.106864 0.0848314 0.0602432 0.0577698 -0.0424108 -0.00941565 -0.0623987 -0.050273 -0.0208466 0.00351398 -0.0498766 -0.0381263 0.0713826 0.0636086 0.0571895 0.0493401 0.0616838 -0.000962587 -0.0276355 0.0770533
internal_weight=2909.89 1558.36 839.54 718.822 179.601 91.0653 1351.53 278.046 140.444 34.3131 349.208 94.1836 48.6236 29.2277 106.131 20.4228 490.332 85.708 20.2703 13.2192 119.152 67.9201 74.0102 60.6347 54.0443 47.7213 40.9175 17.6396 17.0551 31.2122
internal_count=11642 6074 3342 2732 689 353 5568 1133 566 135 1327 361 188 114 431 82 2015 349 82 53 486 275 285 234 209 185 158 70 68 120
is_linear=0
shrinkage=0.05


Tree=14
num_leaves=31
num_cat=0
split_feature=3 5 4 3 2 5 4 3 3 2 1 2 3 2 1 3 3 1 3 1 1 0 1 4 3 3 2 3 3 1
split_gain=1040.77 1070.87 1373.55 50.6612 83.4575 98.3478 118.684 79.0072 31.526 62.6921 61.3737 27.2949 58.2176 15.521 23.1734 16.9244 14.0662 7.66036 7.04061 5.16575 4.29807 3.33289 8.73985 5.34611 3.18346 5.00281 5.07349 5.52488 4.42214 3.18296
threshold=52.750000000000007 1.0000000180025095e-35 1.0000000180025095e-35 65.250000000000014 1.7550000000000001 1.0000000180025095e-35 1.0000000180025095e-35 62.350000000000009 47.45000000000001 1.635 53.500000000000007 1.8050000000000004 56.95000000000001 1.675 50.500000000000007 54.750000000000007 49.900000000000006 49.500000000000007 64.65000000000002 59.500000000000007 58.500000000000007 1.0000000180025095e-35 54.500000000000007 1.0000000180025095e-35 79.850000000000009 71.750000000000014 1.655 72.850000000000009 76.850000000000009 56.500000000000007
decision_type=2 2 2 2 2 2 2 2 2 2 2 2 2 2 2 2 2 2 2 2 2 2 2 2 2 2 2 2 2 2
left_child=1 -1 8 4 13 18 7 11 -3 -10 17 12 -7 -2 15 -15 -12 -11 -6 21 -5 22 -16 -24 25 -22 -27 -28 -29 -23
right_child=3 2 -4 20 5 6 -8 -9 9 10 16 -13 -14 14 19 -17 -18 -19 -20 -21 24 29 23 -25 -26 26 27 28 -30 -31
leaf_value=-0.046105649377713449 -0.046738739005815044 0.36347876561688608 -0.040821342979419827 -0.047390980892966242 -0.047577216871860346 0.38569596424122016 -0.030614509219762293 -0.047752633297515584 0.073090274634567534 0.37137469681070345 0.064124460395616173 0.42039085715608882 0.028123563930048209 0.094042022399929301 -0.047869575450157048 -0.042461506525507141 0.2418651945651269 0.28098504195712731 0.08135318541033501 -0.013689145060493128 -0.047606766485950719 0.11521930499650533 0.15269534729469444 0.019003854344478571 -0.04244896191947245 -0.04757932536188713 0.10402845831203492 -0.031273821572985375 0.068955734331650628 0.039972890778042808
leaf_weight=71.006135229021311 62.325274642556906 42.207595452666283 37.054216094315052 344.2139351926744 12.035984519869087 2.7482612505555135 5.8716220222413549 1.8057383149862278 2.8644065149128464 16.807583935558803 2.2246053740382186 3.6159623824059963 1.943189989775419 2.4607934951782253 2.0653952434658986 29.39971224963665 2.22789216786623 2.7238309159874907 1.161001771688462 2.923289716243743 6.0369925424456587 3.6752554811537266 1.4957969486713409 1.4952997528016567 19.446543052792549 2.6774563007056695 1.9779796972870825 3.0678660348057747 1.7160362824797628 2.2755622155964375
leaf_count=1276 1109 362 653 6134 212 24 101 30 36 148 32 39 25 38 33 519 23 32 19 47 105 56 24 24 340 47 34 54 30 36
internal_value=-0.000401498 0.104188 0.20476 -0.0362713 -0.0102478 0.0647866 0.148189 0.252002 0.336534 0.294176 0.32058 0.317158 0.23759 -0.0305004 -0.00839871 -0.0319185 0.15306 0.358769 -0.0362346 0.045393 -0.0456953 0.0610839 0.0312367 0.0858607 -0.0289817 -0.0120597 0.0106746 0.033741 0.00467958 0.0864455
internal_weight=693.551 177.116 106.11 516.435 137.298 29.1818 15.9848 10.1132 69.0559 26.8483 23.9839 8.30741 4.69145 108.116 45.7911 31.8605 4.4525 19.5314 13.197 13.9306 379.137 11.0073 5.05649 2.9911 34.9229 15.4763 9.43934 6.76188 4.7839 5.95082
internal_count=11642 2562 1286 9080 2336 450 219 118 633 271 235 88 49 1886 777 557 55 180 231 220 6744 173 81 48 610 270 165 118 84 92
is_linear=0
shrinkage=0.05


Tree=15
num_leaves=31
num_cat=0
split_feature=5 6 4 1 2 3 1 0 2 2 1 1 2 2 1 3 2 1 2 1 1 1 1 3 1 1 1 4 1 3
split_gain=1219.24 1855.53 2895.09 56.3286 59.6703 27.908 15.0681 11.7598 19.608 19.5387 13.0896 11.1751 12.4502 14.7594 11.9051 9.97401 16.7509 9.61003 8.93511 7.03865 11.6611 5.7849 5.7541 5.57989 5.53942 9.05397 15.2608 6.89493 6.62936 5.24798
threshold=1.0000000180025095e-35 1.0000000180025095e-35 1.0000000180025095e-35 49.500000000000007 1.675 48.95000000000001 59.500000000000007 1.0000000180025095e-35 1.7150000000000001 1.7550000000000001 56.500000000000007 49.500000000000007 1.675 1.7450000000000003 59.500000000000007 82.750000000000014 1.7150000000000001 57.500000000000007 1.655 51.500000000000007 52.500000000000007 55.500000000000007 57.500000000000007 64.65000000000002 57.500000000000007 55.500000000000007 53.500000000000007 1.0000000180025095e-35 51.500000000000007 64.65000000000002
decision_type=2 2 2 2 2 2 2 2 2 2 2 2 2 2 2 2 2 2 2 2 2 2 2 2 2 2 2 2 2 2
left_child=11 2 19 -4 -5 17 -3 8 -7 10 -9 -1 -13 14 15 16 24 -6 -8 -2 -21 -11 -17 -22 25 26 28 -26 -14 -18
right_child=1 6 3 4 5 7 18 9 -10 21 -12 12 13 -15 -16 22 29 -19 -20 20 23 -23 -24 -25 27 -27 -28 -29 -30 -31
leaf_value=-0.050511789114085395 -0.050512552331581653 -0.046973479480907236 0.26382598294392462 0.25656417336564513 -0.028926035201240447 0.188268072219891 -0.05049081288584524 0.052056418222076767 0.019592964475989842 0.28036626714421548 0.20506303506140547 -0.050519655165473534 0.031113616539143532 -0.046113596180256372 -0.050578474320128589 -0.050725466252637387 0.052471964493362312 0.10953981989865319 0.014374883068055589 0.060487111783014358 -0.042141368682705932 0.20478964703061364 0.037847425733206791 0.018871460531635922 -0.004752691512628384 -0.050600277501556656 0.098946202912572945 0.10072007959198639 -0.050747123698466283 0.15694125673901571
leaf_weight=494.39794165641069 107.57986114919186 267.92534922063351 149.20276629924774 28.170125395059586 2.2754139080643681 4.5699107721447954 7.7537931129336384 2.8785539865493783 2.7656553983688354 5.0895378589630109 2.7172873914241791 83.138238199055195 4.2516630589962059 44.661346800625324 12.751922436058519 9.9935234785079938 2.4078141823410979 2.7889949828386307 16.837399758398533 3.5789424479007712 29.586618937551975 5.038648322224617 2.2456933781504622 4.2907965630292884 3.2573251277208319 7.9792558848857871 3.9843535721302024 2.9553175941109657 5.9125602021813393 2.4007502347230911
leaf_count=4578 996 2478 953 182 20 34 72 22 20 34 20 769 36 409 117 90 20 22 147 30 271 35 19 37 29 73 32 24 53 20
internal_value=7.65836e-05 0.0494406 0.127028 0.247746 0.205129 0.153609 -0.0435355 0.176951 0.124674 0.201339 0.126355 -0.0465819 -0.0361326 -0.0244975 -0.00789271 0.00409994 0.0183421 0.0473278 -0.00607777 -0.0440131 -0.025346 0.242768 -0.0344738 -0.0344137 0.00370149 -0.00801148 0.016007 0.0454201 -0.016505 0.10463
internal_weight=1323.39 643.05 350.533 205.497 56.2941 28.124 292.517 23.0596 7.33557 15.724 5.59584 680.338 185.94 102.802 58.1402 45.3883 33.149 5.06441 24.5912 145.036 37.4564 10.1282 12.2392 33.8774 28.3405 22.1278 14.1486 6.21264 10.1642 4.80856
internal_count=11642 5373 2676 1342 389 207 2697 165 54 111 42 6269 1691 922 513 396 287 42 219 1334 338 69 109 308 247 194 121 53 89 40
is_linear=0
shrinkage=0.05


Tree=16
num_leaves=31
num_cat=0
split_feature=4 5 6 3 2 3 2 3 2 1 1 2 3 3 1 3 2 3 1 2 1 2 2 2 3 3 6 1 2 3
split_gain=506.392 823.199 1183.52 1063.87 66.7302 104.086 33.3194 76.5444 74.1516 54.8329 44.01 17.0319 73.2722 15.7882 9.1331 7.99751 18.6533 7.77463 7.37864 6.57463 6.4291 8.90207 5.98688 5.07414 4.44323 4.4071 7.16617 9.86599 7.89689 12.6497
threshold=1.0000000180025095e-35 1.0000000180025095e-35 1.0000000180025095e-35 51.250000000000007 1.5350000000000004 39.500000000000007 1.675 56.45000000000001 1.7350000000000001 49.500000000000007 54.500000000000007 1.8050000000000004 63.250000000000007 66.750000000000014 49.500000000000007 49.600000000000009 1.6850000000000003 62.350000000000009 56.500000000000007 1.675 61.500000000000007 1.675 1.6850000000000003 1.7350000000000001 54.750000000000007 82.750000000000014 1.0000000180025095e-35 50.500000000000007 1.7650000000000003 72.850000000000009
decision_type=2 2 2 2 2 2 2 2 2 2 2 2 2 2 2 2 2 2 2 2 2 2 2 2 2 2 2 2 2 2
left_child=14 2 3 4 5 -2 -5 8 9 22 11 17 -13 -12 -1 -6 -17 23 -11 -16 -4 -22 -8 -9 -21 26 27 -26 29 -28
right_child=1 -3 20 6 15 -7 7 10 -10 18 13 12 -14 -15 19 16 -18 -19 -20 24 21 -23 -24 -25 25 -27 28 -29 -30 -31
leaf_value=-0.047528615213586395 -0.048461764538136734 -0.043293560687956645 -0.041421397954082145 0.36125071331964831 -0.047526310467268754 0.49963502295309903 0.36540694271765195 0.3793531320364405 -0.048285259888016255 -0.012691478640440519 0.10764645000131819 0.057933139583544027 0.37280918116460393 0.29009751341394158 -0.044041947641916449 0.15492135127700016 -0.047530449872436764 0.35967051038263986 0.14484746805807688 -0.047539817268224732 -0.047518826238621518 0.12082590646989033 0.27484713922971976 0.46480245323985359 0.088784905182188817 -0.029012488245852525 0.073673541253490446 -0.035598792761840074 0.13599610914660007 -0.047544082511589182
leaf_weight=254.3884559571743 1.962466482073068 152.79218087717891 73.566110696643591 29.943866014480591 26.166432388126854 1.5506102815270422 3.9594263732433301 3.1404653713107171 2.6040716879069796 1.4278475865721705 2.5648157335817805 2.3354355767369261 8.8443124517798406 2.2051487118005753 42.924866519868374 1.7203537300229061 3.3597656153142452 11.315795488655565 1.5502205118536947 10.161742158234118 1.6732378676533692 1.4798022657632826 3.3855299800634384 3.888505756855011 1.8275449872016913 18.828001819550991 4.5212804153561574 12.488154634833334 1.6291630938649184 4.1074831299483776
leaf_count=4546 27 2712 1310 254 468 21 33 30 38 24 37 31 75 22 765 23 60 95 20 181 30 22 34 44 28 328 70 217 24 73
internal_value=-0.000377285 0.0429723 0.112843 0.21653 -0.0131512 0.193459 0.319991 0.293828 0.190143 0.250288 0.332912 0.355678 0.307032 0.191993 -0.0425605 -0.0363805 0.0210287 0.385325 0.0693147 -0.0294623 -0.0384249 0.0314897 0.323665 0.426625 -0.0177783 -0.0108102 0.00313618 -0.0197199 0.0350336 0.0159713
internal_weight=692.313 341.436 188.644 111.925 34.7596 3.51308 77.1654 47.2216 12.9271 10.323 34.2945 29.5245 11.1797 4.76996 350.877 31.2466 5.08012 18.3448 2.97807 96.4882 76.7192 3.15304 7.34496 7.02897 53.5634 43.4016 24.5736 14.3157 10.2579 8.62876
internal_count=11642 5410 2698 1336 599 48 737 483 149 111 334 275 106 59 6232 551 83 169 44 1686 1362 52 67 74 921 740 412 245 167 143
is_linear=0
shrinkage=0.05


Tree=17
num_leaves=31
num_cat=0
split_feature=5 4 6 3 2 2 1 3 3 3 2 2 2 1 2 3 3 3 3 2 1 0 1 2 3 1 1 3 2 1
split_gain=524.266 852.664 1194.81 1078.12 59.8393 34.6802 82.07 93.4774 28.6874 11.7453 43.9921 10.5779 10.0317 9.42639 9.23484 92.7446 6.75248 15.5838 5.48258 24.7855 3.55324 8.46479 3.51522 4.86914 7.50521 12.5898 5.11495 2.99023 6.93985 2.94083
threshold=1.0000000180025095e-35 1.0000000180025095e-35 1.0000000180025095e-35 51.250000000000007 1.5150000000000003 1.675 50.500000000000007 54.750000000000007 59.750000000000007 48.95000000000001 1.6650000000000003 1.7350000000000001 1.8750000000000002 50.500000000000007 1.7850000000000004 62.750000000000007 71.750000000000014 72.850000000000009 56.95000000000001 1.7150000000000001 52.500000000000007 1.0000000180025095e-35 52.500000000000007 1.675 78.750000000000014 57.500000000000007 60.500000000000007 61.750000000000007 1.7450000000000003 56.500000000000007
decision_type=2 2 2 2 2 2 2 2 2 2 2 2 2 2 2 2 2 2 2 2 2 2 2 2 2 2 2 2 2 2
left_child=13 2 3 4 -2 -5 7 -7 11 -6 -11 -8 -10 -1 18 -16 20 29 19 -9 21 -15 -4 -24 25 -25 -26 28 -20 -18
right_child=1 -3 22 5 9 6 8 14 12 10 -12 -13 -14 16 15 -17 17 -19 27 -21 -22 -23 23 24 26 -27 -28 -29 -30 -31
leaf_value=-0.047561256612504876 0.23022101117285657 -0.043373979447414952 -0.044961808664403052 0.36235100968010198 -0.047556026828441678 -0.00082915242634211753 0.11939827236026034 0.3865925614341994 0.30373203833306855 0.24792059583821305 -0.047572773643136827 -0.047929791298589243 0.1562228378112428 0.059007287818542122 0.00012662226923722001 0.3634373461166529 0.097858945100143938 -0.025695351751850871 0.36573697576144554 0.17731346040932172 -0.047573728899386575 -0.047588657609994922 -0.047548166994302074 0.16174261698056788 -0.04764003401955446 -0.047601200859595204 0.060450904108609219 0.36194834149122074 0.47367657466743662 0.021738576743618929
leaf_weight=266.2031614780426 2.3293055891990653 154.5316668972373 57.784795876592398 30.101119227707386 25.651370700448751 2.080037146806716 2.9823117814958078 4.9165634438395527 2.8338589146733284 1.6836632043123234 5.0003723874688148 1.3822698853909967 1.9427637234330175 2.8053207844495756 2.0427799597382537 12.538643948733805 3.0825647488236418 36.462873853743076 3.9592883735895148 1.9863514527678487 40.691880352795124 5.540976133197546 8.2840656861662882 1.6655969768762573 5.1761976890265942 1.2626221254467962 1.3879361674189565 9.4377896115183812 2.3868140131235123 2.1565027646720409
leaf_count=4703 29 2712 1022 253 454 28 43 45 34 20 88 22 21 44 27 105 46 628 35 26 716 97 147 23 89 22 24 79 25 35
internal_value=-0.000387236 0.0437229 0.115005 0.21774 -0.0145418 0.320195 0.294026 0.325379 0.159068 -0.0321735 0.02686 0.0664052 0.243737 -0.0428173 0.343585 0.312539 -0.0289002 -0.0141094 0.363539 0.326371 -0.0414782 -0.0117601 -0.0389803 -0.0195365 0.00490958 0.0714754 -0.024785 0.379794 0.406334 0.0665263
internal_weight=700.291 343.348 188.817 113.255 34.6647 78.5906 48.4895 39.3483 9.1412 32.3354 6.68404 4.36458 4.77662 356.943 37.2682 14.5814 90.7401 41.7019 22.6868 6.90291 49.0382 8.3463 75.5612 17.7764 9.49235 2.92822 6.56413 15.7839 6.3461 5.23907
internal_count=11642 5373 2661 1334 591 743 490 370 120 562 108 65 55 6269 342 132 1566 709 210 71 857 141 1327 305 158 45 113 139 60 81
is_linear=0
shrinkage=0.05


Tree=18
num_leaves=31
num_cat=0
split_feature=6 5 4 3 2 3 2 2 3 2 1 1 1 2 3 0 1 2 3 2 3 1 3 3 1 2 3 3 1 1
split_gain=686.865 1102.36 1555.96 1292.17 53.2309 40.4132 160.904 32.3559 67.38 27.5162 66.6507 12.7533 11.7287 9.44345 17.224 7.38068 4.87187 10.7916 7.13043 3.70239 18.4057 3.55714 2.9936 4.67811 2.86705 2.814 2.60299 3.70978 2.23725 4.92165
threshold=1.0000000180025095e-35 1.0000000180025095e-35 1.0000000180025095e-35 51.250000000000007 1.5350000000000004 59.250000000000007 1.7250000000000003 1.7750000000000001 55.750000000000007 1.675 49.500000000000007 58.500000000000007 52.500000000000007 1.675 72.850000000000009 1.0000000180025095e-35 50.500000000000007 1.8650000000000004 63.750000000000007 1.635 46.550000000000004 56.500000000000007 82.750000000000014 77.950000000000017 55.500000000000007 1.8750000000000002 109.50000000000001 91.500000000000014 50.500000000000007 52.500000000000007
decision_type=2 2 2 2 2 2 2 2 2 2 2 2 2 2 2 2 2 2 2 2 2 2 2 2 2 2 2 2 2 2
left_child=1 2 3 4 -1 6 9 8 -8 -5 -11 -12 -2 -14 15 21 -7 18 -18 20 -6 -15 23 -16 -25 -24 27 -27 -3 -30
right_child=12 28 -4 5 19 16 7 -9 -10 10 11 -13 13 14 22 -17 17 -19 -20 -21 -22 -23 25 24 -26 26 -28 -29 29 -31
leaf_value=0.16405661953931816 -0.047956526756122386 -0.048538006981851477 -0.044543817125726026 0.32915325635841097 -0.0390554870707506 0.32669886604621634 -0.048583403202296413 -0.036193701274132177 0.29898908109977129 0.31548139779206352 0.021787278757329765 0.19048104480391773 -0.045247093834627987 -0.04859637047523644 -0.048509246257291916 0.087881145993587553 0.36915849319387939 0.19253664814402457 0.26751640104776514 -0.048486730954945802 0.14573721950667992 0.043197101052928275 -0.042698367840134199 -0.024667886365125624 0.047180025752957808 -0.048541574234588054 -0.048532265748538028 0.034937727875673223 -0.0018808647491408204 -0.043145369596338523
leaf_weight=3.5112742930650702 356.39215479046106 146.40869859606028 100.22057227045298 30.041356526315212 10.624491825699804 53.070468500256538 2.4249669760465604 3.8578507155179977 3.2809520661830902 10.75380118191242 2.8018950223922721 1.8668717443943021 45.786796905100346 2.0555661618709546 3.578623950481413 5.103711374104023 3.4488269165158254 2.265419028699398 3.4530712515115738 28.96027223020792 1.5432014018297184 2.1690853163599968 25.588247328996658 2.0843652188777924 4.1590642258524895 1.9538559764623622 2.9985808357596397 4.1738392934203148 8.5654217004775983 46.208998449146748
leaf_count=38 4770 1950 1336 233 144 409 32 46 27 85 31 18 612 27 48 58 29 23 30 391 20 26 339 27 50 26 40 51 113 613
internal_value=-0.000155613 0.0427222 0.11029 0.206133 -0.0228092 0.293285 0.262068 0.0756528 0.151274 0.301282 0.246993 0.0892418 -0.0437165 -0.0285525 -0.0143616 0.0474172 0.320885 0.287226 0.318306 -0.0387627 -0.0156186 -0.00146636 -0.0273014 -0.002931 0.0231936 -0.0341967 -0.0103598 0.0083198 -0.045313 -0.0366926
internal_weight=919.352 463.308 262.125 161.905 44.6392 117.265 55.0277 9.56377 5.70592 45.4639 15.4226 4.66877 456.044 99.6517 53.8649 9.32836 62.2378 9.16732 6.9019 41.128 12.1677 4.22465 44.5366 9.82205 6.24343 34.7145 9.12628 6.1277 201.183 54.7744
internal_count=11642 5568 2892 1556 593 963 472 105 59 367 134 49 6074 1304 692 111 491 82 59 555 164 53 581 125 77 456 117 77 2676 726
is_linear=0
shrinkage=0.05


Tree=19
num_leaves=31
num_cat=0
split_feature=3 5 4 3 2 4 5 3 2 1 3 2 1 3 5 1 1 3 0 1 1 1 1 2 2 1 6 0 3 2
split_gain=1096.46 1062.44 1379.44 60.1067 98.673 118.068 128.879 25.1183 58.1931 39.3842 42.2345 16.7127 18.3304 16.5553 20.0608 12.645 11.3101 10.1629 5.91271 7.74688 6.67179 5.39272 18.2173 4.91218 4.39901 3.43133 11.5232 6.90052 8.68606 5.87953
threshold=52.750000000000007 1.0000000180025095e-35 1.0000000180025095e-35 61.250000000000007 1.7650000000000003 1.0000000180025095e-35 1.0000000180025095e-35 47.45000000000001 1.635 49.500000000000007 48.95000000000001 1.675 51.500000000000007 54.750000000000007 1.0000000180025095e-35 37.500000000000007 54.500000000000007 56.45000000000001 1.0000000180025095e-35 55.500000000000007 58.500000000000007 49.500000000000007 51.500000000000007 1.7550000000000001 1.675 56.500000000000007 1.0000000180025095e-35 1.0000000180025095e-35 64.65000000000002 1.7850000000000004
decision_type=2 2 2 2 2 2 2 2 2 2 2 2 2 2 2 2 2 2 2 2 2 2 2 2 2 2 2 2 2 2
left_child=1 2 -1 4 11 -6 15 -4 -9 24 -11 -2 13 14 -13 -7 -12 18 19 -14 -20 -3 -23 -15 -10 -5 27 28 -27 -29
right_child=3 21 7 25 5 6 -8 8 9 10 16 12 17 23 -16 -17 -18 -19 20 -21 -22 22 -24 -25 -26 26 -28 29 -30 -31
leaf_value=-0.04340400780866234 -0.045611359633581393 -0.047599059382969905 0.35993893433249502 -0.047324937101097246 -0.047598675708823646 0.37180626921888932 -0.047622995107266863 0.059339376003843293 0.30977803981574692 0.064895801674731468 0.4066673860761239 0.21873888490448223 -0.048229253186584747 -0.040078459237498282 -0.047647313133677066 0.24619839428110929 0.24470781414501364 -0.04764776332061485 0.15540105643208016 0.089104801540297818 0.024106157979453188 0.091569088276543045 -0.036999164375154873 0.034207697320052438 0.37633962992507186 -0.0066564614105117719 -0.043326590251701519 0.063216255906084928 0.17810621346628705 -0.047641600576813409
leaf_weight=36.109139624983072 50.235551990568638 52.421448439359665 44.26395171135664 360.63309677317739 8.310259573161602 4.1393139064311963 3.6425626277923593 2.3268907107412842 3.0501409992575708 2.6498219147324553 1.971536763012409 1.4961298368871239 1.7190696746110896 26.160977166146044 1.3395120278000832 3.8835206106305122 2.3782283887267113 2.0404839850962153 3.1915367282927036 2.5501482412219048 1.3885454311966894 3.2305203378200558 18.726797621697187 2.4322472326457492 13.33249459415674 1.2200770862400525 46.664718877524137 1.8040953651070593 1.3290340676903722 3.5487292446196079
leaf_count=639 875 914 374 6281 145 37 63 35 29 38 21 21 25 443 23 41 26 35 46 38 22 54 318 39 114 21 810 31 23 61
internal_value=-0.000390797 0.106 0.207586 -0.0367721 -0.00435897 0.096423 0.199022 0.337108 0.2978 0.321531 0.222255 -0.0261104 -0.00296123 -0.0223315 0.0929023 0.311005 0.318116 0.0529429 0.0761373 0.033805 0.115596 -0.0388857 -0.0180833 -0.0337594 0.363947 -0.0455569 -0.0338715 0.0219654 0.0896735 -0.0102785
internal_weight=708.191 180.461 106.082 527.73 112.53 19.9757 11.6654 69.9731 25.7091 23.3822 6.99959 92.5542 42.3187 31.4289 2.83564 8.02283 4.34977 10.8898 8.8493 4.26922 4.58008 74.3788 21.9573 28.5932 16.3826 415.2 54.5667 7.90194 2.54911 5.35282
internal_count=11642 2562 1276 9080 1853 286 141 637 263 228 85 1567 692 526 44 78 47 166 131 63 68 1286 372 482 143 7227 946 136 44 92
is_linear=0
shrinkage=0.05


Tree=20
num_leaves=31
num_cat=0
split_feature=6 4 5 1 2 3 2 1 2 0 1 1 1 1 2 3 2 1 0 3 3 2 3 1 1 5 5 0 2 2
split_gain=1491.05 1974.14 2239.23 33.7057 31.6904 36.7045 14.3528 10.0102 9.12238 8.60599 6.09236 5.29561 5.1773 15.2355 4.18782 8.16203 3.9026 4.8226 3.75135 2.86416 2.99206 2.36999 2.00049 2.62865 6.77472 6.36579 2.71219 2.0409 3.32225 1.89699
threshold=1.0000000180025095e-35 1.0000000180025095e-35 1.0000000180025095e-35 49.500000000000007 1.675 72.850000000000009 1.6850000000000003 49.500000000000007 1.675 1.0000000180025095e-35 56.500000000000007 54.500000000000007 50.500000000000007 51.500000000000007 1.675 54.750000000000007 1.7950000000000002 56.500000000000007 1.0000000180025095e-35 84.750000000000014 85.500000000000014 1.7350000000000001 44.95000000000001 57.500000000000007 60.500000000000007 1.0000000180025095e-35 1.0000000180025095e-35 1.0000000180025095e-35 1.8150000000000002 1.675
decision_type=2 2 2 2 2 2 2 2 2 2 2 2 2 2 2 2 2 2 2 2 2 2 2 2 2 2 2 2 2 2
left_child=11 2 3 -2 -5 -6 10 -3 -9 -8 -7 -1 -4 -14 -13 22 17 18 -10 -19 -21 -20 -16 27 25 -25 -26 -24 -29 -15
right_child=1 7 12 4 5 6 9 8 16 -11 -12 14 13 29 15 -17 -18 19 21 20 -22 -23 23 24 26 -27 -28 28 -30 -31
leaf_value=-0.052690287818785986 0.16598603265726478 -0.052902611762029421 -0.052896711657118303 0.16327108232206716 -0.01721140887279677 0.014812092866845636 0.077370466501821833 -0.051015930714232473 0.019669315740359485 0.14451881682136314 0.096195553318977986 -0.051008333333389277 0.051672808924946002 -0.053064624184877118 -0.053827183015096605 -0.048741132842115925 -0.044063916682924115 -0.053381356499554146 -0.0010609193495903766 0.01671582767401995 -0.037595538988969973 -0.039391969654912262 -0.05366859634567063 0.083085082338162988 -0.053853584656262755 -0.0066994820187712013 -0.00064258303454659211 0.0096398432763569186 -0.054045330850173802 -0.033218548569498706
leaf_weight=651.85759338736534 334.57261392474174 273.19034023582935 136.31149101257324 45.850654765963554 5.3834988772869101 3.5598101615905744 5.5999689847230902 51.983521521091461 11.487041294574739 32.260327994823456 6.4958918243646622 71.035072326660156 4.679124489426612 23.341005682945251 3.195026457309722 43.066227436065674 16.300510913133621 9.9773783385753649 9.3637868911027926 4.203010290861128 6.3932510763406754 7.0829323381185523 5.1098172068595895 3.6646155267953899 4.877650782465933 4.2797743380069733 4.7044017761945724 5.5337473154067993 3.2508648484945297 24.870779618620872
leaf_count=4551 1529 1935 966 211 34 21 31 367 73 155 34 494 28 163 21 293 112 68 59 26 44 48 34 25 32 29 31 37 21 170
internal_value=0.000249002 0.0405556 0.095786 0.158398 0.132794 0.106576 0.120484 -0.0476649 -0.0354132 0.134587 0.0673851 -0.0507479 -0.0477446 -0.0344666 -0.0422341 -0.0342107 -0.022898 -0.0157854 -0.00225543 -0.0341557 -0.0160529 -0.0175685 -0.0161332 -0.0123003 0.00057631 0.0347167 -0.0277291 -0.0285428 -0.0139277 -0.0428267
internal_weight=1813.48 1012.91 622.925 433.723 99.1502 53.2995 47.916 389.982 116.791 37.8603 10.0557 800.575 189.202 52.8909 148.717 77.6821 64.8079 48.5074 27.9338 20.5736 10.5963 16.4467 34.6159 31.4209 17.5264 7.94439 9.58205 13.8944 8.78461 48.2118
internal_count=11642 6074 3342 2015 486 275 241 2732 797 186 55 5568 1327 361 1017 523 430 318 180 138 70 107 230 209 117 54 63 92 58 333
is_linear=0
shrinkage=0.05


Tree=21
num_leaves=31
num_cat=0
split_feature=3 5 4 0 3 2 5 4 0 2 3 1 2 1 0 1 1 3 1 3 3 1 2 2 2 3 2 2 2 2
split_gain=404.349 335.495 326.25 56.4644 29.6953 34.4925 36.9141 44.3658 30.761 21.3816 13.1357 11.3177 14.6325 6.4153 5.37022 13.5805 9.85988 6.46321 5.21662 4.84159 4.06285 3.81602 15.5801 9.29387 5.74977 12.7726 5.53389 5.08305 3.89358 3.81253
threshold=52.750000000000007 1.0000000180025095e-35 1.0000000180025095e-35 1.0000000180025095e-35 65.250000000000014 1.7250000000000003 1.0000000180025095e-35 1.0000000180025095e-35 1.0000000180025095e-35 1.8050000000000004 56.95000000000001 52.500000000000007 1.655 58.500000000000007 1.0000000180025095e-35 56.500000000000007 56.500000000000007 55.750000000000007 57.500000000000007 64.65000000000002 57.95000000000001 44.500000000000007 1.7450000000000003 1.6150000000000004 1.6250000000000002 45.250000000000007 1.675 1.7950000000000002 1.6850000000000003 1.5650000000000002
decision_type=2 2 2 2 2 2 2 2 2 2 2 2 2 2 2 2 2 2 2 2 2 2 2 2 2 2 2 2 2 2
left_child=1 2 3 29 5 11 7 8 10 20 -7 -2 -13 21 15 -14 -16 -17 -9 -8 -10 22 23 -5 -25 -26 -27 -23 -28 -1
right_child=4 -3 -4 13 -6 6 19 18 9 -11 -12 12 14 -15 16 17 -18 -19 -20 -21 -22 27 -24 24 25 26 28 -29 -30 -31
leaf_value=0.19524594986114485 -0.046217400005087478 -0.042150282758774901 -0.038040982914010153 0.0028268031572285853 -0.044897810838584774 0.37701811326490753 -0.046261633814805324 -0.046299739692994349 0.07033879811682546 0.20169491626258382 0.17747874745196013 -0.046233525618347447 -0.046634186928969153 0.0070912764196991995 0.11076439955038474 0.22625276519462628 -0.046502102856786624 0.072029724534016723 0.10477073204271559 0.086033035985033979 -0.046554256894649815 0.15147958092403002 -0.046174674934191806 0.22113350384895539 -0.0066563701506149224 0.084998247664681739 0.26652316168541568 0.26851801863318442 0.14259181744934288 0.24943980629129331
leaf_weight=3.6204160675406447 34.809850469231606 36.820468185469508 18.317028678953648 1.0170547422021678 190.76641588285565 1.7539709210395797 8.1551674045622331 4.1780253145843753 1.2767640314996245 2.3998297434300184 1.556870713829994 7.3279565256088963 1.2064513526856884 0.93555052764713664 1.5886267609894273 1.4659307505935433 2.6745517440140247 1.2660673689097164 0.66198029182851303 0.75566424801945764 1.7792598307132719 5.7807318754494181 1.2119087614119042 2.7856821715831757 1.2541465498507021 1.1318506151437762 1.5898424647748473 1.1050365492701528 1.0538709759712217 31.320712972432375
leaf_count=27 1222 1286 637 33 6744 17 277 138 28 36 33 254 33 30 44 40 78 38 22 25 51 113 44 44 36 22 26 16 23 225
internal_value=-0.00115093 0.080361 0.143785 0.206854 -0.0345272 -0.00737295 0.0440658 0.0958728 0.162957 0.0899964 0.283188 -0.0303822 0.00511264 0.134549 0.0509892 0.0930832 0.0121015 0.154782 -0.0256374 -0.0350427 0.00228203 0.141592 0.121937 0.145004 0.163507 0.13159 0.177512 0.170262 0.21712 0.243825
internal_weight=371.568 107.944 71.1238 52.8068 263.623 72.857 22.5175 13.6067 8.7667 5.45585 3.31084 50.3394 15.5296 17.8657 8.20163 3.93845 4.26318 2.732 4.84001 8.91083 3.05602 16.9301 10.0444 8.83245 7.81539 5.02971 3.77556 6.88577 2.64371 34.9411
internal_count=11642 2562 1276 639 9080 2336 627 325 165 115 50 1709 487 387 233 111 122 78 160 302 79 357 228 184 151 107 71 129 49 252
is_linear=0
shrinkage=0.05


Tree=22
num_leaves=31
num_cat=0
split_feature=3 4 5 0 3 2 4 5 1 2 0 1 2 2 3 5 1 2 1 2 1 1 2 2 1 6 3 1 2 0
split_gain=438.504 326.75 314.22 188.721 24.7038 37.703 36.4549 41.4885 6.68467 7.46311 7.33104 6.54993 6.46866 4.86805 9.26078 4.35966 3.17872 7.95365 4.2413 3.36615 3.12494 5.39389 9.3412 2.47424 1.92029 12.5052 13.0644 4.09973 5.10861 13.5705
threshold=52.750000000000007 1.0000000180025095e-35 1.0000000180025095e-35 1.0000000180025095e-35 60.250000000000007 1.7550000000000001 1.0000000180025095e-35 1.0000000180025095e-35 56.500000000000007 1.655 1.0000000180025095e-35 35.500000000000007 1.8250000000000004 1.7250000000000003 55.750000000000007 1.0000000180025095e-35 49.500000000000007 1.6850000000000003 56.500000000000007 1.7550000000000001 50.500000000000007 55.500000000000007 1.675 1.5550000000000004 56.500000000000007 1.0000000180025095e-35 68.750000000000014 59.500000000000007 1.7850000000000004 1.0000000180025095e-35
decision_type=2 2 2 2 2 2 2 2 2 2 2 2 2 2 2 2 2 2 2 2 2 2 2 2 2 2 2 2 2 2
left_child=1 2 3 -1 5 8 7 11 13 -10 -11 -7 -13 -2 -15 -12 -3 -18 19 -19 -4 22 -22 -5 -6 26 27 28 29 -26
right_child=4 16 20 23 24 6 -8 -9 9 10 15 12 -14 14 -16 -17 17 18 -20 -21 21 -23 -24 -25 25 -27 -28 -29 -30 -31
leaf_value=-0.032315002837119272 -0.044660468024458166 -0.046229592605226737 -0.0462161544922658 0.20162992134726754 -0.045939299263659514 0.25995361847140319 -0.046226384168247786 -0.046220630014028569 -0.046220687635653623 -0.019479095530184523 0.039752699302540585 0.079543975318159488 0.21716366368116113 0.10527336550776345 -0.04622714613271578 0.17153234103382964 -0.039984567111054047 0.16174952452472136 -0.046401738084215126 0.036362954996836047 -0.046250257854884895 -0.046277485714317376 0.14624835982158343 0.24611202814900646 -0.04625732404901256 -0.046225651780224079 0.24728758898279965 -0.046252131327591872 -0.046260878499217228 0.29347068723548281
leaf_weight=7.1909129917621604 31.822775287553668 26.63321040943265 12.950347624719145 3.3699818253517142 180.24440258927643 2.578772518783806 4.5310899280011645 2.3980151899158955 3.0278726182878009 1.8619108255952594 1.1567392945289612 1.5661775879561903 1.8774476535618303 1.643361274152993 2.6118401326239109 1.3720743209123611 7.9828587491065246 0.96036298014223653 0.74511840939521778 1.2092598993331192 1.2268141079694026 3.0380464922636747 1.2959306687116621 43.209067612886429 0.58710378035903221 23.415268313139677 0.68142921105027188 1.754753228276968 0.7067250069230796 0.58869988285005093
leaf_count=252 1105 926 455 35 6330 30 158 84 106 60 30 30 23 39 91 29 274 28 23 39 42 102 34 352 20 817 24 60 24 20
internal_value=-0.00121455 0.0827721 0.144921 0.206089 -0.0360928 -0.00675798 0.0681281 0.129663 -0.029056 0.0141698 0.0558155 0.199697 0.154574 -0.0379444 0.0122824 0.111253 -0.0369216 -0.0141733 0.0565181 0.0918641 -0.0327544 -0.00140374 0.052636 0.242894 -0.0440547 -0.0318066 0.0463709 0.00873001 0.0599803 0.123837
internal_weight=374.238 109.812 72.2811 53.77 264.426 56.4481 12.9515 8.42041 43.4966 7.4186 4.39072 6.0224 3.44363 36.078 4.2552 2.52881 37.5308 10.8976 2.91474 2.16962 18.5111 5.56079 2.52274 46.579 207.978 27.734 4.31871 3.63728 1.88253 1.1758
internal_count=11642 2562 1272 639 9080 1785 325 167 1460 225 119 83 53 1235 130 59 1290 364 90 67 633 178 76 387 7295 965 148 124 64 40
is_linear=0
shrinkage=0.05


Tree=23
num_leaves=31
num_cat=0
split_feature=6 5 4 1 1 2 3 2 3 1 2 3 1 2 0 2 1 3 3 2 2 3 3 3 1 2 3 2 2 5
split_gain=3300.75 1230.44 2018.75 46.1958 42.9907 43.4354 39.5879 39.0407 62.8382 27.243 27.6809 22.1622 21.7604 10.4387 9.55238 9.53891 9.4764 8.79514 8.69944 8.41825 17.5186 8.31405 12.0311 7.51098 7.09719 10.5027 6.52858 26.7633 5.85088 5.81765
threshold=1.0000000180025095e-35 1.0000000180025095e-35 1.0000000180025095e-35 53.500000000000007 50.500000000000007 1.675 72.850000000000009 1.675 50.900000000000006 53.500000000000007 1.675 72.850000000000009 60.500000000000007 1.8750000000000002 1.0000000180025095e-35 1.885 49.500000000000007 52.250000000000007 47.45000000000001 1.7950000000000002 1.7350000000000001 84.750000000000014 85.500000000000014 116.50000000000001 54.500000000000007 1.7350000000000001 91.500000000000014 1.8250000000000004 1.6850000000000003 1.0000000180025095e-35
decision_type=2 2 2 2 2 2 2 2 2 2 2 2 2 2 2 2 2 2 2 2 2 2 2 2 2 2 2 2 2 2
left_child=3 2 16 -1 -3 -6 14 -5 12 -4 -11 -12 -9 17 -7 29 -2 19 -14 20 -10 -18 -23 24 28 -26 27 -27 -8 -15
right_child=1 4 9 7 5 6 23 8 13 10 11 -13 18 15 -16 -17 21 -19 -20 -21 -22 22 -24 -25 25 26 -28 -29 -30 -31
leaf_value=-0.062950046739211687 -0.064236461708984935 0.10434782263299319 0.10281285782386756 -0.059144308542265801 0.10102731097424236 0.024802611556686584 0.057595977359192585 0.06394296450551494 -0.064905644752435543 0.098336350442351575 -0.05087148190281271 0.054877553417356423 -0.065701608106430331 0.04541814476983394 -0.047264302756548839 -0.065014827044841461 -0.060791331356127687 -0.057521406373153117 0.023904366550681264 -0.064603123055161457 0.052306047915992727 0.021137120449397254 -0.043686862654709606 0.10894586337778184 0.074936122425480409 -0.034141974380066907 0.0014872912693263489 0.11250140571364216 0.11024816322078246 -0.017364359477325376
leaf_weight=1032.6064360886812 356.39400725066662 533.63162377476692 293.69996143877506 132.60117809474468 96.034119337797165 8.9382476955652237 9.371895909309389 23.767215803265572 5.4312919974327105 38.81066483259201 5.9289523363113394 30.145266115665436 5.497121185064314 7.0158475488424319 9.4695495963096619 5.4427364319562903 59.520985320210457 63.609195828437805 5.3398780822753906 6.8089641481637946 7.7176905870437622 8.4188374578952772 47.783201023936272 10.231975466012953 26.044733643531799 5.2072633504867571 11.321933269500731 7.7303594946861267 12.073598027229307 7.7834046334028244
leaf_count=4435 1529 1962 1081 567 354 35 35 91 23 143 24 114 23 28 38 23 252 267 21 29 30 34 200 38 98 20 43 29 45 31
internal_value=0.000686218 0.0494981 0.00825967 -0.0581281 0.0969865 0.0769877 0.0539911 -0.0397556 -0.0211811 0.0959489 0.0690284 0.0374972 0.0371695 -0.040632 -0.0122709 -0.00841645 -0.0601999 -0.0484354 -0.0215487 -0.019477 0.00389082 -0.0477684 -0.0339765 0.0688693 0.0631541 0.0528866 0.0292144 0.0534789 0.0872386 0.0123988
internal_weight=2874.38 1570.76 840.702 1303.62 730.055 196.424 100.39 271.015 138.413 368.585 74.8849 36.0742 34.6042 103.809 18.4078 20.242 472.117 83.5671 10.837 19.9579 13.149 115.723 56.202 81.9818 71.7498 50.3043 24.2596 12.9376 21.4455 14.7993
internal_count=11642 6074 3377 5568 2697 735 381 1133 566 1362 281 138 135 431 73 82 2015 349 44 82 53 486 234 308 270 190 92 49 80 59
is_linear=0
shrinkage=0.05


Tree=24
num_leaves=31
num_cat=0
split_feature=3 5 4 3 2 5 4 3 2 3 3 2 1 1 2 3 3 2 1 1 1 1 3 3 2 3 3 3 3 1
split_gain=869.883 757.035 800.807 49.5018 73.3721 75.6103 93.223 48.991 29.57 16.9079 13.0071 31.4029 26.5517 10.1731 21.2267 8.33723 5.13289 20.6771 7.47135 4.4136 3.57935 3.36908 3.14134 4.8188 4.63084 4.23633 3.90343 3.03065 2.93892 4.83794
threshold=52.750000000000007 1.0000000180025095e-35 1.0000000180025095e-35 65.250000000000014 1.7250000000000003 1.0000000180025095e-35 1.0000000180025095e-35 59.750000000000007 1.8050000000000004 64.65000000000002 47.45000000000001 1.635 53.500000000000007 50.500000000000007 1.675 49.900000000000006 56.95000000000001 1.8150000000000002 31.500000000000004 58.500000000000007 59.500000000000007 49.500000000000007 79.850000000000009 71.750000000000014 1.655 72.850000000000009 76.850000000000009 63.750000000000007 56.45000000000001 55.500000000000007
decision_type=2 2 2 2 2 2 2 2 2 2 2 2 2 2 2 2 2 2 2 2 2 2 2 2 2 2 2 2 2 2
left_child=1 -1 10 4 13 9 7 16 -9 -6 -3 -12 21 -2 -15 -14 18 -18 -7 -5 28 -13 23 -21 -25 -26 -27 -8 29 -16
right_child=3 2 -4 19 5 6 27 8 -10 -11 11 12 15 14 20 -17 17 -19 -20 22 -22 -23 -24 24 25 26 -28 -29 -30 -31
leaf_value=-0.045903659023544909 -0.046603608793819591 0.25445939740790957 -0.040388099427749478 -0.047227830757928961 -0.047469474230212652 0.33404333298554001 -0.047511442689271377 -0.047624538819186761 0.22533543237121997 0.11059305689267374 0.063550800539966354 0.25781832606089194 0.05732151334187946 -0.044935217639500549 0.036149859327979456 0.18545527212219401 0.074186983196555076 0.27699720628263502 0.21611419264051313 -0.047470280114111543 -0.013616597141719797 0.20520046141876891 -0.042052346985830796 -0.047414130079804717 0.089290605835717851 -0.030420960894626876 0.062998205574271382 0.04115110990531743 0.010431838000463635 0.1202914706728012
leaf_weight=67.622640643268824 60.440163008868694 56.679090730845928 35.433440707623959 325.27340638265014 16.204195320606235 2.4584769792854804 6.7163179069757453 3.0990361347794524 1.459442652761936 1.8891299478709687 3.0946342498064032 22.751116678118713 2.3624068424105635 20.283728793263435 4.7406067885458452 2.7441526278853416 2.0165112279355526 3.3355948925018311 2.9602406769990921 5.7503655180335036 2.9173363149166098 3.511751450598239 18.513983864337206 2.523305516690014 2.1857821233570576 2.9361920692026615 1.8059426918625829 1.1253029741346834 3.4187368378043175 2.6708411425352097
leaf_count=1276 1122 362 653 6134 297 21 121 54 20 28 36 148 32 380 69 23 24 24 19 105 47 32 340 47 34 54 30 19 52 39
internal_value=-0.000516432 0.0891588 0.161315 -0.0357176 -0.00999631 0.0456263 0.105435 0.177165 0.0397663 -0.0309661 0.239731 0.215508 0.230498 -0.0342918 -0.0124257 0.126178 0.235315 0.200584 0.269619 -0.0454429 0.0355403 0.250783 -0.0282228 -0.0113799 0.0105784 0.0317006 0.00515577 -0.034788 0.0487818 0.0664717
internal_weight=688.924 194.199 126.577 494.725 135.736 41.2642 23.1709 15.3293 4.55848 18.0933 91.1432 34.4641 31.3694 94.4714 34.0312 5.10656 10.7708 5.35211 5.41872 358.989 13.7475 26.2629 33.7156 15.2016 9.45122 6.92792 4.74213 7.84162 10.8302 7.41145
internal_count=11642 2562 1286 9080 2336 627 302 162 74 325 633 271 235 1709 587 55 88 48 40 6744 207 180 610 270 165 118 84 140 160 108
is_linear=0
shrinkage=0.05


Tree=25
num_leaves=31
num_cat=0
split_feature=5 6 4 1 2 3 1 1 1 2 2 1 3 2 2 2 0 1 1 1 3 1 1 1 1 4 1 3 4 3
split_gain=1091.15 1474.63 1997.97 30.3612 34.5085 18.1929 14.9737 11.8754 11.3211 12.2829 14.1467 11.2678 8.93899 13.7786 8.43464 7.71904 10.0521 7.08368 10.7055 5.4744 5.28689 5.04926 8.33734 12.9987 6.1813 5.59281 4.4245 4.19947 8.02447 3.7981
threshold=1.0000000180025095e-35 1.0000000180025095e-35 1.0000000180025095e-35 49.500000000000007 1.675 48.95000000000001 59.500000000000007 58.500000000000007 49.500000000000007 1.675 1.7450000000000003 59.500000000000007 82.750000000000014 1.7150000000000001 1.655 1.6850000000000003 1.0000000180025095e-35 51.500000000000007 52.500000000000007 57.500000000000007 64.65000000000002 57.500000000000007 55.500000000000007 53.500000000000007 51.500000000000007 1.0000000180025095e-35 62.500000000000007 99.500000000000014 1.0000000180025095e-35 64.65000000000002
decision_type=2 2 2 2 2 2 2 2 2 2 2 2 2 2 2 2 2 2 2 2 2 2 2 2 2 2 2 2 2 2
left_child=8 2 17 -4 -5 7 -3 -6 -1 -10 11 12 13 21 -8 -7 -17 -2 -19 -14 -20 22 23 24 -11 -23 27 28 -16 -15
right_child=1 6 3 4 5 15 14 -9 9 10 -12 -13 19 29 26 16 -18 18 20 -21 -22 25 -24 -25 -26 -27 -28 -29 -30 -31
leaf_value=-0.050157871536823467 -0.050180026843768516 -0.046391494486310851 0.20410094942877544 0.19949593013101061 -0.032212479701879987 0.09963806534422176 -0.050090680558745264 0.11753725271857236 -0.050162797722580504 0.028073708815610415 -0.045612472092352224 -0.050292405139816747 -0.050386170798405329 0.047411471909219738 0.085326628443404384 0.096296519609869444 0.18047726415748241 0.055822823154312876 -0.041519276821885609 0.035581283516675645 0.017604169220011037 -0.0041211322830747542 -0.050318084402369734 0.087062875264273407 -0.050586007931530889 0.089390426757445851 -0.050554106765472277 -0.022762445419783794 -0.0002140832906833358 0.13275877921264284
leaf_weight=469.14559494704008 102.41581355035305 253.32363991439342 181.28594847023487 34.073621526360512 2.6531387120485332 7.1723858863115337 7.3040505051612881 2.6425040811300278 78.854970432817936 4.3977710604667717 42.743320047855377 12.227631308138369 9.5188335627317411 2.5204522535204879 5.1313381716609019 4.6631416082382211 14.806405499577522 3.7227191403508177 28.416968859732151 2.2991555631160727 4.361452303826808 3.2188813313841811 7.6530712991952887 4.3026359826326361 5.7802264988422394 3.1772611141204834 2.2795331701636306 3.5720976442098609 5.8870653957128525 2.6999069601297379
leaf_count=4578 996 2478 953 182 23 48 72 19 769 36 409 117 90 20 44 31 86 30 271 19 37 29 73 32 53 24 21 32 50 20
internal_value=5.08802e-05 0.0451202 0.108294 0.193529 0.164496 0.127155 -0.0428036 0.042512 -0.0460728 -0.0353898 -0.023803 -0.00767368 0.0037625 0.0168669 -0.00520536 0.14398 0.160315 -0.0434395 -0.0245269 -0.0336615 -0.0336524 0.00320108 -0.00810641 0.0142026 -0.0165982 0.0423304 0.0142282 0.0243494 0.0396228 0.0915521
internal_weight=1312.25 663.712 386.214 247.297 66.0112 31.9376 277.498 5.29564 648.54 179.394 100.539 57.7958 45.5682 33.7502 24.1741 26.6419 19.4695 138.917 36.5011 11.818 32.7784 28.5298 22.1337 14.4806 10.178 6.39614 16.87 14.5905 11.0184 5.22036
internal_count=11642 5373 2676 1342 389 207 2697 42 6269 1691 922 513 396 287 219 165 117 1334 338 109 308 247 194 121 89 53 147 126 94 40
is_linear=0
shrinkage=0.05


Tree=26
num_leaves=31
num_cat=0
split_feature=4 5 6 3 2 3 2 3 1 3 2 1 3 2 2 1 2 3 3 2 3 2 3 3 2 2 3 1 3 3
split_gain=453.121 661.762 804.862 603.557 51.5631 53.0141 15.0131 29.3977 27.1745 17.5278 17.2415 9.31306 7.67814 14.8389 6.45047 6.14213 7.31771 5.0747 13.3406 4.36635 34.3974 22.5332 4.33303 4.06258 6.5475 5.39631 7.14615 5.86213 9.0028 5.53684
threshold=1.0000000180025095e-35 1.0000000180025095e-35 1.0000000180025095e-35 51.250000000000007 1.5350000000000004 39.500000000000007 1.655 53.750000000000007 49.500000000000007 55.750000000000007 1.8750000000000002 49.500000000000007 49.600000000000009 1.6850000000000003 1.675 61.500000000000007 1.675 63.750000000000007 59.750000000000007 1.7450000000000003 59.750000000000007 1.7850000000000004 54.750000000000007 82.750000000000014 1.7950000000000002 1.7750000000000001 72.850000000000009 52.500000000000007 71.750000000000014 58.750000000000007
decision_type=2 2 2 2 2 2 2 2 2 2 2 2 2 2 2 2 2 2 2 2 2 2 2 2 2 2 2 2 2 2
left_child=11 2 3 4 5 -2 -5 -8 19 -10 17 -1 -6 -14 -13 -4 -17 18 -11 -9 21 -21 -16 24 25 26 27 29 -29 -24
right_child=1 -3 15 6 12 -7 7 8 9 10 -12 14 13 -15 22 16 -18 -19 -20 20 -22 -23 23 -25 -26 -27 -28 28 -30 -31
leaf_value=-0.047382890946328853 -0.048291417458202125 -0.042929398453245393 -0.040925839547181347 0.2583658102991046 -0.047389785553707896 0.30729986487914435 0.057442105715451046 0.25583387164396293 0.070682273233692153 0.19085084189220769 0.094741956512298359 -0.043716107080251372 0.12664442181004212 -0.047384656852961504 -0.047413786715184529 -0.047352430362396961 0.10347083843894977 0.18604651064542954 0.35704422676311531 0.19936098959798831 0.24987959776687363 -0.047868992388614161 0.13834398129343117 -0.028309634654086969 -0.047522380036016297 0.090406280840076139 -0.047553133113020764 -0.038192727803570074 0.064637758247603372 0.021049323342405987
leaf_weight=241.17554539442062 1.8778038062155236 145.16658438742161 69.636224515736103 31.815815851092339 24.883241612464193 2.3724093064665794 2.7757706567645064 25.017359778285027 3.7412907630205146 2.6758849918842298 3.0888282358646384 40.768243502825499 1.9903924241662014 3.1848560012876987 9.6942991316318494 1.573698312044143 1.6447791308164594 3.3684682324528694 2.2004817277193069 2.0023768171668084 22.515323594212532 1.7076000198721883 1.8779019229114151 18.228580173105001 5.1221910119056693 2.1656669229269019 4.4990439191460601 5.3295147344470006 3.5438369959592819 2.1672341227531433
leaf_count=4546 27 2712 1310 201 468 21 30 165 47 24 30 765 23 60 181 30 22 30 18 21 143 28 29 328 92 33 81 94 51 32
internal_value=-0.000492059 0.0390039 0.0961665 0.16835 -0.0128158 0.150195 0.229945 0.216858 0.22353 0.164521 0.195497 -0.0421917 -0.0358652 0.0195467 -0.0287865 -0.0378047 0.0297247 0.233244 0.265846 0.24089 0.226635 0.0855678 -0.0172213 -0.010404 0.00280747 0.0159718 0.00671671 0.0256169 0.00287569 0.0755018
internal_weight=687.811 353.239 208.073 135.218 34.3087 4.25021 100.909 69.0934 66.3176 15.075 11.3337 334.572 30.0585 5.17525 93.3965 72.8547 3.21848 8.24483 4.87637 51.2427 26.2253 3.70998 52.6283 42.934 24.7054 19.5832 17.4175 12.9185 8.87335 4.04514
internal_count=11642 5410 2698 1336 599 48 737 536 506 149 102 6232 551 83 1686 1362 52 72 42 357 192 49 921 740 412 320 287 206 145 61
is_linear=0
shrinkage=0.05


Tree=27
num_leaves=31
num_cat=0
split_feature=5 4 6 3 2 2 1 3 3 2 2 3 3 2 1 2 3 3 1 1 1 0 1 2 3 1 1 0 1 1
split_gain=469.261 684.685 813.037 612.443 46.1173 14.9331 38.1289 21.4541 14.787 42.751 14.0103 17.9524 11.0329 57.2323 9.60092 7.54666 6.71867 13.5404 5.96212 4.41329 6.09222 3.96243 3.53043 4.6539 6.39846 4.78993 3.52792 7.60462 2.96938 5.56205
threshold=1.0000000180025095e-35 1.0000000180025095e-35 1.0000000180025095e-35 51.250000000000007 1.5150000000000003 1.675 50.500000000000007 66.750000000000014 59.750000000000007 1.7650000000000003 1.8450000000000004 56.45000000000001 48.95000000000001 1.655 50.500000000000007 1.7250000000000003 71.750000000000014 72.850000000000009 36.500000000000007 52.500000000000007 54.500000000000007 1.0000000180025095e-35 52.500000000000007 1.675 78.750000000000014 60.500000000000007 52.500000000000007 1.0000000180025095e-35 58.500000000000007 61.500000000000007
decision_type=2 2 2 2 2 2 2 2 2 2 2 2 2 2 2 2 2 2 2 2 2 2 2 2 2 2 2 2 2 2
left_child=14 2 3 4 -2 -5 8 10 9 15 11 -8 -6 -14 -1 -7 26 19 -11 -18 -21 -22 -4 -24 -25 -26 27 -16 -19 -30
right_child=1 -3 22 5 12 6 7 -9 -10 18 -12 -13 13 -15 16 -17 17 28 -20 20 21 -23 23 24 25 -27 -28 -29 29 -31
leaf_value=-0.047413485187999753 0.17868736290928292 -0.043010068323517031 -0.044637708129911996 0.25418344409825339 -0.047415033814510912 0.24948727135168425 0.040321040579217954 0.25281299569413446 0.25298219746906092 -0.047930971100350349 -0.048628226455303562 0.2067950639970374 0.31244035915917107 -0.047832852107271451 0.052320988837096197 0.16897500031762616 0.13790911696158503 -0.036163493602693754 0.095720983718400654 -0.048475894482389731 0.13958730489348803 0.020369663859384018 -0.04737545175289052 0.06327705125893672 -0.047495940958392643 0.056025687893047085 -0.047440543460754797 -0.047463246114254759 0.019040214431736979 -0.047541034689006084
leaf_weight=252.3747433796525 2.843715324997901 146.81363634392619 54.439617142081261 40.337303638458252 24.373324017971758 11.877974808216097 3.3755661994218809 2.6300920844078055 33.016685076057911 1.5121547840535634 1.5162041969597337 3.1129116863012314 1.3780834451317776 5.5092965513467789 2.9857603013515455 3.8551704138517371 1.340820126235484 21.971449911594391 1.3828218877315519 1.4702715054154394 1.3332652524113655 1.4604481011629105 7.7788233198225525 3.1331744678318483 4.9230344705283642 1.4454786926507948 38.772227421402931 5.2964566126465797 8.2605078108608705 5.0568904504179946
leaf_count=4703 29 2712 1022 253 454 82 46 22 208 24 21 31 13 95 44 38 18 391 18 20 21 22 147 45 89 24 716 97 147 90
internal_value=-0.000496516 0.0396992 0.0979547 0.169476 -0.0140886 0.230483 0.215133 0.12892 0.232886 0.197267 0.0882122 0.120189 -0.031625 0.0242536 -0.0424559 0.229759 -0.0282296 -0.0134055 0.0206862 0.0587878 0.033908 0.0772648 -0.0383877 -0.0186978 0.00477997 -0.0239994 -0.0411129 -0.0114908 -0.0248717 -0.00624206
internal_weight=695.578 355.255 208.441 136.721 34.1044 102.617 62.2796 10.6348 51.6448 18.6281 8.00468 6.48848 31.2607 6.88738 340.323 15.7331 87.9481 40.8937 2.89498 5.6048 4.26398 2.79371 71.7201 17.2805 9.50169 6.36851 47.0544 8.28222 35.2888 13.3174
internal_count=11642 5373 2661 1334 591 743 490 120 370 162 98 77 562 108 6269 120 1566 709 42 81 63 43 1327 305 158 113 857 141 628 237
is_linear=0
shrinkage=0.05


Tree=28
num_leaves=31
num_cat=0
split_feature=6 5 4 3 2 3 2 1 3 1 2 3 1 0 3 2 3 2 3 3 1 1 3 3 3 2 2 3 3 1
split_gain=609.172 892.811 1099.91 775.45 44.1427 18.9785 73.7063 17.6211 38.793 11.9114 9.17363 15.0268 5.80914 5.78739 5.61663 16.2931 4.01437 47.5742 3.80756 3.74925 3.2223 3.0236 2.87824 4.30638 2.81059 3.83204 2.76836 2.45195 3.38716 2.44601
threshold=1.0000000180025095e-35 1.0000000180025095e-35 1.0000000180025095e-35 51.250000000000007 1.5150000000000003 55.050000000000004 1.7250000000000003 50.500000000000007 54.750000000000007 52.500000000000007 1.675 72.850000000000009 60.500000000000007 1.0000000180025095e-35 49.600000000000009 1.6850000000000003 65.250000000000014 1.8050000000000004 63.750000000000007 53.100000000000009 56.500000000000007 50.500000000000007 82.750000000000014 77.950000000000017 56.100000000000009 1.655 1.8750000000000002 109.50000000000001 91.500000000000014 55.500000000000007
decision_type=2 2 2 2 2 2 2 2 2 2 2 2 2 2 2 2 2 2 2 2 2 2 2 2 2 2 2 2 2 2
left_child=1 2 3 4 -1 6 7 19 -9 -2 -11 13 16 20 -6 -16 17 18 24 -5 -12 -18 23 -13 25 -7 -24 28 -28 -25
right_child=9 -3 -4 5 14 12 -8 8 -10 10 11 22 -14 -15 15 -17 21 -19 -20 -21 -22 -23 26 29 -26 -27 27 -29 -30 -31
leaf_value=0.16005816068207326 -0.047695594111569671 -0.04497156035913371 -0.04417933694486495 0.184747693005817 -0.043975967605737493 0.24305793158875699 -0.048386135750791467 0.24034352195639197 0.012301534425616196 -0.044836273956183378 -0.048464283412987356 -0.048283948546214789 0.16655260588311147 0.075316008886848682 0.12459164001379829 -0.048400422369483748 0.23611858899157073 0.051321644679188899 0.19574002062092583 0.24273282081494921 0.038642453861975269 0.28601194966852789 -0.042237457842578485 -0.023856535054391788 0.24094941508616674 0.17371724868181171 -0.048359676129508075 -0.048308669314792524 0.032285387764043161 0.042650495143384114
