tree
version=v4
num_class=9
num_tree_per_iteration=9
label_index=0
max_feature_idx=7
objective=multiclass num_class:9
feature_names=sex age height weight hypertension diabetes fitness_goal fitness_type
feature_infos=[0:1] [18:63] [1.3:2.0099999999999998] [32:130] [0:1] [0:1] [0:1] [0:1]
tree_sizes=3225 3236 3225 3263 3232 3224 1315 3241 3217 3319 3321 3310 3290 3306 3318 3610 3320 3306 3325 3321 3315 3300 3304 3326 3634 3333 3319 3324 3327 3317 3317 3309 3319 3639 3329 3317 3318 3324 3324 3329 3320 3332 3641 3337 3341 3325 3341 3318 3331 3326 3336 3649 3316 3351 3326 3337 3318 3341 3323 3346 3622 3348 3341 3313 3355 3314 3315 3323 3353 3664 3335 3344 3336 3338 3354 3334 3343 3341 3667 3347 3343 3344 3325 3336 3352 3304 3353 3671 3357 3323 3337 3344 3321 3317 3364 3363 3665 3330 3334 3331 3351 3311 3346 3353 3341 3677 3348 3326 3335 3339 3352 3346 3361 3340 3692 3341 3329 3349 3355 3326 3304 3333 3336 3682 3345 3323 3332 3351 3324 3321 3354 3350 3670 3337 3337 3339 3332 3331 3327 3355 3348 3674 3333 3346 3354 3358 3329 3306 3328 3342 3671 3361 3344 3341 3351 3333 3340 3375 3355 3659 3342 3339 3334 3330 3304 3334 3359 3362 3672 3351 3347 3344 3353 3331 3341 3342 3340 3665 3349 3352 3353 3333 3339 3344 3365 3356 3673 3339 3346 3374 3368 3329 3341 3360 3355 3655 3365 3359 3317 3350 3335 3342 3344 3359 3665 3379 3349 3373 3365 3346 3326 3354 3369 3680 3349 3355 3350 3359 3355 3326 3329 3366 3698 3351 3321 3351 3355 3315 3352 3347 3370 3712 3352 3318 3337 3372 3342 3333 3337 3364 3669 3357 3352 3365 3352 3354 3342 3353 3371 3690 3349 3331 3352 3350 3336 3343 3344 3369 3674 3389 3364 3371 3352 3332 3326 3338 3363 3690 3377 3355 3334 3343 3339 3311 3371 3371 3684 3372 3354 3368 3344 3366 3324 3361 3372 3689 3374 3350 3337 3324 3341 3335 3326 3352 3686 3380 3354 3310 3348 3347 3309 3343 3351 3693 3336 3364 3370 3376 3342 3320 3346 3342 3702 3366 3379 3362 3388 3356 3332 3352 3350 3712 3368 3390 3353 3399 3363 3345 3369 3360 3685 3366 3352 3382 3356 3331 3352 3346 3377 3705 3363 3374 3385 3411 3380 3351 3360 3366 3699 3373 3372 3381 3359 3361 3348 3355 3371 3702 3377 3348 3388 3389 3381 3356 3360 3370 3692 3371 3362 3379 3372 3380 3353 3352 3383 3679 3372 3366 3410 3357 3392 3350 3372 3389 3679 3366 3380 3382 3371 3355 3351 3399 3348 3691 3373 3394 3406 3377 3395 3354 3382 3364 3568 3390 3373 3388 3367 3350 3347 3382 3359 3574 3344 3366 3385 3375 3385 3366 3365 3376 2978 3393 3371 3352 3354 3350 3329 3371 3353 2777 3366 3358 3388 3378 3379 3375 3394 3389 2420 3381 3370 3381 3337 3367 3393 3367 3375 2304 3378 3354 3384 3336 3341 3368 3389 3371 2067 3410 3358 3339 3340 3371 3374 3364 3376 1845 3360 3350 3364 3333 3373 3364 3356 3381 1839 3344 3402 3388 3341 3373 3341 3367 3359 1502 3344 3378 3359 3366 3395 3370 3378 3387 1378 3348 3370 3348 3348 3398 3377 3363 3388 1156 3375 3371 3388 3377 3384 3362 3384 3374 1035 3386 3404 3368 3368 3375 3350 3372 3379 919 3370 3388 3386 3381 3374 3341 3403 3416 833 3407 3424 3386 3364 3354 3351 3393 3371 718 3355 3371 3406 3413 3386 3348 3401 3385 591 3389 3402 3339 3374 3380 3362 3390 3403 491 3358 3380 3393 3381 3351 3354 3400 3378 368 3377 3409 3381 3407 3363 3360 3380 3367 228 3358 3343 3395 3357 3368 3378 3355 3377 228 3361 3388 3378 3366 3383 3368 3348 3373 370 3358 3387 3386 3391 3369 3409 3353 3343 228 3360 3351 3389 3383 3360 3398 3377 3347 228 3362 3374 3387 3367 3366 3387 3366 3370 228 3369 3371 3395 3380 3386 3397 3365 3375 228 3369 3364 3364 3364 3349 3405 3377 3366 228 3370 3391 3396 3382 3371 3404 3378 3367 228 3383 3421 3396 3389 3386 3394 3402 3368 228 3395 3395 3385 3399 3395 3375 3370 3375 228 3377 3393 3399 3387 3338 3378 3397 3372 228 3396 3388 3375 3404 3393 3372 3394 3373 228 3407 3394 3352 3415 3368 3368 3407 3359 228 3368 3369 3401 3439 3377 3394 3397 3369 228 3418 3375 3356 3442 3359 3419 3401 3362 228 3393 3400 3369 3422 3379 3434 3359 3354 228 3379 3380 3388 3384 3367 3388 3401 3349 228 3402 3395 3397 3397 3384 3364 3386 3352 228 3397 3359 3400 3408 3397 3383 3394 3394 228 3396 3387 3393 3411 3390 3364 3383 3378 228 3433 3392 3383 3405 3401 3361 3420 3370 228 3400 3390 3381 3385 3401 3370 3411 3370 228 3396 3389 3379 3391 3380 3413 3423 3367 228 3387 3400 3403 3401 3388 3382 3399 3367 228 3390 3396 3398 3417 3379 3377 3424 3377 228 3367 3379 3427 3425 3365 3365 3412 3372 228 3358 3394 3397 3406 3371 3385 3429 3405 228 3388 3380 3404 3416 3373 3386 3436 3401 228 3405 3363 3410 3415 3388 3401 3408 3423 228 3357 3421 3410 3410 3360 3391 3400 3393 228 3402 3406 3384 3396 3393 3414 3406 3408 228 3378 3404 3412 3386 3388 3360 3396 3386 228 3373 3395 3371 3397 3376 3379 3425 3397 228 3396 3417 3397 3389 3382 3375 3431 3434 228 3373 3408 3427 3428 3383 3374 3439 3363 228 3381 3427 3390 3398 3390 3369 3419 3411 228 3416 3397

Tree=0
num_leaves=31
num_cat=0
split_feature=6 4 5 1 2 2 0 1 1 2 3 1 1 3 2 1 1 0 1 1 2 3 3 2 1 3 2 2 3 5
split_gain=1452.78 2473.5 4492.81 124.6 108.838 61.8794 25.6293 15.9907 14.3574 13.66 9.93498 6.7619 15.5423 6.68959 6.64667 6.38403 6.38125 6.4991 10.3772 6.34981 5.96227 18.445 5.63411 5.30645 10.3956 3.2402 3.10472 5.25777 5.52039 2.90255
threshold=1.0000000180025095e-35 1.0000000180025095e-35 1.0000000180025095e-35 49.500000000000007 1.675 1.6850000000000003 1.0000000180025095e-35 59.500000000000007 49.500000000000007 1.675 56.95000000000001 50.500000000000007 51.500000000000007 49.250000000000007 1.7950000000000002 60.500000000000007 56.500000000000007 1.0000000180025095e-35 53.500000000000007 55.500000000000007 1.675 72.850000000000009 54.750000000000007 1.7550000000000001 52.500000000000007 49.750000000000007 1.675 1.7450000000000003 51.750000000000007 1.0000000180025095e-35
decision_type=2 2 2 2 2 2 2 2 2 2 2 2 2 2 2 2 2 2 2 2 2 2 2 2 2 2 2 2 2 2
left_child=1 2 3 -1 15 7 -7 13 -3 -10 -8 -4 -13 -6 16 -5 17 18 -11 -2 -21 29 -18 24 -19 -17 -14 28 -28 -22
right_child=19 8 11 4 5 6 10 -9 9 14 -12 12 26 -15 -16 25 22 23 -20 20 21 -23 -24 -25 -26 -27 27 -29 -30 -31
leaf_value=-1.6549774202442848 -2.023982007071643 -2.024609951980934 -2.024609951980934 -1.6533375243625783 -1.983357460023339 -1.8558497576089543 -1.7770950002353636 -1.7947746396457616 -2.022445098175579 -1.9689190878381808 -1.6894334548254739 -1.9052723859607483 -2.024609951980934 -1.8941628828177279 -2.0143914447987776 -1.671901145743496 -2.024609951980934 -1.8920126564029498 -1.8595999841505537 -2.0228503670159181 -1.9524180910551427 -2.0110386360888794 -1.9669987132125686 -2.0159757094781816 -2.0033943846884568 -1.7461556312671673 -2.0150901461445661 -2.024609951980934 -1.9475534103997658 -1.8896017964833502
leaf_weight=152.44870513677597 636.99856474995613 257.89688192307949 133.05593699216843 20.066128149628643 3.6361440271139163 4.4441760331392297 4.8481920361518869 2.8281120210885993 46.192496344447136 5.3868800401687622 9.6963840723037702 3.7708160281181327 21.547520160675049 4.982864037156105 14.679248109459875 2.6934400200843802 9.2923680692911166 3.7708160281181318 3.6361440271139145 56.831584423780441 4.8481920361518851 51.579376384615898 7.8109760582447043 5.7908960431814203 4.7135200351476669 3.2321280241012573 5.2522080391645449 10.235072076320646 7.1376160532236099 2.9627840220928192
leaf_count=1132 4730 1915 988 149 27 33 36 21 343 40 72 28 160 37 109 20 69 28 27 422 36 383 58 43 35 24 39 76 53 22
internal_value=-1.97299 -1.92368 -1.83647 -1.67847 -1.74195 -1.80612 -1.75076 -1.89794 -2.01835 -2.00239 -1.71865 -2.01881 -2.00271 -1.93179 -1.98558 -1.6668 -1.97511 -1.95808 -1.92487 -2.02202 -2.01127 -2.0002 -1.9983 -1.97908 -1.95389 -1.7124 -2.01103 -1.99809 -1.97618 -1.92859
internal_weight=1502.27 749.046 389.875 208.876 56.4276 30.4359 18.9888 11.4471 359.17 101.273 14.5446 180.999 47.9432 8.61901 55.0808 25.9917 40.4016 23.2983 9.02302 753.221 116.222 59.3904 17.1033 14.2752 8.48434 5.92557 44.1724 22.6249 12.3898 7.81098
internal_count=11155 5562 2895 1551 419 226 141 85 2667 752 108 1344 356 64 409 193 300 173 67 5593 863 441 127 106 63 44 328 168 92 58
is_linear=0
shrinkage=1


Tree=1
num_leaves=31
num_cat=0
split_feature=5 4 6 1 2 3 2 1 1 2 1 2 2 1 1 2 3 3 3 3 2 1 1 1 1 1 1 3 0 4
split_gain=1249.57 2488.34 4449.75 148.641 135.339 50.1653 23.9238 22.8577 20.6491 17.9846 13.6378 13.1458 19.2217 12.9924 12.5325 11.561 10.5731 8.46023 12.7567 7.12214 9.57666 9.11895 8.13312 5.99689 5.63251 4.22739 5.65258 16.742 4.07185 7.42555
threshold=1.0000000180025095e-35 1.0000000180025095e-35 1.0000000180025095e-35 49.500000000000007 1.675 48.95000000000001 1.7950000000000002 50.500000000000007 59.500000000000007 1.675 57.500000000000007 1.7550000000000001 1.7350000000000001 52.500000000000007 61.500000000000007 1.675 78.750000000000014 54.750000000000007 56.45000000000001 54.750000000000007 1.6850000000000003 54.500000000000007 61.500000000000007 58.500000000000007 60.500000000000007 49.500000000000007 50.500000000000007 58.750000000000007 1.0000000180025095e-35 1.0000000180025095e-35
decision_type=2 2 2 2 2 2 2 2 2 2 2 2 2 2 2 2 2 2 2 2 2 2 2 2 2 2 2 2 2 2
left_child=7 2 3 -2 24 10 17 -1 -8 -9 -6 12 13 16 -4 -16 -11 -7 -19 -15 21 -21 23 -23 -5 -3 27 -27 29 -13
right_child=1 25 14 4 5 6 8 9 -10 11 -12 28 -14 19 15 -17 -18 18 -20 20 -22 22 -24 -25 -26 26 -28 -29 -30 -31
leaf_value=-2.1652937482142818 -1.7490481486460152 -2.1652937482142818 -2.1638714144643862 -1.7464164588700304 -2.1470816921558362 -1.8780636069496524 -1.7464164588700304 -2.1610748402640518 -1.9170701693436143 -2.0149275417830119 -1.9857749099238884 -2.1652937482142818 -2.0097107550292743 -2.1652937482142818 -2.1652937482142818 -2.0256679850995312 -2.1443498837470694 -2.0297746251911417 -1.9098807669068114 -2.1652937482142818 -2.1652937482142818 -2.1043661424914815 -2.1652937482142818 -2.0389656768247457 -1.8077155743838231 -2.0057214475117098 -2.1562000757183415 -2.1652937482142818 -2.1588246008885021 -2.0510544874840315
leaf_weight=536.19520726799965 113.9951965585351 221.30585803091526 140.6139702051878 15.995137527585031 2.7454340532422092 4.1778344288468388 3.9391010329127303 82.95985508710146 3.2229008451104164 4.655301220715045 2.5067006573081017 3.1035341471433631 4.1778344288468352 11.697936400771139 2.7454340532422057 3.2229008451104164 2.3873339593410492 4.0584677308797819 4.8940346166491508 4.4165678247809472 8.1169354617595655 6.5651683881878871 2.6260673552751532 7.520101971924305 4.89403461664915 2.5067006573081008 87.973256401717663 4.7746679186820984 30.915974773466587 2.6260673552751541
leaf_count=4492 955 1854 1178 134 23 35 33 695 27 39 21 26 35 98 23 27 20 34 41 37 68 55 22 63 41 21 737 40 259 22
internal_value=-2.11475 -2.06314 -1.96172 -1.77976 -1.85517 -1.93237 -1.89672 -2.16021 -1.82321 -2.14434 -2.07009 -2.1287 -2.11257 -2.12153 -2.16086 -2.0899 -2.0588 -1.93682 -1.96423 -2.13232 -2.11913 -2.1014 -2.08451 -2.06945 -1.76078 -2.1615 -2.1527 -2.11036 -2.15165 -2.11293
internal_weight=1331.54 623.572 307.011 160.429 46.4336 25.5445 20.2923 707.964 7.162 171.769 5.25213 88.8088 52.1632 47.9854 146.582 5.96833 7.04264 13.1303 8.9525 40.9428 29.2448 21.1279 16.7113 14.0853 20.8892 316.56 95.2546 7.28137 36.6456 5.7296
internal_count=11155 5224 2572 1344 389 214 170 5931 60 1439 44 744 437 402 1228 50 59 110 75 343 245 177 140 118 175 2652 798 61 307 48
is_linear=0
shrinkage=1


Tree=2
num_leaves=31
num_cat=0
split_feature=6 5 4 0 2 1 2 3 1 2 2 3 3 2 1 1 1 1 2 2 3 3 1 2 1 2 3 3 2 2
split_gain=2398.36 3570.79 401.321 321.177 133.219 66.6328 66.2421 60.4513 47.176 49.3871 41.7967 150.138 39.5423 34.1658 53.7335 32.0699 37.6079 29.8629 33.8649 18.0134 43.2618 38.2724 27.1787 18.3956 17.0545 14.8573 29.5422 14.7544 50.2283 36.532
threshold=1.0000000180025095e-35 1.0000000180025095e-35 1.0000000180025095e-35 1.0000000180025095e-35 1.5950000000000004 50.500000000000007 1.675 104.50000000000001 49.500000000000007 1.675 1.7050000000000003 80.250000000000014 85.500000000000014 1.7550000000000001 52.500000000000007 37.500000000000007 48.500000000000007 49.500000000000007 1.675 1.8450000000000004 92.750000000000014 93.750000000000014 40.500000000000007 1.8250000000000004 53.500000000000007 1.675 54.750000000000007 76.15000000000002 1.6450000000000002 1.675
decision_type=2 2 2 2 2 2 2 2 2 2 2 2 2 2 2 2 2 2 2 2 2 2 2 2 2 2 2 2 2 2
left_child=24 2 3 17 -5 -4 -7 10 -3 -10 11 15 -8 14 -11 27 -17 -2 -19 21 -21 23 -23 -12 -1 -26 -27 29 -29 -6
right_child=1 8 5 4 7 6 12 -9 9 13 19 -13 -14 -15 -16 16 -18 18 -20 20 -22 22 -24 -25 25 26 -28 28 -30 -31
leaf_value=-1.5781532100791094 -1.3213386582726403 -1.5787963213997378 -1.319474859866979 -1.3183362365452107 -1.5418079069825268 -1.3312783525628269 -1.4967335549387224 -1.3818630865097294 -1.577277603703793 -1.4076368370667629 -1.502524520850437 -1.3548920379283023 -1.375790667027827 -1.5588787854990975 -1.5247647080522562 -1.3563199989198291 -1.4835060464529597 -1.3227508142546094 -1.4409056882414588 -1.386282345637696 -1.5601920296244145 -1.3548006484248445 -1.4828373427691226 -1.4130489946741296 -1.5755112392484194 -1.5188578081486961 -1.5721391946302932 -1.3183362365452107 -1.5303386311942444 -1.4051562648300531
leaf_weight=855.21741315722466 66.612893909215927 342.47090125083923 175.65071448683739 18.428927421569824 32.442590981721878 30.906847029924393 14.013663560152056 23.612063258886337 65.845021933317184 13.437759578227995 61.6217260658741 32.826526969671249 13.053823590278624 32.634558975696564 36.089982867240906 9.2144637107849139 15.741375505924223 11.326111644506456 13.053823590278624 4.4152638614177731 18.812863409519196 9.5983996987342852 7.2947837710380545 6.3349438011646262 106.54223665595055 45.880350559949875 60.085982114076614 4.2232958674430838 8.254623740911482 5.7590398192405692
leaf_count=4455 347 1784 915 96 169 161 73 123 343 70 321 171 68 170 188 48 82 59 68 23 98 50 38 33 555 239 313 22 43 30
internal_value=-1.52194 -1.46917 -1.38555 -1.41946 -1.44789 -1.33482 -1.3813 -1.45783 -1.5686 -1.54501 -1.46612 -1.44419 -1.43841 -1.51916 -1.49299 -1.48294 -1.43655 -1.33867 -1.38601 -1.48812 -1.52713 -1.47744 -1.41009 -1.49418 -1.575 -1.56233 -1.54907 -1.50579 -1.45858 -1.52121
internal_weight=2141.4 1073.68 583.199 349.574 258.581 233.625 57.9743 240.152 490.478 148.007 216.54 108.462 27.0675 82.1623 49.5277 75.6354 24.9558 90.9928 24.3799 108.078 23.2281 84.8499 16.8932 67.9567 1067.73 212.509 105.966 50.6796 12.4779 38.2016
internal_count=11155 5593 3038 1821 1347 1217 302 1251 2555 771 1128 565 141 428 258 394 130 474 127 563 121 442 88 354 5562 1107 552 264 65 199
is_linear=0
shrinkage=1


Tree=3
num_leaves=31
num_cat=0
split_feature=6 5 4 0 2 1 2 3 2 3 2 1 3 2 2 2 3 2 3 3 2 2 3 3 3 1 3 3 1 1
split_gain=573.378 967.125 1414.87 1242.87 366.413 246.617 285.475 189.24 332.253 147.111 98.7116 90.0586 81.038 103.056 86.8679 61.8588 105.256 49.4327 36.5505 30.1605 141.831 125.584 85.9141 29.313 28.7963 28.7882 31.9251 27.6512 24.207 22.8998
threshold=1.0000000180025095e-35 1.0000000180025095e-35 1.0000000180025095e-35 1.0000000180025095e-35 1.5950000000000004 37.500000000000007 1.7050000000000003 83.250000000000014 1.7250000000000003 102.50000000000001 1.6150000000000004 24.500000000000004 90.750000000000014 1.8250000000000004 1.8050000000000004 1.8750000000000002 94.250000000000014 1.6150000000000004 80.750000000000014 76.15000000000002 1.6450000000000002 1.675 74.250000000000014 79.250000000000014 72.850000000000009 42.500000000000007 80.750000000000014 100.50000000000001 46.500000000000007 51.500000000000007
decision_type=2 2 2 2 2 2 2 2 2 2 2 2 2 2 2 2 2 2 2 2 2 2 2 2 2 2 2 2 2 2
left_child=-1 2 3 -2 -5 7 10 17 -9 12 -7 -10 13 25 -14 16 -13 -6 19 21 -21 -19 -23 24 -12 -8 -27 -18 -11 -26
right_child=1 -3 -4 4 5 6 9 8 11 28 23 15 14 -15 -16 -17 27 18 -20 20 -22 22 -24 -25 29 26 -28 -29 -30 -31
leaf_value=-2.9483069864698299 -2.9483069864698299 -2.9483069864698299 -2.9483069864698299 -2.9483069864698299 -2.1156350342755137 -2.3901754243105953 -2.2758913425351341 -2.908502254904985 -2.0925052578256702 -2.6630397435884436 -2.8718961178408868 -2.4078006315366762 -2.6520679265545439 -2.9153915353681312 -2.2280778088980124 -2.2066121549782247 -2.8705068293203606 -2.2416222256954867 -2.1802797940968661 -2.9483069864698299 -2.3617462511069789 -2.9483069864698299 -2.3492457764189187 -2.9169014184461908 -2.8113787098867644 -2.7250543616061362 -2.4348259492833342 -2.6006375342081403 -2.9197802621816913 -2.5471499261678803
leaf_weight=324.95845104753971 27.693330779671669 149.27523236721754 71.102918900549412 5.6087758541107169 2.1617156937718418 1.3437692150473584 1.6358929574489609 5.0245283693075207 1.6943177059292782 1.9280166998505586 3.2717859148979169 6.6604213267564756 1.5190434604883192 1.5190434604883192 5.9008995965123177 1.7527424544095982 1.9280166998505595 7.7120667994022423 2.2785651907324782 1.2853444665670384 5.1998026147484779 1.2269197180867197 1.1684949696063993 6.3682975843548775 1.4606187120079996 1.3437692150473592 3.2133611664175987 1.869591951370239 1.7527424544095991 1.869591951370239
leaf_count=5562 474 2555 1217 96 37 23 28 86 29 33 56 114 26 26 101 30 33 132 39 22 89 21 20 109 25 23 55 32 30 32
internal_value=-2.90128 -2.85451 -2.77563 -2.66022 -2.55884 -2.52896 -2.62983 -2.44534 -2.56003 -2.5018 -2.79811 -2.43411 -2.43284 -2.54634 -2.31488 -2.48151 -2.52758 -2.34211 -2.36806 -2.39384 -2.478 -2.33985 -2.65608 -2.84037 -2.76654 -2.45582 -2.52041 -2.73765 -2.7853 -2.66304
internal_weight=651.728 326.77 177.494 106.391 78.6981 73.0894 33.1268 39.9625 18.9296 18.8128 14.3141 13.9051 15.132 7.71207 7.41994 12.2108 10.458 21.0329 18.8712 16.5926 6.48515 10.1075 2.39541 12.9703 6.602 6.19302 4.55713 3.79761 3.68076 3.33021
internal_count=11155 5593 3038 1821 1347 1251 567 684 324 322 245 238 259 132 127 209 179 360 323 284 111 173 41 222 113 106 78 65 63 57
is_linear=0
shrinkage=1


Tree=4
num_leaves=31
num_cat=0
split_feature=5 6 4 1 2 3 2 2 1 3 3 2 3 3 1 1 4 1 1 1 0 3 2 1 1 2 3 0 4 3
split_gain=1147.48 2327.27 4697.69 188.488 128.197 63.6642 39.5941 26.3688 16.1456 13.8343 25.0926 11.0071 13.2022 15.5224 10.9428 10.0857 12.6873 8.36619 7.23284 32.8391 5.29558 4.02493 2.08586 2.11214 5.59823 10.6388 2.01241 9.48908 16.8904 6.50471
threshold=1.0000000180025095e-35 1.0000000180025095e-35 1.0000000180025095e-35 49.500000000000007 1.655 85.500000000000014 1.675 1.6850000000000003 50.500000000000007 88.850000000000009 92.750000000000014 1.655 49.900000000000006 47.45000000000001 52.500000000000007 55.500000000000007 1.0000000180025095e-35 54.500000000000007 49.500000000000007 50.500000000000007 1.0000000180025095e-35 77.950000000000017 1.675 58.500000000000007 53.500000000000007 1.6850000000000003 84.750000000000014 1.0000000180025095e-35 1.0000000180025095e-35 85.500000000000014
decision_type=2 2 2 2 2 2 2 2 2 2 2 2 2 2 2 2 2 2 2 2 2 2 2 2 2 2 2 2 2 2
left_child=8 -2 3 -3 -5 6 -6 14 -1 -7 -11 -10 13 -13 -8 20 -17 -12 -4 -20 -15 -16 -21 24 -24 -26 -14 28 -28 -29
right_child=1 2 18 4 5 9 7 -9 11 10 17 12 26 15 21 16 -18 -19 19 22 -22 -23 23 -25 25 -27 27 29 -30 -31
leaf_value=-2.262124797107909 -2.2592206598279305 -1.8072174145579907 -2.262124797107909 -1.8061752441512324 -1.9364465449959976 -1.8230622646311094 -2.2621247971079095 -1.9845902866125409 -2.262124797107909 -2.0403115010749313 -1.8061752441512327 -2.2539828408051115 -2.247010447286141 -2.2621247971079095 -2.0797449759252387 -2.1828292226806609 -2.0242380738261647 -1.933841118979102 -2.0911437147491556 -2.262124797107909 -2.1535653797372718 -2.1677904068410108 -2.262124797107909 -2.262124797107909 -2.1101416127890169 -2.236794266388094 -2.2409178411564357 -2.1807052340799311 -2.0867595844322642 -2.2593781130539532
leaf_weight=492.59834086894989 292.68587973713875 95.953594893217087 99.682077437639236 12.501382648944853 3.8381437957286861 2.9608537852764121 2.3028862774372083 2.5222087800502777 53.734013140201569 4.0574662983417493 2.4125475287437439 6.1410300731658927 59.546059459447861 2.1932250261306745 2.1932250261306763 2.5222087800502777 2.5222087800502777 2.7415312826633453 3.5091600418090811 19.84868648648262 2.3028862774372101 3.1801762878894806 7.0183200836181667 7.2376425862312308 2.3028862774372083 5.9217075705528259 4.7154338061809566 3.0705150365829494 2.8511925339698792 18.203767716884613
leaf_count=4492 2669 875 909 114 35 27 21 23 490 37 22 56 543 20 20 23 23 25 32 181 21 29 64 66 21 54 43 28 26 166
internal_value=-2.21222 -2.16062 -2.05762 -1.84479 -1.93792 -2.00076 -2.07333 -2.12485 -2.25767 -1.91708 -1.9473 -2.24375 -2.23426 -2.19198 -2.17093 -2.15207 -2.10353 -1.87408 -2.25457 -2.23813 -2.20652 -2.13185 -2.25031 -2.23988 -2.22932 -2.20133 -2.24176 -2.23092 -2.18283 -2.24802
internal_weight=1223.27 572.87 280.184 134.664 38.7104 26.209 14.0366 10.1985 650.401 12.1724 9.21155 157.803 104.069 15.6816 7.67629 9.54053 5.04442 5.15408 145.52 45.8384 4.49611 5.3734 42.3292 22.4806 15.2429 8.22459 88.387 28.8409 7.56663 21.2743
internal_count=11155 5224 2555 1228 353 239 128 93 5931 111 84 1439 949 143 70 87 46 47 1327 418 41 49 386 205 139 75 806 263 69 194
is_linear=0
shrinkage=1


Tree=5
num_leaves=31
num_cat=0
split_feature=5 6 4 1 2 3 1 1 3 2 1 1 2 3 3 1 2 3 3 1 1 1 0 3 3 3 1 4 2 3
split_gain=1285.17 2415.49 4421.57 176.572 177.341 48.9352 28.5816 25.8746 18.8135 12.5497 11.2962 10.9697 12.7293 11.3869 10.8206 24.6058 8.98896 13.4799 22.6023 7.5811 4.34293 9.16768 4.10316 12.7998 10.554 3.71311 3.25336 6.84472 2.6812 2.26123
threshold=1.0000000180025095e-35 1.0000000180025095e-35 1.0000000180025095e-35 49.500000000000007 1.675 85.500000000000014 57.500000000000007 60.500000000000007 72.850000000000009 1.7950000000000002 56.500000000000007 49.500000000000007 1.675 47.95000000000001 81.750000000000014 53.500000000000007 1.655 49.900000000000006 47.45000000000001 60.500000000000007 51.500000000000007 52.500000000000007 1.0000000180025095e-35 84.750000000000014 89.250000000000014 64.15000000000002 61.500000000000007 1.0000000180025095e-35 1.655 56.45000000000001
decision_type=2 2 2 2 2 2 2 2 2 2 2 2 2 2 2 2 2 2 2 2 2 2 2 2 2 2 2 2 2 2
left_child=11 10 20 25 28 8 9 -8 -6 -7 -2 -1 -13 19 -10 -16 -12 18 -18 -14 -3 -22 23 -15 -25 -4 -19 -28 -5 -24
right_child=1 2 3 4 5 6 7 -9 14 -11 16 12 13 22 15 -17 17 26 -20 -21 21 -23 29 24 -26 -27 27 -29 -30 -31
leaf_value=-2.1907037010427013 -2.188645715999197 -2.1907037010427013 -1.8266929192341101 -1.7624557224443589 -2.1172897618544142 -1.895360267526603 -2.0754061683431475 -1.8597848084894366 -1.9315009771542309 -1.7624557224443589 -2.1907037010427013 -2.1907037010427013 -2.0870953191237476 -2.1751310472754888 -1.9480298465036405 -2.15177206662467 -2.1773209517115033 -2.1774246939543809 -2.0071688530719833 -2.1907037010427013 -2.0836417063931156 -2.178014872047195 -2.1574417221224418 -2.0438758226661267 -2.1621538358028118 -1.7629374412054368 -2.0739087977886079 -2.1907037010427013 -1.8052805203041931 -2.1816135316856613
leaf_weight=510.68543037772179 267.25170327723026 109.0489693582058 2.3350957036018363 16.812689065933231 4.0864174813032177 3.3858887702226621 3.0356244146823883 2.5686052739620209 4.4366818368434888 3.7361531257629395 16.462424710392952 83.829935759305954 7.2387966811656934 19.26453955471516 3.5026435554027557 2.5686052739620209 3.7361531257629421 15.061367288231851 4.086417481303215 2.3350957036018372 2.8021148443222037 31.523791998624802 12.02574287354946 4.0864174813032141 3.5026435554027557 103.79500402510166 2.56860527396202 2.451850488781929 4.6701914072036734 49.504028916358948
leaf_count=4374 2289 934 20 144 35 29 26 22 38 32 141 718 62 165 30 22 32 129 35 20 24 270 103 35 30 889 22 21 40 424
internal_value=-2.14034 -2.08741 -1.98571 -1.80054 -1.87925 -1.96377 -1.89211 -1.97658 -2.02626 -1.82564 -2.18477 -2.18695 -2.1764 -2.16416 -1.99085 -2.03423 -2.1614 -2.14412 -2.08844 -2.11237 -2.18582 -2.17031 -2.16977 -2.15346 -2.09847 -1.76434 -2.16581 -2.13095 -1.77177 -2.17689
internal_weight=1302.4 609.927 298.308 154.934 48.8035 27.3206 12.7263 5.60423 14.5943 7.12204 311.619 692.473 181.787 97.9573 10.5079 6.07125 44.3668 27.9044 7.82257 9.57389 143.375 34.3259 88.3834 26.8536 7.58906 106.13 20.0818 5.02046 21.4829 61.5298
internal_count=11155 5224 2555 1327 418 234 109 48 125 61 2669 5931 1557 839 90 52 380 239 67 82 1228 294 757 230 65 909 172 43 184 527
is_linear=0
shrinkage=1


Tree=6
num_leaves=11
num_cat=0
split_feature=1 3 4 0 1 1 1 1 1 2
split_gain=34.2757 148.473 197.764 1.11022e-16 1.11022e-16 1.11022e-16 5.55112e-17 5.55112e-17 5.55112e-17 3.46945e-18
threshold=18.500000000000004 48.350000000000009 1.0000000180025095e-35 1.0000000180025095e-35 20.500000000000004 29.500000000000004 60.500000000000007 55.500000000000007 42.500000000000007 1.635
decision_type=2 2 2 2 2 2 2 2 2 2
left_child=1 2 -1 -2 -5 -6 7 8 -7 -3
right_child=3 9 -4 4 5 6 -8 -9 -10 -11
leaf_value=-9.3640915368868587 -9.3640915368868765 -9.3640915368868711 9.705993733371411 -9.3640915368868747 -9.3640915368868747 -9.3640915368868747 -9.3640915368868747 -9.3640915368868747 -9.3640915368868747 -9.3640915368868729
leaf_weight=0.0028235927165952681 0.39550466551736441 0.010487630090210587 0.0026219075225526467 0.031362047673610505 0.15580181239783997 0.20995428699825425 0.037311760897864588 0.066455271437007468 0.20007171249017119 0.0125044820306357
leaf_count=28 3922 104 26 311 1545 2082 370 659 1984 124
internal_value=-9.31964 -7.60586 -0.182199 -9.36409 -9.36409 -9.36409 -9.36409 -9.36409 -9.36409 -9.36409
internal_weight=1.1249 0.0284376 0.0054455 1.09646 0.700957 0.669595 0.513793 0.476481 0.410026 0.0229921
internal_count=11155 282 54 10873 6951 6640 5095 4725 4066 228
is_linear=0
shrinkage=1


Tree=7
num_leaves=31
num_cat=0
split_feature=4 5 6 1 2 3 2 1 1 1 2 2 2 3 2 1 1 3 1 2 2 3 1 1 1 7 2 1 1 1
split_gain=1286.23 2494.42 4388.53 165.485 142.359 72.6167 17.1667 22.1736 15.2658 15.2444 12.1848 10.5574 10.2889 9.15246 8.46367 7.83915 7.13312 8.33595 6.9208 8.81058 12.0518 13.9787 13.4733 19.5953 11.6488 9.75838 6.36125 9.38292 6.49412 8.47322
threshold=1.0000000180025095e-35 1.0000000180025095e-35 1.0000000180025095e-35 49.500000000000007 1.675 48.95000000000001 1.7950000000000002 59.500000000000007 49.500000000000007 53.500000000000007 1.6950000000000001 1.675 1.7150000000000001 72.850000000000009 1.7950000000000002 60.500000000000007 56.500000000000007 63.750000000000007 50.500000000000007 1.675 1.7450000000000003 84.750000000000014 59.500000000000007 58.500000000000007 55.500000000000007 1.0000000180025095e-35 1.7250000000000003 50.500000000000007 51.500000000000007 52.500000000000007
decision_type=2 2 2 2 2 2 2 2 2 2 2 2 2 2 2 2 2 2 2 2 2 2 2 2 2 2 2 2 2 2
left_child=8 2 3 -2 15 -6 9 -8 -1 12 -11 -10 -7 14 16 -5 26 -18 -3 -20 21 22 23 24 25 -21 27 -13 -29 -30
right_child=1 18 -4 4 5 6 7 -9 11 10 -12 13 -14 -15 -16 -17 17 -19 19 20 -22 -23 -24 -25 -26 -27 -28 28 29 -31
leaf_value=-2.1682493384492783 -1.7508924260362067 -2.1682493384492783 -2.1623830872724068 -1.7482947689050052 -2.099685327095111 -1.9372743251999283 -1.748294768905005 -1.9330747795044854 -2.1647350742689913 -1.9313518889627652 -2.0682601552244511 -2.0089562258635194 -1.7902902258594324 -2.1575362116751897 -2.1642497711202853 -1.8217868185752528 -2.1611314643892059 -2.0895078566597269 -2.1682493384492783 -2.1346529728857364 -2.1682493384492783 -2.1682493384492783 -2.1682493384492783 -1.937274325199928 -2.1682493384492783 -2.0221781838251833 -2.1346529728857364 -2.1682493384492783 -2.000267510631569 -2.1073863573559053
leaf_weight=517.55596744269133 115.48867918550968 228.00084602087736 144.89662120491266 15.239743232727053 5.8339642062783268 2.3812098801136035 3.5718148201704016 2.9765123501420021 85.36637420207262 4.6433592662215233 2.5002703741192818 3.4527543261647287 2.3812098801136017 46.671713650226593 12.501351870596407 4.7624197602272025 14.049138292670252 5.7149037122726432 42.02835438400507 2.9765123501420074 18.097195088863373 8.6914160624146444 4.4052382782101622 2.3812098801136008 3.6908753141760817 5.4767827242612839 8.9295370504260045 2.8574518561363211 2.3812098801136008 8.215174086391924
leaf_count=4347 970 1915 1217 128 49 20 30 25 717 39 21 29 20 392 105 40 118 48 353 25 152 73 37 20 31 46 75 24 20 69
internal_value=-2.11773 -2.06517 -1.96311 -1.7824 -1.86457 -1.94592 -1.89731 -1.83229 -2.1638 -1.93307 -1.97927 -2.15168 -1.86378 -2.14105 -2.1278 -1.76579 -2.11781 -2.14042 -2.16366 -2.15172 -2.13653 -2.11576 -2.09165 -2.06842 -2.09414 -2.06178 -2.10051 -2.08248 -2.10135 -2.08331
internal_weight=1328.12 620.424 304.676 159.779 44.2905 24.2883 18.4544 6.54833 707.696 11.906 7.14363 190.14 4.76242 104.773 58.1015 20.0022 45.6002 19.764 315.748 87.7476 45.7192 27.622 18.9306 14.5254 12.1442 8.4533 25.8361 16.9066 13.4538 10.5964
internal_count=11155 5211 2559 1342 372 204 155 55 5944 100 60 1597 40 880 488 168 383 166 2652 737 384 232 159 122 102 71 217 142 113 89
is_linear=0
shrinkage=1


Tree=8
num_leaves=31
num_cat=0
split_feature=5 4 6 1 2 3 2 1 1 3 1 2 1 2 2 1 3 1 2 1 1 3 1 2 2 2 0 2 2 1
split_gain=1293.22 2248.68 4637.34 146 151.293 56.7109 21.605 21.7869 15.6523 14.2966 13.5321 27.276 12.9923 15.0764 14.8516 21.4097 20.6201 10.5393 10.7673 7.05838 13.3387 10.9238 6.2544 6.11074 26.0081 5.10983 3.73196 3.63081 6.46498 2.61677
threshold=1.0000000180025095e-35 1.0000000180025095e-35 1.0000000180025095e-35 49.500000000000007 1.675 56.45000000000001 1.7550000000000001 52.500000000000007 51.500000000000007 63.750000000000007 52.500000000000007 1.675 49.500000000000007 1.675 1.7450000000000003 51.500000000000007 78.750000000000014 61.500000000000007 1.6650000000000003 59.500000000000007 57.500000000000007 64.65000000000002 59.500000000000007 1.655 1.6650000000000003 1.7350000000000001 1.0000000180025095e-35 1.7850000000000004 1.8250000000000004 55.500000000000007
decision_type=2 2 2 2 2 2 2 2 2 2 2 2 2 2 2 2 2 2 2 2 2 2 2 2 2 2 2 2 2 2
left_child=12 8 3 -3 -5 6 7 -6 -2 -7 11 -10 -1 -14 15 16 -15 -4 -19 20 25 -22 26 -12 -25 29 -9 -26 -29 -17
right_child=1 2 17 4 5 9 -8 22 10 -11 23 -13 13 14 -16 19 -18 18 -20 -21 21 -23 -24 24 27 -27 -28 28 -30 -31
leaf_value=-2.1741872765260313 -2.1741872765260313 -1.7542918384831583 -2.1715510303157863 -1.7617070132400856 -2.1573021195494135 -1.7922611068168222 -1.8976200501848799 -1.988450549783237 -2.1741872765260313 -1.9144156307319133 -2.1741872765260313 -1.9631228143183104 -2.1741872765260313 -2.0140694086443118 -2.1673233915761867 -2.1402662022426475 -2.1741872765260313 -2.1741872765260313 -2.0334776350542172 -2.1741872765260313 -2.1417158208017661 -2.0173965331717243 -1.932970748288636 -2.0083509133628219 -2.164764755891758 -2.0824201190444134 -2.0686550454221706 -2.06406668754809 -2.1504721684128039 -2.1741872765260313
leaf_weight=518.08818081021309 230.97209706902504 111.93263165652752 151.73090068995953 20.72826512157917 2.9611807316541698 4.9747836291789991 3.434969648718833 2.9611807316541654 3.3165224194526663 4.6194419413805008 24.400129228830338 2.8427335023880005 85.045110613107681 6.8699392974376661 43.707027599215508 13.266089677810672 2.8427335023880005 2.6058390438556662 2.8427335023880005 12.792300760746 3.079627960920333 4.145653024315834 2.4873918145895004 3.3165224194526663 26.532179355621338 2.7242862731218329 2.8427335023880005 2.7242862731218329 10.541803404688833 9.9495672583580017
leaf_count=4374 1950 945 1281 175 25 42 29 25 28 39 206 24 718 58 369 112 24 22 24 108 26 35 21 28 224 23 24 23 89 84
internal_value=-2.12371 -2.071 -1.97713 -1.78487 -1.86092 -1.94562 -2.00738 -2.04088 -2.16779 -1.85108 -2.14772 -2.07677 -2.17013 -2.15873 -2.14551 -2.12838 -2.06093 -2.1691 -2.10077 -2.14264 -2.13047 -2.07039 -1.99931 -2.15419 -2.14288 -2.1472 -2.02773 -2.15409 -2.13273 -2.1548
internal_weight=1321.28 618.768 314.122 156.943 45.0099 24.2817 14.6875 11.2525 304.646 9.59423 73.6742 6.15926 702.511 184.422 99.3772 55.6702 9.71267 157.179 5.44857 45.9575 33.1652 7.22528 8.29131 67.5149 43.1148 25.9399 5.80391 39.7983 13.2661 23.2157
internal_count=11155 5224 2652 1325 380 205 124 95 2572 81 622 52 5931 1557 839 470 82 1327 46 388 280 61 70 570 364 219 49 336 112 196
is_linear=0
shrinkage=1


Tree=9
num_leaves=31
num_cat=0
split_feature=6 5 4 1 2 2 1 2 1 0 2 1 1 2 3 3 2 1 1 1 0 1 3 2 1 1 1 3 1 3
split_gain=1302.04 1950.28 2923.27 55.6421 54.2452 38.0674 17.1387 17.8151 23.5886 14.6128 14.0999 11.2637 6.42622 5.88679 17.036 5.48457 5.40448 6.56936 5.2006 7.59793 4.78874 6.69377 3.34234 3.12096 3.77775 7.2691 7.1334 3.74317 2.95578 2.88458
threshold=1.0000000180025095e-35 1.0000000180025095e-35 1.0000000180025095e-35 49.500000000000007 1.675 1.6850000000000003 50.500000000000007 1.675 52.500000000000007 1.0000000180025095e-35 1.7450000000000003 59.500000000000007 55.500000000000007 1.675 72.850000000000009 49.250000000000007 1.7950000000000002 53.500000000000007 49.500000000000007 50.500000000000007 1.0000000180025095e-35 56.500000000000007 54.750000000000007 1.675 58.500000000000007 53.500000000000007 55.500000000000007 54.750000000000007 60.500000000000007 82.750000000000014
decision_type=2 2 2 2 2 2 2 2 2 2 2 2 2 2 2 2 2 2 2 2 2 2 2 2 2 2 2 2 2 2
left_child=1 2 3 -1 28 11 -3 -8 10 -7 -9 15 -2 -14 -15 -6 17 -11 -4 -20 21 -10 -23 -21 25 -25 -27 -28 -5 -16
right_child=12 6 18 4 5 9 7 8 20 16 -12 -13 13 14 29 -17 -18 -19 19 23 -22 22 -24 24 -26 26 27 -29 -30 -31
leaf_value=0.23332752270393164 -0.050475014009864753 -0.051141501225287989 -0.051137180922013983 0.23468058487598881 -0.010215981948746254 0.099497496303122657 -0.048900885300061668 0.14408846236730319 0.045382030402435471 0.21064509867945094 0.0052901666153839493 0.14569376456705538 -0.049301456156833734 0.041073731096494738 -0.01445499290292071 0.069485104978503062 0.22408936021879455 0.12395994949249277 0.042940248363220052 -0.051155197150215562 -0.033385057968939313 -0.051278908972174769 0.0056869780386069411 -0.05149439230479394 -0.051382991115572367 0.081188606194016077 -0.051312590639141953 0.025363395813015832 0.19866255564027591 -0.043603906339295992
leaf_weight=195.55142694711685 605.16608878970146 249.50454867211374 122.46520687964949 25.73326812684536 3.6252097934484464 4.9260311424732235 44.143390916287899 3.8217709958553305 5.6539887189865103 4.5367485433816928 3.5103625953197479 3.2668347060680381 54.079357333481312 8.0618749707937223 10.846420824527739 5.3351332247257233 8.9820778071880323 4.2173636108636856 3.1773692369461051 21.027632907032967 25.02649287879467 5.0658197999000532 5.2366164475679398 6.3710988610982922 8.6690125465393049 3.0071677863597852 3.1241626590490341 3.2449200302362442 7.3152548223733893 39.025262981653214
leaf_count=1132 4730 1962 970 149 27 33 344 27 41 28 26 21 422 58 83 37 54 26 24 164 191 39 39 48 66 22 24 24 44 300
internal_value=0.000136651 0.0449989 0.115289 0.219784 0.180802 0.137319 -0.0443275 -0.0259394 -0.00496051 0.175682 0.0776368 0.066216 -0.0484388 -0.0374376 -0.0263631 0.0372393 0.196841 0.168884 -0.0456444 -0.0318093 -0.0197378 0.00166706 -0.0223238 -0.0370356 -0.0248757 -0.0102833 0.0177194 -0.0122477 0.226708 -0.0372644
internal_weight=1493.72 776.539 434.576 263.489 67.9379 34.8894 341.963 92.4584 48.3151 22.6622 7.33213 12.2272 717.179 112.013 57.9336 8.96034 17.7362 8.75411 171.087 48.6214 40.9829 15.9564 10.3024 45.444 24.4164 15.7473 9.37625 6.36908 33.0485 49.8717
internal_count=11155 5562 2893 1551 419 226 2669 707 363 141 53 85 5593 863 441 64 108 54 1342 372 310 119 78 348 184 118 70 48 193 383
is_linear=0
shrinkage=0.05


Tree=10
num_leaves=31
num_cat=0
split_feature=5 4 6 1 2 3 1 2 2 2 1 2 1 1 2 1 1 2 3 2 1 1 3 1 1 1 3 0 4 2
split_gain=1107.86 1920.56 2737.82 58.443 61.9695 31.3096 23.0238 17.4699 12.4217 16.4261 12.0823 11.9681 11.6563 11.0722 10.0204 9.35366 6.89772 27.5644 6.89537 9.02841 8.40885 7.33261 6.48841 4.95452 4.28219 5.51599 14.3173 3.91623 6.77795 3.27987
threshold=1.0000000180025095e-35 1.0000000180025095e-35 1.0000000180025095e-35 49.500000000000007 1.675 48.95000000000001 50.500000000000007 1.675 1.7550000000000001 1.7350000000000001 61.500000000000007 1.7950000000000002 52.500000000000007 57.500000000000007 1.675 59.500000000000007 56.500000000000007 1.7550000000000001 54.750000000000007 1.6850000000000003 54.500000000000007 61.500000000000007 71.750000000000014 58.500000000000007 49.500000000000007 50.500000000000007 58.750000000000007 1.0000000180025095e-35 1.0000000180025095e-35 1.6850000000000003
decision_type=2 2 2 2 2 2 2 2 2 2 2 2 2 2 2 2 2 2 2 2 2 2 2 2 2 2 2 2 2 2
left_child=6 2 3 -2 -5 13 -1 -8 9 12 -4 16 22 -6 -12 -13 17 -7 -14 20 -20 23 -9 -22 -3 26 -26 28 -10 -27
right_child=1 24 10 4 5 11 7 8 27 -11 14 15 18 -15 -16 -17 -18 -19 19 -21 21 -23 -24 -25 25 29 -28 -29 -30 -31
leaf_value=-0.050141174204948229 0.25596928196910324 -0.050142681245060362 -0.048659369930492691 0.25068792988490551 -0.032169435799331389 0.046824223715641058 -0.045752324231806127 0.10501811329655715 -0.050290079619600449 0.093618767094306055 -0.050183250753827319 0.26002374546128088 -0.050229886269828876 0.10940476674931064 0.079566279421520392 0.15723769411682428 0.18690621544229191 0.22081173512195931 -0.05023907100026153 -0.050214791922717286 0.010034385575291788 -0.050241710047607746 0.010096470477659037 0.0686634855815587 0.094936623343316498 -0.04692678464529218 -0.050096387347850872 -0.043491653839483613 0.058402248477940268 -0.025015019998410368
leaf_weight=507.42180336594083 153.22936251759529 208.6166608887861 133.70512484759092 27.774021729826927 2.7285186275839832 5.5785865783691424 79.111458651721478 3.2017639428377143 3.004669912159442 4.4895928949117652 2.6202598214149466 5.2609458863735181 11.234312191605566 2.7964707762002945 3.4436832368373871 3.820867583155632 5.8597711622714987 3.8457177430391312 4.2466043680906358 7.7788009792566291 6.5984453335404414 2.5260163471102706 4.1130075082182884 7.9388180449604988 2.7352373749017707 60.774050280451775 4.5031105801463127 29.685742981731892 2.744331069290638 23.753068551421165
leaf_count=4492 955 1854 1178 175 23 41 695 25 26 35 23 33 98 21 27 27 42 27 37 68 55 22 34 63 21 531 40 259 22 206
internal_value=8.38436e-05 0.0466036 0.126086 0.239822 0.196916 0.146953 -0.0448452 -0.0287221 -0.0133354 0.00219141 -0.0455287 0.17132 -0.0064251 0.0394883 0.0235009 0.21678 0.144308 0.117822 -0.0169592 -0.00410983 0.01272 0.0283888 0.0516448 0.0420518 -0.0461833 -0.0371821 0.0047089 -0.0361767 0.00159506 -0.0407693
internal_weight=1325.14 651.045 350.663 210.894 57.6649 29.8909 674.095 166.674 87.5621 52.1274 139.769 24.3659 47.6378 5.52499 6.06394 9.08181 15.2841 9.4243 40.323 29.0887 21.3099 17.0633 7.31477 14.5373 300.382 91.7655 7.23835 35.4347 5.749 84.5271
internal_count=11155 5224 2572 1344 389 214 5931 1439 744 437 1228 170 402 44 50 60 110 68 343 245 177 140 59 118 2652 798 61 307 48 737
is_linear=0
shrinkage=0.05


Tree=11
num_leaves=31
num_cat=0
split_feature=6 5 4 0 2 1 2 3 1 2 3 2 3 2 1 1 1 1 2 1 2 3 3 2 2 2 3 1 2 2
split_gain=2131.35 2879.66 264.06 220.5 93.1406 46.1343 46.3178 44.4976 42.4135 45.0818 33.2941 32.5869 109.682 30.5071 46.7277 25.2952 27.502 18.715 22.8439 16.8997 15.3459 36.3501 30.0918 20.448 15.1136 14.2986 27.9767 13.5801 13.2242 11.3276
threshold=1.0000000180025095e-35 1.0000000180025095e-35 1.0000000180025095e-35 1.0000000180025095e-35 1.5950000000000004 49.500000000000007 1.675 104.50000000000001 50.500000000000007 1.675 72.850000000000009 1.7050000000000003 80.250000000000014 1.7550000000000001 55.500000000000007 37.500000000000007 48.500000000000007 49.500000000000007 1.675 53.500000000000007 1.8450000000000004 92.750000000000014 93.750000000000014 1.8150000000000002 1.8250000000000004 1.675 54.750000000000007 53.500000000000007 1.6150000000000004 1.7950000000000002
decision_type=2 2 2 2 2 2 2 2 2 2 2 2 2 2 2 2 2 2 2 2 2 2 2 2 2 2 2 2 2 2
left_child=19 2 3 17 -5 -3 -7 11 -4 -10 -11 12 15 14 -8 28 -17 -2 -19 -1 22 -22 24 -24 27 -21 -27 -13 -6 -12
right_child=1 5 8 4 7 6 13 -9 9 10 29 20 -14 -15 -16 16 -18 18 -20 25 21 -23 23 -25 -26 26 -28 -29 -30 -31
leaf_value=-0.055196793849658067 0.16565724362364057 -0.055853446473168915 0.16720961829147424 0.16800109932150298 -0.048889567606309095 -0.054279952442532767 0.076222841530487973 0.12046268384121613 0.15847670997896196 -0.031963309231541219 0.070305486229434347 0.025834299103719007 0.14131286445723534 -0.035699186906663259 -0.020042791962629227 0.13987316989915563 0.03525793213208752 0.16486293705088975 0.072267752042242825 -0.052465453806133461 0.11769558879632408 -0.036878169689742189 0.13149572444195884 0.012490651667830449 0.097444974427229797 0.0030755824886121302 -0.049189846680703392 -0.057031131034072216 0.025682165965490014 0.14132884459864486
leaf_weight=810.77718951560382 75.867826506495476 326.22107987105846 200.11918012797832 21.012761071324348 6.8733418732881537 62.78108324110508 24.609170377254486 25.882900178432465 34.984972551465034 5.8970989584922817 12.860884696245195 56.710855722427368 36.568119361996651 31.666544705629349 25.844410315155983 10.271985054016115 16.174251213669777 12.877516031265261 13.797927245497702 101.7542744576931 4.8099254369735744 18.175963148474693 13.124747529625894 4.9789317995309821 6.738936334848403 45.881933644413948 57.932677015662193 5.4164285510778418 44.022684291005135 9.9632305949926359
leaf_count=4455 347 1784 915 96 37 343 123 123 161 30 64 293 171 170 135 48 82 59 68 555 23 98 63 25 33 239 313 28 227 47
internal_value=0.000344367 0.0483023 0.117609 0.0905484 0.0668999 -0.0454256 -0.021949 0.0583937 0.155898 0.120367 0.0739451 0.0512175 0.0699599 0.0027681 0.0269116 0.0362235 0.0758915 0.152991 0.116968 -0.0519503 0.031801 -0.00453275 0.0414039 0.0987666 0.0263243 -0.0391459 -0.0260906 0.0186099 0.0156115 0.101309
internal_weight=2124.6 1108.25 637.13 373.305 270.762 471.122 144.901 249.749 263.825 63.7062 28.7212 223.866 113.91 82.1201 50.4536 77.3423 26.4462 102.543 26.6754 1016.35 109.956 22.9859 86.9699 18.1037 68.8662 205.569 103.815 62.1273 50.896 22.8241
internal_count=11155 5593 3038 1821 1347 2555 771 1251 1217 302 141 1128 565 428 258 394 130 474 127 5562 563 121 442 88 354 1107 552 321 264 111
is_linear=0
shrinkage=0.05


Tree=12
num_leaves=31
num_cat=0
split_feature=6 5 4 0 2 1 2 3 2 1 3 1 2 3 2 2 1 1 3 3 1 3 2 2 2 3 1 1 2 1
split_gain=504.073 742.956 892.681 642.116 168.63 77.2155 57.2034 122.727 62.8111 38.0426 35.5909 26.4315 45.1555 69.119 24.948 51.0694 42.714 26.9097 22.2153 19.7822 19.0557 27.656 58.3084 31.4928 12.9885 9.48899 8.62401 7.5608 10.2446 7.50813
threshold=1.0000000180025095e-35 1.0000000180025095e-35 1.0000000180025095e-35 1.0000000180025095e-35 1.5950000000000004 51.500000000000007 1.8450000000000004 86.250000000000014 1.7550000000000001 31.500000000000004 96.500000000000014 37.500000000000007 1.6950000000000001 71.750000000000014 1.7050000000000003 1.8450000000000004 58.500000000000007 58.500000000000007 79.250000000000014 87.750000000000014 30.500000000000004 80.250000000000014 1.7050000000000003 1.7050000000000003 1.655 93.750000000000014 36.500000000000007 35.500000000000007 1.7450000000000003 25.500000000000004
decision_type=2 2 2 2 2 2 2 2 2 2 2 2 2 2 2 2 2 2 2 2 2 2 2 2 2 2 2 2 2 2
left_child=-1 2 3 -2 -5 6 7 11 -9 25 19 20 13 -13 17 16 -16 18 -7 -11 21 23 -23 29 -22 -10 -21 28 -26 -6
right_child=1 -3 -4 4 5 14 -8 8 9 10 -12 12 -14 -15 15 -17 -18 -19 -20 26 24 22 -24 -25 27 -27 -28 -29 -30 -31
leaf_value=-0.046883001702879318 -0.046879894721379357 -0.046881601591551664 -0.046878214471202884 -0.046874136358830726 0.29774623273399364 0.23104424517761918 0.35411493957612861 0.031740777950228297 0.37348360495703831 0.063705552968474702 0.030756404953607402 0.40264631676949292 0.32049585142675152 -0.0061638652390089638 0.17060543485727372 -0.047733324031052821 0.46828408088958473 -0.047363727432257578 0.021852351972906442 0.15934681817546764 0.23323365954978101 -0.047685667048027895 0.32014821540107358 0.11721514896474139 0.38300863226996296 0.22563212519791265 0.28305658263846561 0.44186316155431266 0.26170330045579049 0.35888741920750866
leaf_weight=307.07719866639491 26.262746170163155 141.64719094336033 67.386970803141594 5.3079405426979056 13.96615633741022 3.0466564707458001 13.506143197417257 7.5857554338872459 3.1938755735754993 1.777789331972597 3.8169536888599387 1.4405670911073665 5.0143901705741882 3.6629336923360825 3.2015287801623336 1.51474018022418 1.9324755445122717 2.8385924324393272 2.1752470880746841 1.9230318218469618 1.9475274235010136 1.8562245741486538 2.5677135139703751 2.1050901412963858 6.2464121580123884 1.6436759456992147 5.2680190578103065 2.9524606913328162 2.4128201678395271 7.8397184796631327
leaf_count=5562 474 2555 1217 96 140 41 139 121 33 20 53 17 61 61 42 23 20 45 37 22 23 28 24 22 65 22 56 30 25 81
internal_value=-0.000253493 0.0411255 0.102115 0.175398 0.22811 0.241954 0.259183 0.242579 0.152038 0.203818 0.158631 0.286462 0.213933 0.109231 0.135686 0.207384 0.282654 0.0765462 0.143903 0.213052 0.303979 0.280651 0.16581 0.301899 0.352726 0.323247 0.249974 0.372767 0.349208 0.319728
internal_weight=653.119 346.041 204.394 137.007 110.744 105.436 90.7273 77.2211 25.2091 17.6233 12.7858 52.012 10.1179 5.1035 14.7092 6.64874 5.134 8.0605 5.2219 8.96884 41.8941 28.3349 4.42394 23.911 13.5592 4.83755 7.19105 11.6117 8.65923 21.8059
internal_count=11155 5593 3038 1821 1347 1251 1043 904 327 206 151 577 139 78 208 85 62 123 78 98 438 295 52 243 143 55 78 120 90 221
is_linear=0
shrinkage=0.05


Tree=13
num_leaves=31
num_cat=0
split_feature=5 6 4 1 2 3 3 3 1 2 3 3 1 1 4 1 1 1 3 3 1 3 2 1 1 2 3 0 4 3
split_gain=1015.78 1784.07 2774.39 66.5424 51.9924 41.9908 26.8598 41.105 16.3305 10.8916 12.2109 13.6 8.43275 7.85315 8.72511 7.26028 28.8373 7.0207 5.69071 13.7644 6.48833 8.52 2.06238 2.08155 5.28141 8.84374 1.99007 8.85683 14.1369 6.25521
threshold=1.0000000180025095e-35 1.0000000180025095e-35 1.0000000180025095e-35 49.500000000000007 1.655 72.850000000000009 76.850000000000009 85.500000000000014 50.500000000000007 1.655 49.900000000000006 47.45000000000001 60.500000000000007 55.500000000000007 1.0000000180025095e-35 49.500000000000007 50.500000000000007 53.500000000000007 88.850000000000009 89.750000000000014 54.500000000000007 99.500000000000014 1.675 58.500000000000007 53.500000000000007 1.6850000000000003 84.750000000000014 1.0000000180025095e-35 1.0000000180025095e-35 85.500000000000014
decision_type=2 2 2 2 2 2 2 2 2 2 2 2 2 2 2 2 2 2 2 2 2 2 2 2 2 2 2 2 2 2
left_child=8 -2 3 -3 -5 12 -7 17 -1 -10 11 -11 -6 -13 -15 -4 -17 -8 -9 -20 -21 -22 -18 24 -24 -26 -12 28 -28 -29
right_child=1 2 15 4 5 6 7 18 9 10 26 13 -14 14 -16 16 22 -19 19 20 21 -23 23 -25 25 -27 27 29 -30 -31
leaf_value=-0.049554964455176397 -0.046517017478590994 0.27272075410365765 -0.049556726765252572 0.27382761353925428 -0.030195296470762467 0.32102418851119552 0.13198346346834039 0.26889344852614089 -0.049563561723182908 -0.041202296812749617 -0.034056788201172083 0.0054648073948427994 0.097545128823813332 0.027379043965006039 0.15340483612924513 0.10608539696541458 -0.049551778242035278 0.032072990975049467 0.093825365812995568 0.28024920506007422 0.13139203426702439 0.25587263150022405 -0.049590243983680178 -0.049631326782863312 0.08826099229633938 -0.023910388557429274 -0.027918161083245119 0.030212202733259082 0.11015988892927858 -0.046717731443232165
leaf_weight=466.04007830134378 277.45269494323338 133.98195244371891 94.611146084964275 17.437406048178673 2.4931893870234516 3.4886218234896686 3.0098431706428554 4.0412920117378226 51.052156314253807 5.9156230539083472 57.59897293150425 4.5114952996373159 2.6815483719110489 2.5821627750992775 2.9337870627641678 3.8301436975598326 18.824307084083557 4.2286664471030235 2.415387123823165 3.6025014221668226 2.7365412712097168 2.761973112821579 6.6943397447466877 6.9458086788654319 2.520693510770796 5.8010231181979179 4.5869662314653423 3.1161883696913746 3.110937625169754 17.377586111426353
leaf_count=4492 2669 875 909 114 22 26 25 27 490 56 543 41 20 23 23 32 181 35 19 24 21 20 64 66 21 54 43 28 26 166
internal_value=3.32834e-05 0.0464149 0.126464 0.2545 0.204575 0.16619 0.191821 0.172048 -0.0449043 -0.0307184 -0.0212616 0.0189218 0.0359998 0.0543916 0.0944088 -0.0417159 -0.0250891 0.0736167 0.217845 0.199932 0.228092 0.19392 -0.0374075 -0.0269981 -0.016529 0.0100669 -0.0287291 -0.017844 0.027883 -0.0350201
internal_weight=1218.39 599.559 322.106 182.879 48.897 31.4596 26.2848 22.7962 618.826 152.786 101.734 15.9431 5.17474 10.0274 5.51595 139.227 44.6163 7.23851 15.5577 11.5164 9.10102 5.49851 40.7862 21.9619 15.0161 8.32172 85.7907 28.1917 7.6979 20.4938
internal_count=11155 5224 2555 1228 353 239 197 171 5931 1439 949 143 42 87 46 1327 418 60 111 84 65 41 386 205 139 75 806 263 69 194
is_linear=0
shrinkage=0.05


Tree=14
num_leaves=31
num_cat=0
split_feature=5 6 4 1 2 3 3 3 1 1 1 2 3 2 3 3 3 1 2 1 1 2 1 1 4 1 1 3 0 1
split_gain=1139.43 1852.23 2696.59 67.826 78.9683 28.5071 11.5617 16.7732 27.6441 11.2505 11.1325 12.6424 10.441 8.64092 12.0272 18.6149 7.33883 20.3084 5.35989 4.39693 8.64395 4.05474 18.0746 3.0785 6.09664 2.53383 4.49999 2.18886 5.44936 5.95006
threshold=1.0000000180025095e-35 1.0000000180025095e-35 1.0000000180025095e-35 49.500000000000007 1.675 72.850000000000009 85.500000000000014 88.850000000000009 54.500000000000007 56.500000000000007 49.500000000000007 1.675 47.95000000000001 1.655 49.900000000000006 46.250000000000007 78.750000000000014 53.500000000000007 1.8750000000000002 51.500000000000007 52.500000000000007 1.6850000000000003 51.500000000000007 61.500000000000007 1.0000000180025095e-35 56.500000000000007 60.500000000000007 84.750000000000014 1.0000000180025095e-35 59.500000000000007
decision_type=2 2 2 2 2 2 2 2 2 2 2 2 2 2 2 2 2 2 2 2 2 2 2 2 2 2 2 2 2 2
left_child=10 9 19 -4 -5 -6 16 -8 -9 -2 -1 -12 25 -11 15 -15 -7 -18 -10 -3 -21 22 -14 -16 -25 -13 -27 -22 29 -29
right_child=1 2 3 4 5 6 7 8 18 13 11 12 21 14 23 -17 17 -19 -20 20 27 -23 -24 24 -26 26 -28 28 -30 -31
leaf_value=-0.049980436326742365 -0.047825231271147392 -0.049980747797350455 0.2604990668131173 0.25723253171574501 0.021329631036622596 0.17835838327132689 0.26490914036822266 0.26220983895186656 0.13013957024530506 -0.049988948172659114 -0.0499876877650954 0.058838310717076542 0.083981100056559524 -0.050116996911325984 -0.03638463440812844 0.10612795195423788 0.15510747381364531 -0.013943708006989075 0.039789813851166173 0.053790756774947615 -0.050076397318827674 -0.036226454592353484 -0.02955424986109827 0.060052691786575768 -0.050046781700962842 0.03866021655564339 -0.050087475101077472 -0.031704361829080922 -0.045003182937917552 0.076802124398723096
leaf_weight=483.20794058068077 252.88353284334244 103.49682892858982 144.09517635405064 28.969490855932236 4.1743385791778591 4.1268783807754534 5.0371114611625663 3.8064751923084241 4.1198814362287521 15.642182841897009 79.636061549186707 3.6515413671731931 4.0991395860910442 3.048402741551401 14.564270727336408 5.0880184024572372 5.0745090246200562 2.733569547533989 2.7287234961986542 2.8745532706379882 15.495352424681188 57.540451221168041 24.204390354454517 2.7064755111932746 2.348344624042511 3.9147079288959503 2.248927153646946 2.7136708125472042 9.8033341765403748 2.3640982806682587
leaf_count=4374 2289 934 909 184 35 30 34 25 30 141 718 30 36 27 129 40 37 23 20 24 138 509 212 22 21 32 20 24 87 21
internal_value=7.12467e-05 0.0476977 0.127044 0.241816 0.197515 0.143116 0.161517 0.189725 0.154183 -0.043789 -0.0460648 -0.0352711 -0.0230195 -0.0202694 -0.00352029 0.047589 0.124428 0.0959235 0.0941411 -0.0448989 -0.0290811 -0.0286051 -0.0131112 -0.0247163 0.00890319 0.0258325 0.00627882 -0.0369233 -0.0232274 0.0188139
internal_weight=1296.4 637.895 341.614 204.866 60.771 31.8015 27.6271 15.6922 10.6551 296.281 658.503 175.295 95.6592 43.3977 27.7555 8.13642 11.935 7.80808 6.8486 136.748 33.251 85.844 28.3035 19.6191 5.05482 9.81518 6.16364 30.3765 14.8811 5.07777
internal_count=11155 5224 2555 1327 418 234 199 109 75 2669 5931 1557 839 380 239 67 90 60 50 1228 294 757 248 172 43 82 52 270 132 45
is_linear=0
shrinkage=0.05


Tree=15
num_leaves=31
num_cat=0
split_feature=1 3 4 1 2 3 2 1 3 4 3 3 0 1 3 2 1 1 1 3 1 1 1 3 2 3 4 2 1 3
split_gain=23229.8 115830 207892 2.17604e-14 2.1011e-14 4.48253e-15 4.05231e-15 5.38458e-15 3.92741e-15 3.43475e-15 3.07393e-15 3.02189e-15 2.55004e-15 2.05825e-15 2.01228e-15 1.64799e-15 2.05738e-15 1.6237e-15 1.58554e-15 1.55431e-15 1.46411e-15 2.29851e-15 1.46064e-15 1.5786e-15 1.34961e-15 1.04604e-15 9.45424e-16 8.88178e-16 2.10942e-15 4.9509e-15
threshold=18.500000000000004 48.350000000000009 1.0000000180025095e-35 52.500000000000007 1.675 85.500000000000014 1.7050000000000003 57.500000000000007 52.750000000000007 1.0000000180025095e-35 47.45000000000001 78.750000000000014 1.0000000180025095e-35 55.500000000000007 84.750000000000014 1.8450000000000004 61.500000000000007 61.500000000000007 57.500000000000007 80.250000000000014 59.500000000000007 57.500000000000007 60.500000000000007 56.45000000000001 1.7750000000000001 63.750000000000007 1.0000000180025095e-35 1.675 49.500000000000007 49.900000000000006
decision_type=2 2 2 2 2 2 2 2 2 2 2 2 2 2 2 2 2 2 2 2 2 2 2 2 2 2 2 2 2 2
left_child=1 2 -1 19 17 6 7 -6 -8 12 -9 13 -10 -11 22 20 18 -5 -17 27 21 -7 23 -12 -14 -15 -24 -2 -29 -30
right_child=3 -3 -4 4 5 15 8 10 9 11 14 -13 24 25 -16 16 -18 -19 -20 -21 -22 -23 26 -25 -26 -27 -28 28 29 -31
leaf_value=-0.044448220623133763 -0.04444821934592192 -0.044448216206482011 -695.21098370217169 -0.04444821857953235 -0.044448280338906618 -0.044448223791578714 -0.044448208940751868 -0.044448292684187353 -0.044448277574694856 -0.044448223424863487 -0.044448245644825531 -0.044448324022889292 -0.044448185804380681 -0.044448248874289366 -0.044448279438923904 -0.044448227432299703 -0.044448217816157397 -0.044448233856183794 -0.044448275847435208 -0.044448217061091123 -0.044448201051032137 -0.044448272273953648 -0.04444823542073182 -0.044448204135607974 -0.044448232273102746 -0.044448289573737025 -0.044448264266707872 -0.04444822194891411 -0.04444828725908026 -0.044448227831103596
leaf_weight=0.002676545351278147 0.2457021270674884 0.021761797142971773 0.0017979003532673232 0.087300644110655412 0.029699491438805126 0.011571701557841152 0.0065733226510928935 0.0036026477173436424 0.0028133084124419847 0.0027733862298191525 0.0041355648281751201 0.0022576882256544204 0.0018938055800390438 0.0025025118884514086 0.0032978802191792047 0.0022977456756052561 0.003532649301632774 0.021573651181824971 0.006398103192623239 0.26501844110316597 0.0043721650799852787 0.0030984811601229021 0.0058522147592157125 0.005136282547027804 0.0089160017450922169 0.0042812540414161049 0.005509635571797844 0.2709302633011248 0.0040827334305504328 0.024792748554318678
leaf_count=28 2572 228 26 914 306 121 69 37 29 29 43 23 20 26 34 24 37 225 66 2776 46 32 61 54 93 44 57 2834 42 259
internal_value=-1.21674 -47.6824 -279.373 -0.0444482 -0.0444482 -0.0444483 -0.0444483 -0.0444483 -0.0444482 -0.0444483 -0.0444482 -0.0444483 -0.0444482 -0.0444483 -0.0444482 -0.0444482 -0.0444482 -0.0444482 -0.0444483 -0.0444482 -0.0444482 -0.0444482 -0.0444482 -0.0444482 -0.0444482 -0.0444483 -0.0444482 -0.0444482 -0.0444482 -0.0444482
internal_weight=1.06615 0.0262362 0.00447445 1.03992 0.22939 0.120516 0.089245 0.0572337 0.0320113 0.025438 0.0275342 0.0118148 0.0136231 0.00955715 0.0239316 0.0312708 0.0122285 0.108874 0.00869585 0.810526 0.0190423 0.0146702 0.0206337 0.00927185 0.0108098 0.00678377 0.0113619 0.545508 0.299806 0.0288755
internal_count=11155 282 54 10873 2390 1251 925 592 333 264 286 122 142 99 249 326 127 1139 90 8483 199 153 215 97 113 70 118 5707 3135 301
is_linear=0
shrinkage=0.05


Tree=16
num_leaves=31
num_cat=0
split_feature=4 5 6 1 2 3 1 1 2 1 2 2 2 3 2 1 2 2 3 1 1 1 7 1 3 2 3 1 1 1
split_gain=1147.99 1938.88 2732.17 73.7907 64.9314 45.5574 22.8435 15.4689 10.4462 14.2475 10.3912 9.65029 14.0212 8.78239 7.97763 6.95978 8.58695 11.5242 12.8203 11.8396 14.7299 10.1807 7.85234 6.45309 7.93689 5.48891 8.31898 9.20122 5.1592 4.74715
threshold=1.0000000180025095e-35 1.0000000180025095e-35 1.0000000180025095e-35 49.500000000000007 1.675 48.95000000000001 18.500000000000004 49.500000000000007 1.6850000000000003 53.500000000000007 1.675 1.7950000000000002 1.8750000000000002 72.850000000000009 1.7950000000000002 50.500000000000007 1.675 1.7450000000000003 84.750000000000014 59.500000000000007 58.500000000000007 55.500000000000007 1.0000000180025095e-35 56.500000000000007 63.750000000000007 1.7250000000000003 58.750000000000007 50.500000000000007 57.500000000000007 56.500000000000007
decision_type=2 2 2 2 2 2 2 2 2 2 2 2 2 2 2 2 2 2 2 2 2 2 2 2 2 2 2 2 2 2
left_child=7 2 3 6 -5 28 -2 -1 -7 -10 -9 -11 -13 14 23 -3 -17 18 19 20 21 22 -18 25 -25 26 27 -12 -6 -4
right_child=1 15 29 4 5 8 -8 10 9 11 13 12 -14 -15 -16 16 17 -19 -20 -21 -22 -23 -24 24 -26 -27 -28 -29 -30 -31
leaf_value=-0.050123528087412099 0.37379483159720034 -0.050122954893789262 -0.047648518852758212 0.24891228420342473 -0.022047407793703146 0.11616366662271349 0.25726506848930131 -0.046460287686619181 0.2547256942922686 0.097502775906270156 0.13230492998366916 0.26818074655084273 0.11773218474408437 -0.039088601240646004 -0.045973217488479969 -0.050118204506384961 -0.016602451239594272 -0.050202288577468439 -0.050181693078021963 -0.050170115373260528 0.14983299553754337 -0.050197473204204292 0.083117791404551319 -0.042872400721843333 0.027046180926466185 -0.016150539062009306 -0.016389126460970294 0.030572136828738852 0.072798557675356118 -0.02041665171241714
leaf_weight=491.28940068930387 4.32772001079229 214.9499465224053 119.73136000335217 26.616531446576118 3.4985632076859501 5.9500988125801113 149.0605840086937 81.31767426431179 6.0081885904073742 4.031595364212988 2.9955223500728669 3.265997514128685 2.9451038241386414 44.89961040019989 11.930906891822813 39.867605239152908 2.9533062726259285 17.358000703155994 8.3137315437197667 4.2078639939427367 2.7283698618412009 3.5383458212018004 5.9540704488754272 13.558961734175684 5.793007217347621 8.7649224773049337 5.8282625079154959 8.6140461266040784 2.4294149652123451 18.472728915512562
leaf_count=4347 40 1915 1055 168 29 43 930 717 39 31 23 21 21 392 105 353 25 152 73 37 20 31 46 118 48 75 48 71 20 162
internal_value=0.000107725 0.0477417 0.128331 0.242767 0.192933 0.139964 0.260553 -0.045495 0.172845 0.193598 -0.0331167 0.157742 0.196843 -0.0225188 -0.00957691 -0.0453351 -0.0332163 -0.0182599 0.00175965 0.0240395 0.0446182 0.0215529 0.0500548 -4.46211e-05 -0.0219423 0.0161278 0.0323522 0.0568214 0.0168225 -0.0440086
internal_weight=1321.2 646.209 346.338 208.134 54.7455 28.129 153.388 674.992 22.201 16.2509 183.703 10.2427 6.2111 102.385 57.4856 299.871 84.9213 45.0537 27.6957 19.382 15.1741 12.4457 8.90738 45.5547 19.352 26.2028 17.4378 11.6096 5.92798 138.204
internal_count=11155 5211 2559 1342 372 204 970 5944 155 112 1597 73 42 880 488 2652 737 384 232 159 122 102 71 383 166 217 142 94 49 1217
is_linear=0
shrinkage=0.05


Tree=17
num_leaves=31
num_cat=0
split_feature=5 4 6 1 2 2 1 3 1 1 1 2 1 1 1 2 2 1 2 1 1 3 1 2 3 1 2 2 2 1
split_gain=1148.76 1758.21 2903.21 65.5309 68.3272 33.2494 26.6747 50.2847 15.7011 15.6698 31.3631 26.5641 18.0013 14.6735 13.1592 14.9179 14.5825 12.5158 22.1346 10.5489 13.3809 14.6541 10.2246 9.34349 8.99356 12.8796 22.5423 5.98549 22.6542 5.4134
threshold=1.0000000180025095e-35 1.0000000180025095e-35 1.0000000180025095e-35 49.500000000000007 1.675 1.7950000000000002 18.500000000000004 56.95000000000001 51.500000000000007 60.500000000000007 53.500000000000007 1.7550000000000001 56.500000000000007 59.500000000000007 49.500000000000007 1.675 1.7850000000000004 52.500000000000007 1.675 59.500000000000007 57.500000000000007 54.750000000000007 61.500000000000007 1.6650000000000003 83.750000000000014 51.500000000000007 1.7250000000000003 1.655 1.6650000000000003 53.500000000000007
decision_type=2 2 2 2 2 2 2 2 2 2 2 2 2 2 2 2 2 2 2 2 2 2 2 2 2 2 2 2 2 2
left_child=14 8 3 6 -5 9 7 -3 -2 10 11 -6 -12 -7 -1 -16 19 18 -10 20 24 -22 -4 -24 25 26 -17 -19 -29 -27
right_child=1 2 22 4 5 13 -8 -9 17 -11 12 -13 -14 -15 15 16 -18 27 -20 -21 21 -23 23 -25 -26 29 -28 28 -30 -31
leaf_value=-0.050084329763971841 -0.050087191885378302 0.54986407231088508 -0.047344476986487499 0.25431592093918154 0.094834866963416309 0.28701902856400868 0.25827185762100585 0.21460353611914243 -0.050081671222863382 0.21602653536750052 -0.051471204258241136 0.28239777839357094 0.089320828644820716 0.14865648709115781 -0.050091732633684029 0.096918256638063555 -0.05016576232776946 -0.050082268382452749 0.13689557956643844 -0.050146909011554441 -0.050339166382809192 0.088104323705377074 -0.050076668795249669 0.080917815352728364 -0.05019865229932894 -0.050326883323646654 -0.050222697370306768 0.1014575721695489 -0.029618685118177019 -0.00032078242325890268
leaf_weight=490.2360336183965 219.29748361557722 2.2369470359326433 144.54068823903799 27.772339895367622 5.1397277414798825 4.7109476774930945 144.43291246891022 2.2367928922176361 3.1464616134762755 2.9824574142694464 3.9634872376918775 2.983545109629631 5.3145398646593094 3.2299911379814148 80.794122010469437 7.4290368780493719 29.776169262826443 23.151252955198288 3.1850848644971848 12.243210524320601 2.5579607337713224 7.5621624067425728 2.4705957621335974 3.0316864848136902 10.840943738818167 8.821178466081621 4.0069156959652901 3.6030879914760581 38.729155361652374 14.003983713686464
leaf_count=4374 1950 27 1281 175 41 32 904 14 28 21 30 20 39 22 718 58 262 206 24 108 22 62 22 24 95 76 35 28 336 121
internal_value=0.000107033 0.0476431 0.122326 0.244645 0.198588 0.143947 0.261996 0.38224 -0.0434422 0.110135 0.0919854 0.163724 0.0291758 0.23074 -0.0458561 -0.0342133 -0.0210206 -0.0231507 0.0439772 -0.00815722 0.00115224 0.0531114 -0.0447979 0.0220996 -0.0105065 0.00205296 0.0453632 -0.0296413 -0.0184622 -0.0196465
internal_weight=1314.43 646.159 355.047 205.004 56.097 28.3247 148.907 4.47374 291.113 20.3838 17.4013 8.12327 9.27803 7.94094 668.272 178.036 97.2416 71.815 6.33155 67.4654 55.2222 10.1201 150.043 5.50228 45.1021 34.2611 11.436 65.4835 42.3322 22.8252
internal_count=11155 5224 2652 1325 380 205 945 41 2572 151 130 61 69 54 5931 1557 839 622 52 577 469 84 1327 46 385 290 93 570 364 197
is_linear=0
shrinkage=0.05


Tree=18
num_leaves=31
num_cat=0
split_feature=6 4 5 1 2 3 1 2 1 2 0 1 1 1 1 2 2 3 1 3 0 1 2 1 1 1 2 2 3 3
split_gain=1161.72 1598.07 2112.51 31.8189 32.7903 27.0695 14.4329 12.7763 11.4656 9.98623 9.23414 8.18071 6.80903 13.3789 6.51268 6.04829 5.8148 15.6578 5.32647 5.29747 5.09739 7.51635 4.64333 8.66306 3.03269 6.77115 2.97959 4.94923 5.00354 2.84173
threshold=1.0000000180025095e-35 1.0000000180025095e-35 1.0000000180025095e-35 49.500000000000007 1.675 48.95000000000001 49.500000000000007 1.675 58.500000000000007 1.6850000000000003 1.0000000180025095e-35 56.500000000000007 50.500000000000007 51.500000000000007 55.500000000000007 1.7950000000000002 1.675 72.850000000000009 56.500000000000007 54.750000000000007 1.0000000180025095e-35 53.500000000000007 1.7550000000000001 52.500000000000007 53.500000000000007 56.500000000000007 1.675 1.7450000000000003 51.750000000000007 82.750000000000014
decision_type=2 2 2 2 2 2 2 2 2 2 2 2 2 2 2 2 2 2 2 2 2 2 2 2 2 2 2 2 2 2
left_child=1 2 3 -1 -5 8 -3 -8 -6 11 -11 -7 -4 -14 -2 18 -16 -18 20 -20 21 -9 23 -22 -12 -26 -15 28 -28 -19
right_child=14 6 12 4 5 9 7 15 -10 10 24 -13 13 26 16 -17 17 29 19 -21 22 -23 -24 -25 25 -27 27 -29 -30 -31
leaf_value=0.18644526197849998 -0.049998181191679709 -0.050677217645618312 -0.050692724886928588 0.18189258782083859 -0.037856403388801259 0.035647062814720784 -0.048324240939192138 0.0031663631961613378 0.095197513103144227 0.089505537578217137 0.19090016236214771 0.13978259776131882 0.058904128864748245 -0.050683341827081133 -0.048776677013034835 -0.040094859399050144 0.03777683439632859 -0.013717301877803768 -0.050841970737927893 0.0061944193472727484 0.070230209940186791 0.092645246435287168 -0.041847372598927866 -0.029798195952581558 0.094001746443331299 0.17544183427825763 -0.041250914405331365 -0.050914657293257573 0.023625145418641719 -0.042955000960682221
leaf_weight=230.28695672750473 575.00354650616646 232.35883928835392 120.10931476950645 38.774439811706543 3.4911779016256324 3.949177309870719 41.810290768742561 5.4562577828764915 3.0194875448942184 4.8809863626956966 7.6683980822563198 3.6099027842283249 4.0394715368747702 19.426148518919945 51.459478788077831 13.739725813269613 8.3245856165885908 10.674090296030043 8.5328492149710673 7.7854971885681143 4.0727199465036374 4.1184996515512466 5.4356547221541414 4.6198580414056778 3.6669393926858893 8.3961866199970228 5.0191618278622645 9.4732486978173238 7.2866457104682922 37.53399296849966
leaf_count=1132 4730 1915 988 193 25 26 343 40 19 30 40 22 28 160 422 109 58 83 69 58 28 27 43 35 20 44 39 76 53 300
internal_value=2.65895e-05 0.040876 0.0996736 0.177121 0.149399 0.116828 -0.0439499 -0.0275942 0.0238508 0.135644 0.151082 0.0853779 -0.0444654 -0.027934 -0.0478822 -0.0114722 -0.036616 -0.0255466 -0.00164581 -0.0236299 0.0134891 0.0416549 -0.00559895 0.017068 0.166315 0.150686 -0.036447 -0.0237487 -0.00283581 -0.0364813
internal_weight=1484.02 801.028 473.098 307.744 77.4567 38.6823 327.93 95.5714 6.51067 32.1716 24.6125 7.55908 165.354 45.2447 682.996 53.7611 107.992 56.5327 40.0213 16.3183 23.703 9.57476 14.1282 8.69258 19.7315 12.0631 41.2052 21.7791 12.3058 48.2081
internal_count=11155 5562 2895 1551 419 226 2667 752 44 182 134 48 1344 356 5593 409 863 441 300 127 173 67 106 63 104 64 328 168 92 383
is_linear=0
shrinkage=0.05


Tree=19
num_leaves=31
num_cat=0
split_feature=5 4 6 1 2 1 3 2 1 2 2 1 2 3 2 2 1 2 2 1 3 1 1 1 1 1 3 0 4 2
split_gain=988.051 1557.8 1913.08 31.5585 36.1092 23.2248 21.3409 16.9416 13.38 11.6738 13.9013 11.6728 10.6424 9.91032 8.88465 7.4747 6.54777 19.4855 15.8304 5.60454 5.38222 5.57489 7.12355 5.52075 4.3563 5.38248 12.4563 3.75822 6.20315 3.24189
threshold=1.0000000180025095e-35 1.0000000180025095e-35 1.0000000180025095e-35 49.500000000000007 1.675 50.500000000000007 48.95000000000001 1.675 58.500000000000007 1.7550000000000001 1.7350000000000001 61.500000000000007 1.6850000000000003 54.750000000000007 1.675 1.7950000000000002 53.500000000000007 1.7550000000000001 1.6950000000000001 59.500000000000007 72.850000000000009 52.500000000000007 54.500000000000007 58.500000000000007 49.500000000000007 50.500000000000007 58.750000000000007 1.0000000180025095e-35 1.0000000180025095e-35 1.6850000000000003
decision_type=2 2 2 2 2 2 2 2 2 2 2 2 2 2 2 2 2 2 2 2 2 2 2 2 2 2 2 2 2 2
left_child=5 2 3 -2 -5 -1 8 -7 -6 10 12 -4 13 -9 -13 16 17 -8 -18 -17 21 -15 -23 -22 -3 26 -26 28 -11 -27
right_child=1 24 11 4 6 7 15 9 -10 27 -12 14 -14 20 -16 19 18 -19 -20 -21 23 22 -24 -25 25 29 -28 -29 -30 -31
leaf_value=-0.049769594838073757 0.19994169992553595 -0.049768533960762418 -0.048229532836806366 0.19673352674419714 -0.034579018541094179 -0.045192680816321967 0.081360292834172454 -0.038952346645312164 0.11857746460545245 -0.050047602569279571 0.083054289098075829 -0.049893045207584877 -0.049958436083393655 0.087960333154907533 0.072381361923653284 0.20433150100579633 0.14505643802969354 0.24121047638206636 0.013035301745372161 0.13054225631645522 -0.041184794084799067 -0.050081767982526726 0.041202260246843474 0.032137410702639889 0.084262163058112891 -0.046428586410636782 -0.049690657318965881 -0.042897994388034516 0.053679960588080201 -0.02433383816746287
leaf_weight=482.78810132294893 184.66055117547512 199.24342402815819 127.19824791699648 33.341183215379715 3.1145940944552413 75.404414057731628 4.1168610006570878 8.9629711136221868 2.6303159147500992 2.9076512679457656 4.8182529062032691 2.5151670798659316 10.699843212962149 4.2987510412931504 3.6293742507696152 6.3186165392398816 5.7932543903589231 3.5507438182830811 3.7342270314693451 4.3413973152637482 5.5111635625362378 2.6960067600011817 10.311281718313692 4.8060001730918884 2.9351759850978842 57.970967531204224 4.2461570799350739 28.458331398665905 2.8581008613109589 23.264621369540691
leaf_count=4492 955 1854 1178 175 26 695 29 80 18 26 35 23 97 32 27 33 37 21 23 27 48 24 83 38 21 531 40 259 22 206
internal_value=-3.68833e-05 0.0423552 0.108134 0.18928 0.159869 -0.0442761 0.123288 -0.0278775 0.0355439 -0.0127534 0.00214807 -0.0449781 -0.00609595 0.0067319 0.0223303 0.141385 0.120991 0.155384 0.0933117 0.17428 0.0215552 0.0385962 0.0222819 -0.00702943 -0.0456697 -0.036433 0.00505894 -0.0354401 0.00137047 -0.040101
internal_weight=1317.13 672.605 384.945 251.602 66.9412 644.521 33.6 161.733 5.74491 86.3284 52.1043 133.343 47.286 36.5862 6.14454 27.8551 17.1951 7.6676 9.52748 10.66 27.6232 17.306 13.0073 10.3172 287.66 88.4169 7.18133 34.2241 5.76575 81.2356
internal_count=11155 5224 2572 1344 389 5931 214 1439 44 744 437 1228 402 305 50 170 110 50 60 60 225 139 107 86 2652 798 61 307 48 737
is_linear=0
shrinkage=0.05


Tree=20
num_leaves=31
num_cat=0
split_feature=6 5 4 0 2 1 2 3 1 2 3 2 1 2 3 2 3 1 1 1 3 1 2 3 1 2 1 3 1 1
split_gain=1910.53 2374.76 188.83 161.504 69.4226 45.1323 43.5281 34.0277 29.6912 33.1012 27.6329 27.3256 40.063 26.4238 37.7177 52.2659 32.0103 20.0185 19.145 19.5758 25.112 16.8278 13.7748 26.5276 13.522 17.9641 13.3982 14.5293 20.1871 13.394
threshold=1.0000000180025095e-35 1.0000000180025095e-35 1.0000000180025095e-35 1.0000000180025095e-35 1.5950000000000004 49.500000000000007 1.675 104.50000000000001 50.500000000000007 1.675 72.850000000000009 1.7550000000000001 52.500000000000007 1.8450000000000004 83.250000000000014 1.7250000000000003 93.750000000000014 37.500000000000007 25.500000000000004 54.500000000000007 93.750000000000014 53.500000000000007 1.675 54.750000000000007 53.500000000000007 1.675 60.500000000000007 81.750000000000014 57.500000000000007 49.500000000000007
decision_type=2 2 2 2 2 2 2 2 2 2 2 2 2 2 2 2 2 2 2 2 2 2 2 2 2 2 2 2 2 2
left_child=21 2 3 24 -5 -3 -7 13 -4 -10 -11 12 -8 14 17 29 -15 -6 -17 20 -20 -1 -23 -24 -2 -26 27 -14 -29 -16
right_child=1 5 8 4 7 6 11 -9 9 10 -12 -13 26 16 15 18 -18 -19 19 -21 -22 22 23 -25 25 -27 -28 28 -30 -31
leaf_value=-0.054278102497531733 0.14047264207784169 -0.05496490124334772 0.14320975173472658 0.14388028341926126 0.016658096825748363 -0.053340393456643265 0.093907105773210597 0.10557234491552892 0.13635037145378495 -0.031451597981544725 0.089740384656131419 -0.034527996092325083 -0.035958819624722596 0.092611625759349503 0.1448321281283694 -0.057663434099724631 -0.040446585748221409 0.060226929540923617 0.040471504798812924 -0.032119525551646669 0.11961672182620314 -0.051448364220492773 0.0030439661653128124 -0.048257728892160026 0.14059990916038695 0.050898853258431492 -0.056306057616605093 0.0080708160600385017 0.12742325932466111 0.083542995733016073
leaf_weight=776.56894589960575 89.479778453707695 310.6187372803688 219.54783724248409 23.05587150156498 70.216867431998253 59.869695276021957 14.972112968564032 27.811073318123817 38.232249215245247 5.8339018225669887 24.273429945111275 30.748183116316795 9.465690031647684 6.2182533144950893 23.373386442661285 4.1522940993309012 16.551404073834419 42.215073749423027 33.03269699215889 5.8960724771022788 14.387751236557959 97.11510343849659 45.893264964222908 55.880917876958847 11.480373293161394 10.862659290432928 8.9743623286485654 12.968165576457979 4.8745295554399481 14.409896180033682
leaf_count=4455 375 1784 915 96 360 343 70 123 161 30 111 170 49 29 101 21 92 202 165 30 65 555 239 313 48 51 48 66 25 63
internal_value=0.000345917 0.0444928 0.103484 0.0809542 0.0607496 -0.0442929 -0.0209276 0.0533283 0.134251 0.10547 0.066257 0.00273674 0.0250921 0.0470235 0.0526295 0.0757794 -0.00410921 0.033017 0.045748 0.0538017 0.0644848 -0.0509546 -0.0379779 -0.0251241 0.131784 0.0969894 -0.00330443 0.0141135 0.0406773 0.121458
internal_weight=2108.98 1133.52 681.031 393.143 281.321 452.491 141.873 258.265 287.887 68.3396 30.1073 82.003 51.2549 230.454 207.684 95.2521 22.7697 112.432 57.4688 53.3165 47.4204 975.458 198.889 101.774 111.823 22.343 36.2827 27.3084 17.8427 37.7833
internal_count=11155 5593 3038 1821 1347 2555 771 1251 1217 302 141 428 258 1128 1007 445 121 562 281 260 230 5562 1107 552 474 99 188 140 91 164
is_linear=0
shrinkage=0.05


Tree=21
num_leaves=31
num_cat=0
split_feature=6 5 4 0 2 1 2 3 2 1 2 1 2 2 2 1 1 3 2 3 3 3 2 1 2 3 2 1 2 3
split_gain=456.549 609.71 646.935 417.907 103.529 39.5948 24.2781 59.4409 39.6709 20.5754 17.9341 20.0131 56.4876 14.7549 24.6744 20.836 16.8083 14.4151 17.6325 17.125 16.7524 13.5776 9.47093 7.76536 20.8315 18.5839 31.9479 18.177 17.8356 6.18626
threshold=1.0000000180025095e-35 1.0000000180025095e-35 1.0000000180025095e-35 1.0000000180025095e-35 1.5950000000000004 51.500000000000007 1.8450000000000004 86.250000000000014 1.7250000000000003 44.500000000000007 1.6150000000000004 37.500000000000007 1.6950000000000001 1.7050000000000003 1.8350000000000002 58.500000000000007 56.500000000000007 94.250000000000014 1.8250000000000004 88.850000000000009 100.50000000000001 79.250000000000014 1.7950000000000002 25.500000000000004 1.655 75.800000000000011 1.7050000000000003 22.500000000000004 1.6450000000000002 74.750000000000014
decision_type=2 2 2 2 2 2 2 2 2 2 2 2 2 2 2 2 2 2 2 2 2 2 2 2 2 2 2 2 2 2
left_child=-1 2 3 -2 -5 6 7 10 -9 17 -6 23 -13 15 16 21 -15 19 20 22 -19 -7 -10 25 -25 28 27 -27 -12 -26
right_child=1 -3 -4 4 5 13 -8 8 9 -11 11 12 -14 14 -16 -17 -18 18 -20 -21 -22 -23 -24 24 29 26 -28 -29 -30 -31
leaf_value=-0.046744314365470746 -0.046738813325342528 -0.046744705028520413 -0.046733848560352009 -0.046725657120732567 0.28548822043842409 0.17781765635427305 0.24833318191914056 0.011004600208440856 0.19654727043929732 0.0018311325459511839 0.27648233989679466 -0.0093685037898854195 0.22924879230027342 0.12312217283296466 0.0041649356663086903 -0.047236202025517648 0.28881086207040407 -0.028320230037312655 0.23325056253218046 0.24400078826537405 0.15434349479109255 0.021218513170396205 0.062789491914600912 0.10963228946093272 0.18532973473965636 -0.049414305700407946 0.28256820048188114 0.14507464912671292 0.15199944648027328 0.25591846463313256
leaf_weight=292.66039285436273 24.887866210192442 134.45086671039462 63.774114198982716 5.0152862332761279 7.2517904900014392 3.7484440505504626 18.159538969397545 6.0048950500786331 2.6350382864475312 1.9917535856366146 7.465347424149515 3.9651915840804559 6.6226943954825401 2.9067439585924131 1.8995084874331949 2.7129944525659084 3.2332591190934181 2.5573901683092108 2.1214596033096313 8.4726926609873754 2.4651096686720848 2.1944981105625629 2.6587121225893497 3.1179285645484951 3.593517720699313 2.2576582469046107 2.2400296330451965 2.567683007568121 4.6821629554033279 22.777048770338297
leaf_count=5562 474 2555 1217 96 51 41 139 97 24 25 55 65 61 32 27 45 26 36 22 68 30 37 25 29 30 26 16 28 40 176
internal_value=-0.000408832 0.0374243 0.0879492 0.141563 0.176196 0.184776 0.195342 0.18526 0.125395 0.155388 0.211267 0.202188 0.139886 0.112878 0.161651 0.0675781 0.210372 0.170015 0.112386 0.19992 0.0613336 0.119992 0.129369 0.215733 0.231849 0.190998 0.126519 0.0540781 0.228501 0.246299
internal_weight=651.092 358.431 223.98 160.206 135.318 130.303 113.608 95.4481 28.9071 22.9022 66.5411 59.2893 10.5879 16.6954 8.03951 8.65594 6.14 20.9104 7.14396 13.7664 5.0225 5.94294 5.29375 48.7014 29.4885 19.2129 7.06537 4.82534 12.1475 26.3706
internal_count=11155 5593 3038 1821 1347 1251 1043 904 327 230 577 526 126 208 85 123 58 205 88 117 66 78 49 400 235 165 70 54 95 206
is_linear=0
shrinkage=0.05


Tree=22
num_leaves=31
num_cat=0
split_feature=5 6 4 1 2 3 1 2 2 3 3 1 2 1 1 1 1 3 3 3 0 2 1 1 2 3 3 0 2 3
split_gain=906.263 1443.57 1900.37 34.2931 28.7551 32.3114 16.5425 13.9745 10.7685 11.3169 12.0354 8.52952 8.37512 7.27922 25.6674 6.59569 5.74152 3.44061 6.34723 2.71809 2.3345 2.04083 2.07128 4.99298 7.39065 1.9549 8.2304 6.37994 6.18541 6.11768
threshold=1.0000000180025095e-35 1.0000000180025095e-35 1.0000000180025095e-35 49.500000000000007 1.675 85.500000000000014 50.500000000000007 1.6850000000000003 1.655 49.900000000000006 47.45000000000001 60.500000000000007 1.655 49.500000000000007 50.500000000000007 59.500000000000007 56.500000000000007 87.750000000000014 98.500000000000014 91.500000000000014 1.0000000180025095e-35 1.675 58.500000000000007 53.500000000000007 1.6850000000000003 84.750000000000014 85.500000000000014 1.0000000180025095e-35 1.8750000000000002 94.750000000000014
decision_type=2 2 2 2 2 2 2 2 2 2 2 2 2 2 2 2 2 2 2 2 2 2 2 2 2 2 2 2 2 2
left_child=6 -2 3 -3 11 7 -1 16 -8 10 -10 -5 -13 -4 -15 20 -6 -7 19 -19 -12 -16 23 -23 -25 28 -27 29 -11 -28
right_child=1 2 13 4 5 17 8 -9 9 25 15 12 -14 14 21 -17 -18 18 -20 -21 -22 22 -24 24 -26 26 27 -29 -30 -31
leaf_value=-0.049228374399399852 -0.046071284747130008 0.20949788945889369 -0.049233429703092878 0.2154245366110682 -0.012257948606825116 0.21821505371750025 -0.049242551498725314 0.15141200740695376 -0.040648767546462412 -0.039324123952857032 -0.0063277568916693663 0.21035918610795959 0.099178264767893862 0.094432436723993762 -0.049227715614725304 0.11115439040345527 0.070235628130826164 0.16180150008460212 0.20420009801728267 0.10340321242956547 0.050083873567032033 -0.049275452696283029 -0.049405387505408842 0.077087330277616647 -0.023113316886655893 0.03584557693515518 -0.032497202241054554 -0.046289193328908351 0.012888723337124717 0.076492465265142237
leaf_weight=443.30902279913425 265.39661433547735 164.18043337762356 89.795698113739491 21.73202815651894 3.9525818228721636 3.4667991250753429 48.471306964755058 3.4272844493389121 5.7004382982850101 49.308299444615841 3.4096314683556539 3.1869917064905158 3.6153051853179932 4.1200004592537871 17.862320654094219 3.0772623270750046 4.5227517336606979 4.188867583870886 5.3999279588460922 3.8001452088356018 3.9686933979392052 6.3632364869117763 6.6980991140007964 2.7266516387462598 5.6609697788953781 5.8073623850941685 2.8217311054468182 16.583015121519566 6.4095562472939482 2.3680330812931061
leaf_count=4492 2669 875 909 118 35 19 490 23 56 481 30 17 24 32 181 24 35 28 31 23 33 64 66 21 54 51 25 166 62 21
internal_value=-0.000106117 0.0421234 0.108113 0.197875 0.164569 0.129285 -0.0443971 0.0662157 -0.0299186 -0.0205007 0.0177969 0.20013 0.151268 -0.0411053 -0.0243002 0.0496618 0.0317637 0.173821 0.162326 0.134023 0.0240152 -0.0367439 -0.0263475 -0.0158774 0.00945995 -0.0279287 -0.0170415 -0.0311479 -0.0333178 0.0172336
internal_weight=1211.33 620.097 354.7 221.473 57.2927 28.7584 591.234 11.9026 147.925 99.454 16.156 28.5343 6.8023 133.227 43.4313 10.4556 8.47533 16.8557 13.3889 7.98901 7.37832 39.3113 21.449 14.7509 8.38762 83.298 27.5801 21.7728 55.7179 5.18976
internal_count=11155 5224 2555 1228 353 194 5931 93 1439 949 143 159 41 1327 418 87 70 101 82 51 63 386 205 139 75 806 263 212 543 46
is_linear=0
shrinkage=0.05


Tree=23
num_leaves=31
num_cat=0
split_feature=5 6 4 1 2 3 1 2 1 3 1 1 2 1 1 2 3 1 4 1 1 1 1 4 0 3 3 3 1 3
split_gain=1016.89 1495.38 1876.08 36.112 45.1523 19.7298 11.3371 12.563 11.2428 9.56342 8.97557 20.5229 23.5739 51.3971 8.55033 8.32032 10.8597 15.0292 5.77499 4.44698 8.17653 4.08766 4.03688 6.11633 3.94864 12.0647 8.64256 2.27863 4.18197 2.18534
threshold=1.0000000180025095e-35 1.0000000180025095e-35 1.0000000180025095e-35 49.500000000000007 1.675 72.850000000000009 49.500000000000007 1.675 56.500000000000007 47.95000000000001 60.500000000000007 57.500000000000007 1.7550000000000001 52.500000000000007 54.500000000000007 1.655 51.750000000000007 58.500000000000007 1.0000000180025095e-35 51.500000000000007 52.500000000000007 56.500000000000007 60.500000000000007 1.0000000180025095e-35 1.0000000180025095e-35 84.750000000000014 89.250000000000014 56.45000000000001 54.500000000000007 84.750000000000014
decision_type=2 2 2 2 2 2 2 2 2 2 2 2 2 2 2 2 2 2 2 2 2 2 2 2 2 2 2 2 2 2
left_child=6 8 19 -4 -5 -6 -1 -8 -2 -9 11 12 13 -7 -14 -10 17 -17 -19 -3 -21 -15 -18 -24 25 -11 -27 28 -26 -22
right_child=1 2 3 4 5 10 7 9 15 24 -12 -13 14 21 -16 16 22 18 -20 20 29 -23 23 -25 27 26 -28 -29 -30 -31
leaf_value=-0.04962195877551117 -0.047381151730022886 -0.04962671768660179 0.2025533009918295 0.20051639997938878 0.019643421487436776 -0.053148136374936039 -0.04963245143339462 0.023883538661290463 -0.049635898871910382 -0.033601544024436152 0.1973670761967353 0.037634348119686273 0.22865491809736224 0.13946536369183876 0.13297831666827517 0.13166574219888613 -0.04990093167381187 0.039636607134572358 -0.050777046667985465 0.051251145067154627 -0.049745785110194167 0.21882619418682486 0.036908912819172336 -0.049795157325243561 -0.042183716189370883 0.087687289601181301 -0.019681623529623618 -0.040050954965246022 0.01857489072523736 -0.02244005662608662
leaf_weight=459.80092857778072 241.83621350675821 98.263280771672726 174.43954586982727 34.995441943407059 4.2639751583337775 3.8443967103958219 75.59365850687027 10.041058406233786 14.855103075504301 18.299353547394279 4.7782423049211493 5.5732301324605933 7.2181356251239759 3.3879742473363876 3.4518280178308487 3.0082885101437586 9.19837734103203 3.8694402799010277 3.2491406500339508 2.9407896697521201 14.774685189127924 3.1138408035039902 4.5671057999134046 3.6672534421086311 6.3620896190404874 4.3309376612305632 3.3041194304823875 45.98046301305294 5.1042110696434975 14.536891274154184
leaf_count=4374 2289 934 909 184 35 25 718 82 141 165 30 40 41 24 20 24 84 32 27 24 138 19 38 34 57 35 30 424 46 132
internal_value=-5.3422e-05 0.043306 0.108789 0.19034 0.160176 0.120557 -0.0455516 -0.0344782 -0.0432167 -0.0222159 0.134274 0.122936 0.145557 0.0917797 0.197703 -0.0194725 -0.0032139 0.0379662 -0.00163098 -0.0443391 -0.0282295 0.177473 -0.0271359 -0.0017056 -0.0277674 -0.0115734 0.0412227 -0.0350782 -0.0151371 -0.0362037
internal_weight=1288.65 659.833 375.582 245.067 70.6271 35.6316 628.817 169.016 284.251 93.4222 31.3676 26.5894 21.0162 10.3462 10.67 42.4147 27.5596 10.1269 7.11858 130.516 32.2524 6.50182 17.4327 8.23436 83.3812 25.9344 7.63506 57.4468 11.4663 29.3116
internal_count=11155 5224 2555 1327 418 234 5931 1557 2669 839 199 169 129 68 61 380 239 83 59 1228 294 43 156 72 757 230 65 527 103 270
is_linear=0
shrinkage=0.05


Tree=24
num_leaves=31
num_cat=0
split_feature=1 3 5 1 2 2 2 1 3 3 4 3 1 4 5 3 1 1 2 3 2 3 5 3 2 1 3 1 4 1
split_gain=42.4539 350.834 393.985 7.92699e-14 7.61613e-14 1.93179e-14 3.40353e-14 1.20459e-14 9.66588e-15 9.39526e-15 1.2644e-14 8.88872e-15 8.80893e-15 6.5694e-15 6.13398e-15 1.69968e-14 2.36746e-14 1.21986e-14 8.72739e-15 9.65894e-15 5.64132e-15 5.26055e-15 5.06539e-15 6.60409e-15 6.02296e-15 6.59195e-15 4.20497e-15 3.92741e-15 4.62824e-15 3.92221e-15
threshold=18.500000000000004 48.350000000000009 1.0000000180025095e-35 52.500000000000007 1.675 1.7950000000000002 1.8650000000000004 57.500000000000007 86.750000000000014 56.95000000000001 1.0000000180025095e-35 47.45000000000001 59.500000000000007 1.0000000180025095e-35 1.0000000180025095e-35 78.750000000000014 60.500000000000007 60.500000000000007 1.7750000000000001 64.65000000000002 1.7550000000000001 81.750000000000014 1.0000000180025095e-35 81.750000000000014 1.7350000000000001 53.500000000000007 65.750000000000014 61.500000000000007 1.0000000180025095e-35 61.500000000000007
decision_type=2 2 2 2 2 2 2 2 2 2 2 2 2 2 2 2 2 2 2 2 2 2 2 2 2 2 2 2 2 2
left_child=1 2 -1 -2 27 7 26 8 22 10 -3 -9 -8 29 17 -16 -17 18 19 -13 -10 -19 23 24 25 -6 -7 -5 -29 -14
right_child=3 9 -4 4 5 6 12 11 20 -11 -12 14 13 -15 15 16 -18 21 -20 -21 -22 -23 -24 -25 -26 -27 -28 28 -30 -31
leaf_value=39.368770446735454 -0.04444802226839592 -0.044448024232257868 -0.044448025608205655 -0.044448020379169423 -0.044448197670585159 -0.044447953832627021 -0.044448032240511408 -0.044448152784492982 -0.044448021618311226 -0.044448013415525019 -0.044447854076791221 -0.044448048294572259 -0.044448114870670193 -0.044448143055045602 -0.044448052893478598 -0.044448250543365375 -0.044448046027660018 -0.044448114473944089 -0.044448089225425307 -0.044447917017305126 -0.044448115773272699 -0.044448021918788855 -0.044448145442154752 -0.044448045699337108 -0.04444805947335672 -0.04444811582336939 -0.044448012546841574 -0.04444806917589976 -0.044448021626547804 -0.044448047852203798
leaf_weight=0.0012686099216807625 0.76792198605835438 0.0019928543042624361 0.0012676640180870891 0.082703436331939884 0.0033226529558305637 0.0043514079952728943 0.0045373329776339224 0.0034712740525719701 0.0038911474839551366 0.016074036895588506 0.0024145790521288291 0.0023705609637545422 0.0042715241506812163 0.0081364397556171753 0.010768038373498712 0.0031785554238012983 0.0025505498997517861 0.0058497854406596161 0.0021213224972598255 0.0034263156994711608 0.0026916253627859987 0.0020812811490031891 0.017415093621821143 0.0034619581565493709 0.0031078388710739082 0.0094735460152151063 0.010199710741289891 0.0099942597953486256 0.010500220661924686 0.0044651761854765937
leaf_count=27 8483 22 27 914 35 49 50 37 43 178 28 26 46 87 118 33 28 63 23 39 29 23 186 38 34 102 113 109 116 49
internal_value=0.0050922 2.12779 19.6695 -0.044448 -0.0444481 -0.0444481 -0.0444481 -0.0444481 -0.0444481 -0.044448 -0.0444479 -0.0444481 -0.0444481 -0.0444481 -0.0444481 -0.0444481 -0.0444482 -0.044448 -0.044448 -0.044448 -0.0444481 -0.0444481 -0.0444481 -0.0444481 -0.0444481 -0.0444481 -0.044448 -0.044448 -0.044448 -0.0444481
internal_weight=1.00928 0.0230177 0.00253627 0.986263 0.218341 0.115143 0.0359616 0.0791815 0.0433639 0.0204815 0.00440743 0.0358177 0.0214105 0.0168731 0.0323464 0.0164971 0.00572911 0.0158493 0.0079182 0.00579688 0.00658277 0.00793107 0.0367811 0.019366 0.015904 0.0127962 0.0145511 0.103198 0.0204945 0.0087367
internal_count=11155 282 54 10873 2390 1251 394 857 467 228 50 390 232 182 353 179 61 174 88 65 72 86 395 209 171 137 162 1139 225 95
is_linear=0
shrinkage=0.05


Tree=25
num_leaves=31
num_cat=0
split_feature=4 5 6 1 2 3 1 2 3 2 1 2 2 1 1 1 2 1 3 3 2 1 3 3 1 1 1 1 1 1
split_gain=1016.15 1551.03 1859.36 33.5247 37.3864 31.5074 15.6859 10.2314 8.42633 7.50497 7.00833 8.37423 11.0049 13.413 8.12998 15.101 6.53177 8.40829 6.66055 6.00601 10.2057 8.08238 7.24374 6.72509 5.61488 17.4943 5.07099 4.77819 10.0285 4.39427
threshold=1.0000000180025095e-35 1.0000000180025095e-35 1.0000000180025095e-35 49.500000000000007 1.675 48.95000000000001 49.500000000000007 1.675 72.850000000000009 1.7950000000000002 50.500000000000007 1.675 1.7450000000000003 51.500000000000007 54.500000000000007 56.500000000000007 1.6850000000000003 53.500000000000007 63.750000000000007 54.750000000000007 1.7750000000000001 54.500000000000007 56.45000000000001 48.70000000000001 59.500000000000007 58.500000000000007 52.500000000000007 56.500000000000007 57.500000000000007 57.500000000000007
decision_type=2 2 2 2 2 2 2 2 2 2 2 2 2 2 2 2 2 2 2 2 2 2 2 2 2 2 2 2 2 2
left_child=6 2 3 -2 -5 29 -1 -8 9 19 -3 -12 13 -13 -15 -16 -7 -18 -19 21 22 23 26 -9 25 -17 -21 -4 -29 -6
right_child=1 10 27 4 5 16 7 8 -10 -11 11 12 -14 14 15 24 17 18 -20 20 -22 -23 -24 -25 -26 -27 -28 28 -30 -31
leaf_value=-0.049758947211509738 0.19915856669323481 -0.049749672555153467 -0.047148821109420154 0.19517080513073545 -0.021436529384360341 0.099743435382062484 -0.045936105392170995 0.071530254841387655 -0.038377828104667028 -0.045423301343627202 -0.049750014878513577 0.11376598927029494 -0.049894448565991727 -0.050940977889935284 0.10987539998187155 -0.049897747610892683 0.20009079847442976 0.16411254822794938 0.087540507709761808 0.086108543603142892 0.11168046799050246 -0.050049715026397573 -0.015610422211156697 -0.025528474582609702 -0.049852497028156424 0.095119699559644583 0.010599391030226672 0.076394202312294102 -0.033963915203008253 0.064837766197663446
leaf_weight=466.47881005704403 188.09946636855602 205.21943809837103 113.68993334472179 31.963641539216042 3.440813489258292 6.5466500669717815 77.484808534383774 3.2623442560434368 43.206876255571842 11.367483265697954 37.833376280963421 2.4299629405140903 16.621603019535542 7.9883823171257999 3.1075870841741589 4.7064090445637685 7.2194959372282055 6.6402473300695402 4.9622090458869934 3.6367071419954353 2.4673767015337935 10.722071416676043 15.733206823468207 3.9403317794203758 5.7626705765724173 3.7262242808938026 5.7217622250318527 2.371266387403014 15.611655533313749 2.5845638811588287
leaf_count=4347 970 1915 1055 168 29 43 717 26 392 105 353 20 152 65 25 43 39 41 32 28 21 96 132 32 53 26 48 21 141 20
internal_value=-8.92302e-05 0.0429934 0.108856 0.188563 0.157106 0.118351 -0.0449449 -0.0322964 -0.0217339 -0.00908449 -0.0448088 -0.03247 -0.0177267 0.00156101 -0.00921954 0.0100424 0.142762 0.157725 0.131364 -2.55978e-06 0.0146505 -0.0225315 0.00510913 0.0184328 -0.0118127 0.0141828 0.0399423 -0.0433607 -0.0194119 0.0155705
internal_weight=1314.55 670.526 383.13 251.457 63.3576 31.394 644.022 177.543 100.058 56.8513 287.396 82.1762 44.3428 27.7212 25.2913 17.3029 25.3686 18.822 11.6025 45.4838 27.5591 17.9247 25.0917 7.20268 14.1953 8.43263 9.35847 131.673 17.9829 6.02538
internal_count=11155 5211 2559 1342 372 204 5944 1597 880 488 2652 737 384 232 212 147 155 112 73 383 229 154 208 58 122 69 76 1217 162 49
is_linear=0
shrinkage=0.05


Tree=26
num_leaves=31
num_cat=0
split_feature=5 4 6 1 2 3 1 1 2 2 1 2 1 1 3 1 2 1 3 1 2 1 1 3 3 3 2 1 1 3
split_gain=1019.57 1401.69 1983.93 29.0518 39.7638 22.0986 15.7538 13.3602 14.7581 14.1497 11.6376 18.3364 10.1033 11.8929 12.6647 9.83068 8.88885 15.9756 8.56376 11.7661 19.367 7.02688 9.82736 5.89108 12.2018 26.9886 7.21322 5.2398 19.1388 4.51345
threshold=1.0000000180025095e-35 1.0000000180025095e-35 1.0000000180025095e-35 49.500000000000007 1.675 56.45000000000001 51.500000000000007 49.500000000000007 1.675 1.7850000000000004 52.500000000000007 1.675 59.500000000000007 57.500000000000007 54.750000000000007 61.500000000000007 1.7550000000000001 52.500000000000007 83.750000000000014 51.500000000000007 1.7250000000000003 60.500000000000007 54.500000000000007 64.65000000000002 72.850000000000009 71.750000000000014 1.7850000000000004 53.500000000000007 55.500000000000007 63.750000000000007
decision_type=2 2 2 2 2 2 2 2 2 2 2 2 2 2 2 2 2 2 2 2 2 2 2 2 2 2 2 2 2 2
left_child=7 6 3 -3 -5 16 -2 -1 -9 12 11 -8 13 18 -15 -4 17 -6 19 20 -10 22 -19 -12 25 26 -25 -21 -29 -7
right_child=1 2 15 4 5 29 10 8 9 -11 23 -13 -14 14 -16 -17 -18 21 -20 27 -22 -23 -24 24 -26 -27 -28 28 -30 -31
leaf_value=-0.049717801852341176 -0.04972568623562041 0.19963850372879588 -0.046864754956623129 0.198848690756944 -0.035220732366098302 0.19399256485706673 -0.049686518667208412 -0.04972850786944142 0.087308076453399192 -0.04982673664841071 -0.044974392310619372 0.11925635008385745 -0.049836552198775218 -0.050048670702008795 0.079660306384952528 0.020816608150061852 0.14198233686102224 0.14694633984489255 -0.049859288824732173 -0.05005707557234134 -0.049868151780256227 0.16114407896860261 0.024141054763732947 -0.049831802680821706 -0.03490011453452526 0.16285107105090299 0.054458170468883127 0.068215971366461625 -0.05019304926398567 0.13675322204499527
leaf_weight=466.50864912569523 208.2366369664669 183.06821626424789 137.67361980676651 33.449369639158249 3.1616655364632669 7.6071140021085721 2.9725213646888724 76.696132808923721 7.9100017398595792 28.377713173627853 29.867465563118458 3.4939534962177277 11.716889612376688 2.4588474854826918 8.020217798650263 5.5827550143003455 4.836627632379531 2.5191181600093824 10.336335361003874 8.5001362860202807 3.813522532582283 2.7885383367538452 4.6108678355813026 5.4181246459484083 23.042434923350811 2.8071796074509621 2.3890788704156876 5.8987567573785773 8.0968514010310155 6.2929899841547012
leaf_count=4374 1950 945 1281 175 25 42 28 718 58 262 270 24 108 22 62 46 29 19 95 76 35 17 34 50 206 23 21 50 71 39
internal_value=-0.000110598 0.0429812 0.103949 0.189427 0.160786 0.120769 -0.042828 -0.0453278 -0.0334088 -0.0202514 -0.022306 0.0415964 -0.00767825 0.00129726 0.0492249 -0.0442272 0.0840664 0.062651 -0.00997488 0.00207268 0.0426863 0.0938489 0.0675298 -0.0288109 -0.0144672 0.0298898 -0.0179181 -0.0190929 -0.000286964 0.168079
internal_weight=1308.15 669.818 391.591 248.335 65.2663 31.8169 278.227 638.334 171.825 95.1293 69.9908 6.46647 66.7516 55.0347 10.4791 143.256 17.9168 13.0802 44.5556 34.2193 11.7235 9.91852 7.12999 63.5243 33.6568 10.6144 7.8072 22.4957 13.9956 13.9001
internal_count=11155 5224 2652 1325 380 205 2572 5931 1557 839 622 52 577 469 84 1327 124 95 385 290 93 70 53 570 300 94 71 197 121 81
is_linear=0
shrinkage=0.05


Tree=27
num_leaves=31
num_cat=0
split_feature=6 4 5 1 1 2 3 1 2 1 3 3 1 1 1 2 3 2 1 3 0 1 2 1 2 2 3 3 3 2
split_gain=1055.66 1354.83 1640.77 34.6926 21.0948 22.2498 20.0911 14.4504 12.3106 9.78701 7.37416 18.2626 6.84607 12.3015 6.61498 5.75858 14.4053 5.68127 4.86699 5.0694 4.43927 6.33604 4.2399 7.48024 2.94046 4.73512 4.62724 2.78459 6.48072 2.89808
threshold=1.0000000180025095e-35 1.0000000180025095e-35 1.0000000180025095e-35 18.500000000000004 49.500000000000007 1.675 48.95000000000001 49.500000000000007 1.675 58.500000000000007 56.45000000000001 52.750000000000007 50.500000000000007 51.500000000000007 55.500000000000007 1.675 72.850000000000009 1.7950000000000002 56.500000000000007 54.750000000000007 1.0000000180025095e-35 53.500000000000007 1.7550000000000001 52.500000000000007 1.675 1.7450000000000003 51.750000000000007 82.750000000000014 77.950000000000017 1.8750000000000002
decision_type=2 2 2 2 2 2 2 2 2 2 2 2 2 2 2 2 2 2 2 2 2 2 2 2 2 2 2 2 2 2
left_child=1 2 3 -1 -5 -6 9 -3 -9 -7 11 -8 -4 -14 -2 -16 -17 18 20 -20 21 -10 23 -22 -15 26 -26 28 -18 -29
right_child=14 7 12 4 5 6 10 8 17 -11 -12 -13 13 24 15 16 27 -19 19 -21 22 -23 -24 -25 25 -27 -28 29 -30 -31
leaf_value=0.27610637388916376 -0.049548142331860272 -0.050259222095690725 -0.050274993802176204 0.15653074873910436 0.15281457149427069 -0.037217813729382765 0.1503994624331971 -0.047797334261673305 0.0026435533825405109 0.084230157072688716 0.13682830147758759 0.040836633207870947 0.05446422982719118 -0.050261750646792697 -0.048275922232940645 0.034873670441099798 -0.051028136094168619 -0.039383518692242776 -0.050488135043124584 0.0058114282321566416 0.062935770343652414 0.0832747254849866 -0.041114733451115937 -0.029144519645511797 -0.040678657857890523 -0.050507786581557801 0.022052166491865074 -0.050586956845765842 0.027500866832423549 -0.018065986741287132
leaf_weight=5.4725832939152488 545.76722396910191 220.38890437781811 113.94362923502922 249.4585884809494 43.405349403619766 3.4050813242793074 6.9804498255252829 39.751070097088814 5.4981574490666389 3.2347261160612106 19.916073560714722 8.3568550497293455 4.1882293969392768 18.41774845123291 48.930064119398594 8.5675989836454374 5.4315978065133077 13.249011799693106 8.1721285432577151 7.8288548514246932 4.3031941801309568 4.3752315491437912 5.216889165341855 4.5246652290225029 4.8676130771636981 9.0131738260388357 7.4220548421144485 26.829176403582096 5.0886258259415627 9.1995123922824842
leaf_count=38 4730 1915 988 1094 193 25 36 343 40 19 97 49 28 160 422 58 43 109 69 58 28 27 43 35 39 76 53 224 40 76
internal_value=0.000143935 0.0381765 0.0894193 0.151233 0.149191 0.127727 0.101733 -0.0432868 -0.0267495 0.0219482 0.116761 0.0907018 -0.0438111 -0.0270372 -0.0473455 -0.0357915 -0.0247085 -0.0110131 -0.00159706 -0.0229423 0.0126827 0.0383739 -0.00537819 0.0157406 -0.0356309 -0.0229815 -0.00279386 -0.0356749 -0.0130437 -0.0422831
internal_weight=1461.2 811.39 498.082 340.23 334.757 85.2985 41.8932 313.308 92.9192 6.63981 35.2534 15.3373 157.852 43.9088 649.814 104.047 55.1165 53.1681 39.9191 16.001 23.9181 9.87339 14.0447 8.82786 39.7206 21.3028 12.2897 46.5489 10.5202 36.0287
internal_count=11155 5562 2895 1551 1513 419 226 2667 752 44 182 85 1344 356 5593 863 441 409 300 127 173 67 106 63 328 168 92 383 83 300
is_linear=0
shrinkage=0.05


Tree=28
num_leaves=31
num_cat=0
split_feature=5 4 6 1 1 2 2 3 1 2 1 2 2 2 3 1 1 2 1 1 1 3 1 0 1 1 3 0 4 1
split_gain=886.589 1294.98 1431.99 23.4168 20.296 24.2016 16.4393 15.6293 11.238 13.6642 11.0505 11.0398 11.9961 10.0748 9.181 6.24754 9.89472 9.91646 11.8072 5.53962 5.43821 9.68586 13.9202 4.43608 4.42668 5.23287 10.88 3.65115 5.70817 3.63538
threshold=1.0000000180025095e-35 1.0000000180025095e-35 1.0000000180025095e-35 50.500000000000007 49.500000000000007 1.675 1.675 48.95000000000001 61.500000000000007 1.8750000000000002 58.500000000000007 1.7550000000000001 1.7350000000000001 1.6850000000000003 54.750000000000007 60.500000000000007 57.500000000000007 1.7550000000000001 52.500000000000007 61.500000000000007 58.500000000000007 84.750000000000014 56.500000000000007 1.0000000180025095e-35 49.500000000000007 50.500000000000007 58.750000000000007 1.0000000180025095e-35 1.0000000180025095e-35 52.500000000000007
decision_type=2 2 2 2 2 2 2 2 2 2 2 2 2 2 2 2 2 2 2 2 2 2 2 2 2 2 2 2 2 2
left_child=3 2 4 -1 -2 -6 -5 10 -4 -10 -7 12 13 14 -8 16 17 18 -9 20 21 22 23 -16 -3 26 -26 28 -13 -19
right_child=1 24 8 6 5 7 11 15 9 -11 -12 27 -14 -15 19 -17 -18 29 -20 -21 -22 -23 -24 -25 25 -27 -28 -29 -30 -31
leaf_value=-0.049422110676189741 0.16538512088679752 -0.049421660157233732 -0.047812483354291078 -0.044640434302367228 0.16309301728352926 -0.034177742589245927 -0.038375384218389548 0.0098554736675628349 -0.037530272174401164 0.11462913873889154 0.10214756784388275 -0.049764118130231683 0.07507438146363192 -0.049640148520947051 0.031096214378954698 0.16698638220725423 0.050903971906458949 0.18795908153173221 0.13132933453899759 -0.050230752178837934 0.060116226106318088 -0.049902570616962925 -0.050800265126724087 0.10208240580016875 0.075207185602813975 -0.039435739693679465 -0.049309176045605738 -0.042341806780720172 0.04995374396948616 0.13001287866652164
leaf_weight=456.16832979768515 209.98199865221977 188.880460947752 120.85179158300161 71.824299290776253 37.864039555191994 3.0638641566038123 8.6852241829037649 3.179926425218591 3.833075448870658 2.3988485634326935 2.8874283879995346 2.791240230202674 5.0963853299617758 10.204714044928549 4.2554320544004529 5.8483942896127692 5.5805956572294226 5.278314143419264 5.393069326877594 2.5206763222813597 8.49958887696266 4.700969122350215 3.438814364373683 4.5584141612052917 3.1260971575975409 78.064015954732895 3.9980070665478706 27.34126354008913 2.953878790140152 5.5555846095085144
leaf_count=4492 955 1854 1178 695 175 26 80 21 33 17 18 26 35 97 34 33 30 26 33 22 63 43 28 35 21 737 40 259 22 27
internal_value=8.6152e-07 0.0390585 0.0951165 -0.0436915 0.157424 0.135032 -0.0270275 0.106149 -0.0444361 0.0210403 0.0319641 -0.0121528 0.00222231 -0.00570026 0.00653119 0.120466 0.109578 0.126451 0.0862718 0.0204736 0.0274756 0.0111114 0.0345206 0.0678094 -0.0451541 -0.0356921 0.00532931 -0.034728 0.00150627 0.158244
internal_weight=1298.82 685.786 411.717 613.039 284.633 74.6512 156.871 36.7872 127.084 6.23192 5.95129 85.0466 51.9602 46.8638 36.6591 30.8359 24.9875 19.4069 8.573 27.9739 25.4532 16.9536 12.2527 8.81385 274.069 85.1881 7.1241 33.0864 5.74512 10.8339
internal_count=11155 5224 2572 5931 1344 389 1439 214 1228 50 44 744 437 402 305 170 137 107 54 225 203 140 97 69 2652 798 61 307 48 53
is_linear=0
shrinkage=0.05


Tree=29
num_leaves=31
num_cat=0
split_feature=6 5 4 0 2 1 2 3 2 1 1 2 3 2 3 2 1 1 1 2 3 1 2 3 3 1 2 1 3 3
split_gain=1711.45 1990.43 142.973 124.557 54.1969 44.1624 40.8881 27.0416 24.4421 35.4981 22.7153 26.1065 28.3925 22.0858 67.2275 20.6913 20.4102 16.9274 16.8177 13.3351 25.2947 12.6645 17.3646 28.7964 24.2432 10.1894 13.3548 9.67583 9.37771 16.5196
threshold=1.0000000180025095e-35 1.0000000180025095e-35 1.0000000180025095e-35 1.0000000180025095e-35 1.5950000000000004 49.500000000000007 1.675 104.50000000000001 1.7550000000000001 55.500000000000007 50.500000000000007 1.655 72.850000000000009 1.7050000000000003 80.250000000000014 1.6150000000000004 32.500000000000007 49.500000000000007 53.500000000000007 1.675 50.900000000000006 54.500000000000007 1.8450000000000004 93.750000000000014 93.750000000000014 49.500000000000007 1.675 39.500000000000007 76.850000000000009 85.500000000000014
decision_type=2 2 2 2 2 2 2 2 2 2 2 2 2 2 2 2 2 2 2 2 2 2 2 2 2 2 2 2 2 2
left_child=18 2 3 25 -5 -3 -7 13 9 -8 -4 -12 -13 14 15 -6 -17 27 -1 -20 -21 22 23 -15 -24 -2 -27 -18 -14 -30
